<?xml version="1.0"?>
<opencv_storage>
<!-- Created using Computer Vision System Toolbox(tm) for MATLAB(R) -->
<!-- Version 9.1.0.441655 (R2016b) -->
<!-- Compatible with OpenCV 2.4 -->
<cascade>
  <stageType>BOOST</stageType>
  <featureType>HOG</featureType>
  <height>32</height>
  <width>46</width>
  <stageParams>
    <boostType>GAB</boostType>
    <minHitRate>8.0000001192092896e-01</minHitRate>
    <maxFalseAlarm>2.0000000298023224e-01</maxFalseAlarm>
    <weightTrimRate>9.4999999999999996e-01</weightTrimRate>
    <maxDepth>1</maxDepth>
    <maxWeakCount>100</maxWeakCount></stageParams>
  <featureParams>
    <maxCatCount>0</maxCatCount>
    <featSize>36</featSize></featureParams>
  <stageNum>10</stageNum>
  <stages>
    <!-- stage 0 -->
    <_>
      <maxWeakCount>2</maxWeakCount>
      <stageThreshold>1.8426492810249329e-01</stageThreshold>
      <weakClassifiers>
        <_>
          <internalNodes>
            0 -1 32 1.0464206337928772e-02</internalNodes>
          <leafValues>
            8.6179399490356445e-01 -6.2808716297149658e-01</leafValues></_>
        <_>
          <internalNodes>
            0 -1 35 4.9630813300609589e-02</internalNodes>
          <leafValues>
            -4.5731619000434875e-01 8.1235206127166748e-01</leafValues></_></weakClassifiers></_>
    <!-- stage 1 -->
    <_>
      <maxWeakCount>4</maxWeakCount>
      <stageThreshold>2.8535276651382446e-01</stageThreshold>
      <weakClassifiers>
        <_>
          <internalNodes>
            0 -1 25 2.3174233734607697e-02</internalNodes>
          <leafValues>
            -4.6071970462799072e-01 5.6919223070144653e-01</leafValues></_>
        <_>
          <internalNodes>
            0 -1 12 3.6764373071491718e-03</internalNodes>
          <leafValues>
            6.1694371700286865e-01 -3.7291750311851501e-01</leafValues></_>
        <_>
          <internalNodes>
            0 -1 5 3.8827016949653625e-02</internalNodes>
          <leafValues>
            -2.2405259311199188e-01 7.4159550666809082e-01</leafValues></_>
        <_>
          <internalNodes>
            0 -1 31 1.4529233798384666e-02</internalNodes>
          <leafValues>
            3.5318133234977722e-01 -4.7463139891624451e-01</leafValues></_></weakClassifiers></_>
    <!-- stage 2 -->
    <_>
      <maxWeakCount>1</maxWeakCount>
      <stageThreshold>6.2931936979293823e-01</stageThreshold>
      <weakClassifiers>
        <_>
          <internalNodes>
            0 -1 27 3.1716980040073395e-02</internalNodes>
          <leafValues>
            -7.2409635782241821e-01 6.2931936979293823e-01</leafValues></_></weakClassifiers></_>
    <!-- stage 3 -->
    <_>
      <maxWeakCount>4</maxWeakCount>
      <stageThreshold>1.4438816905021667e-01</stageThreshold>
      <weakClassifiers>
        <_>
          <internalNodes>
            0 -1 1 2.3292196914553642e-02</internalNodes>
          <leafValues>
            -3.7258508801460266e-01 5.8022922277450562e-01</leafValues></_>
        <_>
          <internalNodes>
            0 -1 10 1.4989741612225771e-03</internalNodes>
          <leafValues>
            5.9330600500106812e-01 -3.1804245710372925e-01</leafValues></_>
        <_>
          <internalNodes>
            0 -1 14 3.3659603446722031e-02</internalNodes>
          <leafValues>
            -2.6608613133430481e-01 4.9571350216865540e-01</leafValues></_>
        <_>
          <internalNodes>
            0 -1 34 3.2944582402706146e-02</internalNodes>
          <leafValues>
            -6.8563336133956909e-01 1.8975338339805603e-01</leafValues></_></weakClassifiers></_>
    <!-- stage 4 -->
    <_>
      <maxWeakCount>4</maxWeakCount>
      <stageThreshold>4.1855579614639282e-01</stageThreshold>
      <weakClassifiers>
        <_>
          <internalNodes>
            0 -1 15 2.3569183424115181e-02</internalNodes>
          <leafValues>
            -5.3505533933639526e-01 4.4753086566925049e-01</leafValues></_>
        <_>
          <internalNodes>
            0 -1 33 4.9278605729341507e-02</internalNodes>
          <leafValues>
            -5.2038162946701050e-01 3.1206932663917542e-01</leafValues></_>
        <_>
          <internalNodes>
            0 -1 3 2.0673703402280807e-02</internalNodes>
          <leafValues>
            -4.3485030531883240e-01 4.1724288463592529e-01</leafValues></_>
        <_>
          <internalNodes>
            0 -1 22 2.0730188116431236e-02</internalNodes>
          <leafValues>
            -6.9137650728225708e-01 2.2429896891117096e-01</leafValues></_></weakClassifiers></_>
    <!-- stage 5 -->
    <_>
      <maxWeakCount>4</maxWeakCount>
      <stageThreshold>-1.7492182552814484e-01</stageThreshold>
      <weakClassifiers>
        <_>
          <internalNodes>
            0 -1 21 1.0048127174377441e-01</internalNodes>
          <leafValues>
            -3.1034481525421143e-01 5.9705162048339844e-01</leafValues></_>
        <_>
          <internalNodes>
            0 -1 9 7.1053481660783291e-03</internalNodes>
          <leafValues>
            2.9664269089698792e-01 -6.1120909452438354e-01</leafValues></_>
        <_>
          <internalNodes>
            0 -1 17 1.3331083580851555e-02</internalNodes>
          <leafValues>
            -5.4273349046707153e-01 4.1877692937850952e-01</leafValues></_>
        <_>
          <internalNodes>
            0 -1 4 1.6709461808204651e-02</internalNodes>
          <leafValues>
            -5.7999664545059204e-01 2.8378385305404663e-01</leafValues></_></weakClassifiers></_>
    <!-- stage 6 -->
    <_>
      <maxWeakCount>5</maxWeakCount>
      <stageThreshold>-1.2511160969734192e-01</stageThreshold>
      <weakClassifiers>
        <_>
          <internalNodes>
            0 -1 0 1.6124565154314041e-02</internalNodes>
          <leafValues>
            -6.0430461168289185e-01 3.0906012654304504e-01</leafValues></_>
        <_>
          <internalNodes>
            0 -1 20 1.0357952862977982e-01</internalNodes>
          <leafValues>
            -3.2407200336456299e-01 6.4058846235275269e-01</leafValues></_>
        <_>
          <internalNodes>
            0 -1 14 3.3636167645454407e-02</internalNodes>
          <leafValues>
            -3.3822652697563171e-01 4.8816913366317749e-01</leafValues></_>
        <_>
          <internalNodes>
            0 -1 11 1.9518795888870955e-03</internalNodes>
          <leafValues>
            3.2458603382110596e-01 -5.0588119029998779e-01</leafValues></_>
        <_>
          <internalNodes>
            0 -1 6 6.8244099617004395e-02</internalNodes>
          <leafValues>
            -2.3065246641635895e-01 5.6181186437606812e-01</leafValues></_></weakClassifiers></_>
    <!-- stage 7 -->
    <_>
      <maxWeakCount>5</maxWeakCount>
      <stageThreshold>2.7432328462600708e-01</stageThreshold>
      <weakClassifiers>
        <_>
          <internalNodes>
            0 -1 7 7.4375219643115997e-02</internalNodes>
          <leafValues>
            -3.0261659622192383e-01 4.5392492413520813e-01</leafValues></_>
        <_>
          <internalNodes>
            0 -1 13 1.0788148641586304e-01</internalNodes>
          <leafValues>
            -2.2112260758876801e-01 6.6075319051742554e-01</leafValues></_>
        <_>
          <internalNodes>
            0 -1 18 4.6153403818607330e-03</internalNodes>
          <leafValues>
            -6.8840825557708740e-01 2.1570228040218353e-01</leafValues></_>
        <_>
          <internalNodes>
            0 -1 23 8.9192792773246765e-02</internalNodes>
          <leafValues>
            -2.9738152027130127e-01 4.3273118138313293e-01</leafValues></_>
        <_>
          <internalNodes>
            0 -1 16 9.3167088925838470e-03</internalNodes>
          <leafValues>
            -4.6331983804702759e-01 2.9719808697700500e-01</leafValues></_></weakClassifiers></_>
    <!-- stage 8 -->
    <_>
      <maxWeakCount>5</maxWeakCount>
      <stageThreshold>6.4546644687652588e-01</stageThreshold>
      <weakClassifiers>
        <_>
          <internalNodes>
            0 -1 26 7.3375001549720764e-02</internalNodes>
          <leafValues>
            5.1322752237319946e-01 -6.5517240762710571e-01</leafValues></_>
        <_>
          <internalNodes>
            0 -1 2 2.1614788100123405e-02</internalNodes>
          <leafValues>
            -3.9707902073860168e-01 4.3146353960037231e-01</leafValues></_>
        <_>
          <internalNodes>
            0 -1 28 7.3460931889712811e-03</internalNodes>
          <leafValues>
            5.4250091314315796e-01 -4.0151676535606384e-01</leafValues></_>
        <_>
          <internalNodes>
            0 -1 14 5.4204456508159637e-02</internalNodes>
          <leafValues>
            -2.8245297074317932e-01 7.0422464609146118e-01</leafValues></_>
        <_>
          <internalNodes>
            0 -1 19 2.0048553124070168e-02</internalNodes>
          <leafValues>
            -5.3942364454269409e-01 2.6927000284194946e-01</leafValues></_></weakClassifiers></_>
    <!-- stage 9 -->
    <_>
      <maxWeakCount>4</maxWeakCount>
      <stageThreshold>1.4995648860931396e+00</stageThreshold>
      <weakClassifiers>
        <_>
          <internalNodes>
            0 -1 30 3.1002387404441833e-03</internalNodes>
          <leafValues>
            -6.7619049549102783e-01 7.5757575035095215e-01</leafValues></_>
        <_>
          <internalNodes>
            0 -1 8 8.1001996994018555e-02</internalNodes>
          <leafValues>
            -4.5140260457992554e-01 7.5872874259948730e-01</leafValues></_>
        <_>
          <internalNodes>
            0 -1 29 2.3304738104343414e-02</internalNodes>
          <leafValues>
            -6.3983559608459473e-01 4.5148944854736328e-01</leafValues></_>
        <_>
          <internalNodes>
            0 -1 24 4.2628206312656403e-02</internalNodes>
          <leafValues>
            -3.6115223169326782e-01 7.4190229177474976e-01</leafValues></_></weakClassifiers></_></stages>
  <features>
    <_>
      <rect>
        0 8 8 8 1</rect></_>
    <_>
      <rect>
        0 12 8 8 0</rect></_>
    <_>
      <rect>
        4 0 8 8 0</rect></_>
    <_>
      <rect>
        4 0 8 8 1</rect></_>
    <_>
      <rect>
        4 4 8 8 0</rect></_>
    <_>
      <rect>
        4 4 8 8 1</rect></_>
    <_>
      <rect>
        8 4 8 8 30</rect></_>
    <_>
      <rect>
        8 8 8 8 31</rect></_>
    <_>
      <rect>
        12 0 8 8 3</rect></_>
    <_>
      <rect>
        12 16 8 8 27</rect></_>
    <_>
      <rect>
        16 16 8 8 18</rect></_>
    <_>
      <rect>
        20 16 8 8 25</rect></_>
    <_>
      <rect>
        20 16 8 8 26</rect></_>
    <_>
      <rect>
        20 16 8 8 30</rect></_>
    <_>
      <rect>
        24 0 8 8 15</rect></_>
    <_>
      <rect>
        28 4 8 8 15</rect></_>
    <_>
      <rect>
        28 4 8 8 28</rect></_>
    <_>
      <rect>
        28 16 8 8 9</rect></_>
    <_>
      <rect>
        0 0 8 16 25</rect></_>
    <_>
      <rect>
        4 0 8 16 2</rect></_>
    <_>
      <rect>
        4 0 8 16 12</rect></_>
    <_>
      <rect>
        8 0 8 16 12</rect></_>
    <_>
      <rect>
        16 0 8 16 30</rect></_>
    <_>
      <rect>
        24 0 8 16 4</rect></_>
    <_>
      <rect>
        28 0 8 16 15</rect></_>
    <_>
      <rect>
        28 0 8 16 16</rect></_>
    <_>
      <rect>
        28 0 8 16 31</rect></_>
    <_>
      <rect>
        0 0 16 8 12</rect></_>
    <_>
      <rect>
        4 12 16 8 25</rect></_>
    <_>
      <rect>
        8 0 16 8 22</rect></_>
    <_>
      <rect>
        12 4 16 8 34</rect></_>
    <_>
      <rect>
        12 16 16 8 23</rect></_>
    <_>
      <rect>
        12 16 16 8 25</rect></_>
    <_>
      <rect>
        4 0 16 16 13</rect></_>
    <_>
      <rect>
        8 0 16 16 3</rect></_>
    <_>
      <rect>
        12 0 16 16 3</rect></_></features></cascade>
</opencv_storage>
