<?xml version="1.0"?>
<opencv_storage>
<!-- Created using Computer Vision System Toolbox(tm) for MATLAB(R) -->
<!-- Version 9.1.0.441655 (R2016b) -->
<!-- Compatible with OpenCV 2.4 -->
<cascade>
  <stageType>BOOST</stageType>
  <featureType>HOG</featureType>
  <height>33</height>
  <width>32</width>
  <stageParams>
    <boostType>GAB</boostType>
    <minHitRate>9.4999998807907104e-01</minHitRate>
    <maxFalseAlarm>1.0000000149011612e-01</maxFalseAlarm>
    <weightTrimRate>9.4999999999999996e-01</weightTrimRate>
    <maxDepth>1</maxDepth>
    <maxWeakCount>100</maxWeakCount></stageParams>
  <featureParams>
    <maxCatCount>0</maxCatCount>
    <featSize>36</featSize></featureParams>
  <stageNum>9</stageNum>
  <stages>
    <!-- stage 0 -->
    <_>
      <maxWeakCount>4</maxWeakCount>
      <stageThreshold>4.3167480826377869e-01</stageThreshold>
      <weakClassifiers>
        <_>
          <internalNodes>
            0 -1 137 1.4116927050054073e-02</internalNodes>
          <leafValues>
            -8.7455517053604126e-01 6.4564859867095947e-01</leafValues></_>
        <_>
          <internalNodes>
            0 -1 9 3.1282931566238403e-02</internalNodes>
          <leafValues>
            4.6729269623756409e-01 -8.2800394296646118e-01</leafValues></_>
        <_>
          <internalNodes>
            0 -1 135 1.2885619886219501e-02</internalNodes>
          <leafValues>
            -8.0193948745727539e-01 4.5683875679969788e-01</leafValues></_>
        <_>
          <internalNodes>
            0 -1 132 1.1736967600882053e-02</internalNodes>
          <leafValues>
            -8.2401514053344727e-01 3.8209852576255798e-01</leafValues></_></weakClassifiers></_>
    <!-- stage 1 -->
    <_>
      <maxWeakCount>7</maxWeakCount>
      <stageThreshold>2.8660330176353455e-01</stageThreshold>
      <weakClassifiers>
        <_>
          <internalNodes>
            0 -1 6 4.3419510126113892e-02</internalNodes>
          <leafValues>
            4.3096110224723816e-01 -7.7883851528167725e-01</leafValues></_>
        <_>
          <internalNodes>
            0 -1 55 3.8321547210216522e-02</internalNodes>
          <leafValues>
            -4.6824067831039429e-01 6.2777370214462280e-01</leafValues></_>
        <_>
          <internalNodes>
            0 -1 105 1.1278323829174042e-02</internalNodes>
          <leafValues>
            -8.0909377336502075e-01 3.4804645180702209e-01</leafValues></_>
        <_>
          <internalNodes>
            0 -1 76 4.2331464588642120e-02</internalNodes>
          <leafValues>
            3.1577712297439575e-01 -8.2721513509750366e-01</leafValues></_>
        <_>
          <internalNodes>
            0 -1 101 1.0064957663416862e-02</internalNodes>
          <leafValues>
            -7.2653341293334961e-01 3.1815671920776367e-01</leafValues></_>
        <_>
          <internalNodes>
            0 -1 114 8.5738087072968483e-03</internalNodes>
          <leafValues>
            -7.5919574499130249e-01 2.8361758589744568e-01</leafValues></_>
        <_>
          <internalNodes>
            0 -1 111 8.0455234274268150e-03</internalNodes>
          <leafValues>
            -6.7911612987518311e-01 2.6808458566665649e-01</leafValues></_></weakClassifiers></_>
    <!-- stage 2 -->
    <_>
      <maxWeakCount>9</maxWeakCount>
      <stageThreshold>5.7301148772239685e-02</stageThreshold>
      <weakClassifiers>
        <_>
          <internalNodes>
            0 -1 62 2.7728468179702759e-02</internalNodes>
          <leafValues>
            -5.6858056783676147e-01 5.1202875375747681e-01</leafValues></_>
        <_>
          <internalNodes>
            0 -1 13 2.1034806966781616e-02</internalNodes>
          <leafValues>
            4.9561065435409546e-01 -6.4203894138336182e-01</leafValues></_>
        <_>
          <internalNodes>
            0 -1 29 1.2648358941078186e-02</internalNodes>
          <leafValues>
            -6.3004142045974731e-01 3.7603095173835754e-01</leafValues></_>
        <_>
          <internalNodes>
            0 -1 78 3.4120574593544006e-02</internalNodes>
          <leafValues>
            3.5260277986526489e-01 -6.7828673124313354e-01</leafValues></_>
        <_>
          <internalNodes>
            0 -1 3 2.6882188394665718e-02</internalNodes>
          <leafValues>
            3.1224688887596130e-01 -6.1774355173110962e-01</leafValues></_>
        <_>
          <internalNodes>
            0 -1 95 1.3999493792653084e-02</internalNodes>
          <leafValues>
            -6.3364017009735107e-01 3.2264780998229980e-01</leafValues></_>
        <_>
          <internalNodes>
            0 -1 125 1.0843589901924133e-02</internalNodes>
          <leafValues>
            -7.2682571411132813e-01 2.1915613114833832e-01</leafValues></_>
        <_>
          <internalNodes>
            0 -1 86 4.2911466211080551e-02</internalNodes>
          <leafValues>
            2.4864628911018372e-01 -6.8587464094161987e-01</leafValues></_>
        <_>
          <internalNodes>
            0 -1 68 8.5928626358509064e-03</internalNodes>
          <leafValues>
            -6.2565916776657104e-01 2.6130050420761108e-01</leafValues></_></weakClassifiers></_>
    <!-- stage 3 -->
    <_>
      <maxWeakCount>11</maxWeakCount>
      <stageThreshold>-3.7206837534904480e-01</stageThreshold>
      <weakClassifiers>
        <_>
          <internalNodes>
            0 -1 135 2.6085525751113892e-02</internalNodes>
          <leafValues>
            -4.8341396450996399e-01 5.8315962553024292e-01</leafValues></_>
        <_>
          <internalNodes>
            0 -1 120 3.1315319240093231e-02</internalNodes>
          <leafValues>
            -5.0689417123794556e-01 4.9709990620613098e-01</leafValues></_>
        <_>
          <internalNodes>
            0 -1 70 1.0757777839899063e-02</internalNodes>
          <leafValues>
            -7.2483658790588379e-01 2.7156940102577209e-01</leafValues></_>
        <_>
          <internalNodes>
            0 -1 82 1.4032096602022648e-02</internalNodes>
          <leafValues>
            -5.8138781785964966e-01 3.2583475112915039e-01</leafValues></_>
        <_>
          <internalNodes>
            0 -1 76 3.2237134873867035e-02</internalNodes>
          <leafValues>
            2.1075819432735443e-01 -6.9377982616424561e-01</leafValues></_>
        <_>
          <internalNodes>
            0 -1 49 9.8275076597929001e-03</internalNodes>
          <leafValues>
            -7.2554421424865723e-01 2.0985624194145203e-01</leafValues></_>
        <_>
          <internalNodes>
            0 -1 116 1.7903402447700500e-02</internalNodes>
          <leafValues>
            2.7732363343238831e-01 -4.8007926344871521e-01</leafValues></_>
        <_>
          <internalNodes>
            0 -1 14 1.1899469420313835e-02</internalNodes>
          <leafValues>
            -5.6440639495849609e-01 2.7748894691467285e-01</leafValues></_>
        <_>
          <internalNodes>
            0 -1 21 5.2371613681316376e-02</internalNodes>
          <leafValues>
            -1.9441540539264679e-01 7.1415144205093384e-01</leafValues></_>
        <_>
          <internalNodes>
            0 -1 89 1.9958289340138435e-02</internalNodes>
          <leafValues>
            -4.5093187689781189e-01 3.6222624778747559e-01</leafValues></_>
        <_>
          <internalNodes>
            0 -1 135 1.4823015779256821e-02</internalNodes>
          <leafValues>
            -5.9970390796661377e-01 2.8606003522872925e-01</leafValues></_></weakClassifiers></_>
    <!-- stage 4 -->
    <_>
      <maxWeakCount>19</maxWeakCount>
      <stageThreshold>-1.4969298243522644e-01</stageThreshold>
      <weakClassifiers>
        <_>
          <internalNodes>
            0 -1 67 4.3984889984130859e-02</internalNodes>
          <leafValues>
            -3.4224358201026917e-01 5.8034121990203857e-01</leafValues></_>
        <_>
          <internalNodes>
            0 -1 138 1.8133604899048805e-02</internalNodes>
          <leafValues>
            -4.7915241122245789e-01 2.9672753810882568e-01</leafValues></_>
        <_>
          <internalNodes>
            0 -1 78 1.5417808666825294e-02</internalNodes>
          <leafValues>
            3.2020983099937439e-01 -4.0223047137260437e-01</leafValues></_>
        <_>
          <internalNodes>
            0 -1 87 2.7308089658617973e-02</internalNodes>
          <leafValues>
            -2.6593926548957825e-01 4.8480537533760071e-01</leafValues></_>
        <_>
          <internalNodes>
            0 -1 86 5.1622234284877777e-02</internalNodes>
          <leafValues>
            7.6566338539123535e-02 -8.4507066011428833e-01</leafValues></_>
        <_>
          <internalNodes>
            0 -1 66 3.3247195184230804e-02</internalNodes>
          <leafValues>
            1.9216206669807434e-01 -5.8456301689147949e-01</leafValues></_>
        <_>
          <internalNodes>
            0 -1 109 6.8060234189033508e-02</internalNodes>
          <leafValues>
            1.2956216931343079e-01 -8.1615859270095825e-01</leafValues></_>
        <_>
          <internalNodes>
            0 -1 96 2.6936808601021767e-02</internalNodes>
          <leafValues>
            -4.0449425578117371e-01 2.7324223518371582e-01</leafValues></_>
        <_>
          <internalNodes>
            0 -1 52 1.1942077428102493e-02</internalNodes>
          <leafValues>
            -4.2408519983291626e-01 2.4200366437435150e-01</leafValues></_>
        <_>
          <internalNodes>
            0 -1 62 1.3282503932714462e-02</internalNodes>
          <leafValues>
            -5.9231775999069214e-01 1.3594879209995270e-01</leafValues></_>
        <_>
          <internalNodes>
            0 -1 92 3.4905876964330673e-02</internalNodes>
          <leafValues>
            1.4530602097511292e-01 -6.6741991043090820e-01</leafValues></_>
        <_>
          <internalNodes>
            0 -1 129 2.4936281144618988e-02</internalNodes>
          <leafValues>
            1.3670286536216736e-01 -5.6424176692962646e-01</leafValues></_>
        <_>
          <internalNodes>
            0 -1 72 5.8685015887022018e-02</internalNodes>
          <leafValues>
            -1.1730944365262985e-01 7.2758960723876953e-01</leafValues></_>
        <_>
          <internalNodes>
            0 -1 57 9.4973534345626831e-02</internalNodes>
          <leafValues>
            1.0973051190376282e-01 -7.2232323884963989e-01</leafValues></_>
        <_>
          <internalNodes>
            0 -1 75 2.3182537406682968e-02</internalNodes>
          <leafValues>
            1.6446885466575623e-01 -4.3816214799880981e-01</leafValues></_>
        <_>
          <internalNodes>
            0 -1 54 9.7943879663944244e-03</internalNodes>
          <leafValues>
            -6.5694820880889893e-01 9.9411018192768097e-02</leafValues></_>
        <_>
          <internalNodes>
            0 -1 42 3.3735267817974091e-02</internalNodes>
          <leafValues>
            -1.9473829865455627e-01 3.5111385583877563e-01</leafValues></_>
        <_>
          <internalNodes>
            0 -1 121 6.9554068148136139e-02</internalNodes>
          <leafValues>
            -7.9886786639690399e-02 8.6327028274536133e-01</leafValues></_>
        <_>
          <internalNodes>
            0 -1 136 1.6999267041683197e-02</internalNodes>
          <leafValues>
            -5.7828480005264282e-01 1.4601700007915497e-01</leafValues></_></weakClassifiers></_>
    <!-- stage 5 -->
    <_>
      <maxWeakCount>24</maxWeakCount>
      <stageThreshold>-2.5830075144767761e-01</stageThreshold>
      <weakClassifiers>
        <_>
          <internalNodes>
            0 -1 88 3.9318405091762543e-02</internalNodes>
          <leafValues>
            -4.0345135331153870e-01 7.0186334848403931e-01</leafValues></_>
        <_>
          <internalNodes>
            0 -1 115 4.2913399636745453e-02</internalNodes>
          <leafValues>
            -3.2866454124450684e-01 6.0458880662918091e-01</leafValues></_>
        <_>
          <internalNodes>
            0 -1 63 6.4965710043907166e-02</internalNodes>
          <leafValues>
            -1.5145355463027954e-01 6.7954063415527344e-01</leafValues></_>
        <_>
          <internalNodes>
            0 -1 34 5.7545870542526245e-02</internalNodes>
          <leafValues>
            -2.3947174847126007e-01 5.5146402120590210e-01</leafValues></_>
        <_>
          <internalNodes>
            0 -1 61 4.9139536917209625e-02</internalNodes>
          <leafValues>
            -2.1397112309932709e-01 5.9751152992248535e-01</leafValues></_>
        <_>
          <internalNodes>
            0 -1 9 1.8343061208724976e-02</internalNodes>
          <leafValues>
            2.3948165774345398e-01 -4.2337778210639954e-01</leafValues></_>
        <_>
          <internalNodes>
            0 -1 59 1.0607011616230011e-02</internalNodes>
          <leafValues>
            4.4955381751060486e-01 -1.6666796803474426e-01</leafValues></_>
        <_>
          <internalNodes>
            0 -1 81 1.6367338597774506e-02</internalNodes>
          <leafValues>
            3.0088067054748535e-01 -3.3850952982902527e-01</leafValues></_>
        <_>
          <internalNodes>
            0 -1 106 2.9043989256024361e-02</internalNodes>
          <leafValues>
            1.2094713747501373e-01 -6.4478558301925659e-01</leafValues></_>
        <_>
          <internalNodes>
            0 -1 103 4.4150892645120621e-02</internalNodes>
          <leafValues>
            1.0958872735500336e-01 -6.7287009954452515e-01</leafValues></_>
        <_>
          <internalNodes>
            0 -1 85 3.2980896532535553e-02</internalNodes>
          <leafValues>
            1.1440700292587280e-01 -4.8670640587806702e-01</leafValues></_>
        <_>
          <internalNodes>
            0 -1 17 4.5113667845726013e-02</internalNodes>
          <leafValues>
            8.8894240558147430e-02 -5.9378832578659058e-01</leafValues></_>
        <_>
          <internalNodes>
            0 -1 41 1.3325154781341553e-02</internalNodes>
          <leafValues>
            2.3029278218746185e-01 -2.4160473048686981e-01</leafValues></_>
        <_>
          <internalNodes>
            0 -1 28 6.1302840709686279e-02</internalNodes>
          <leafValues>
            -1.0953763127326965e-01 5.4126781225204468e-01</leafValues></_>
        <_>
          <internalNodes>
            0 -1 94 3.7433110177516937e-02</internalNodes>
          <leafValues>
            -1.9052235782146454e-01 3.3483853936195374e-01</leafValues></_>
        <_>
          <internalNodes>
            0 -1 79 4.1643962264060974e-02</internalNodes>
          <leafValues>
            1.3627296686172485e-01 -4.4797292351722717e-01</leafValues></_>
        <_>
          <internalNodes>
            0 -1 99 2.2923391312360764e-02</internalNodes>
          <leafValues>
            1.3952402770519257e-01 -4.0695396065711975e-01</leafValues></_>
        <_>
          <internalNodes>
            0 -1 107 8.0765552818775177e-02</internalNodes>
          <leafValues>
            5.5353384464979172e-02 -8.7656897306442261e-01</leafValues></_>
        <_>
          <internalNodes>
            0 -1 107 1.5174143016338348e-02</internalNodes>
          <leafValues>
            -5.2200078964233398e-01 1.0033776611089706e-01</leafValues></_>
        <_>
          <internalNodes>
            0 -1 126 3.4727025777101517e-02</internalNodes>
          <leafValues>
            9.5537655055522919e-02 -5.9216171503067017e-01</leafValues></_>
        <_>
          <internalNodes>
            0 -1 128 6.8994812667369843e-02</internalNodes>
          <leafValues>
            -7.1461111307144165e-02 9.1129183769226074e-01</leafValues></_>
        <_>
          <internalNodes>
            0 -1 40 1.1154519394040108e-02</internalNodes>
          <leafValues>
            -5.3822571039199829e-01 1.0672555118799210e-01</leafValues></_>
        <_>
          <internalNodes>
            0 -1 117 3.7416607141494751e-02</internalNodes>
          <leafValues>
            -2.3959101736545563e-01 2.1515111625194550e-01</leafValues></_>
        <_>
          <internalNodes>
            0 -1 121 6.1263810843229294e-02</internalNodes>
          <leafValues>
            -8.6659826338291168e-02 6.1191892623901367e-01</leafValues></_></weakClassifiers></_>
    <!-- stage 6 -->
    <_>
      <maxWeakCount>28</maxWeakCount>
      <stageThreshold>-1.9032225012779236e-01</stageThreshold>
      <weakClassifiers>
        <_>
          <internalNodes>
            0 -1 4 5.2601985633373260e-02</internalNodes>
          <leafValues>
            -3.5444614291191101e-01 7.6393443346023560e-01</leafValues></_>
        <_>
          <internalNodes>
            0 -1 50 3.1235164031386375e-02</internalNodes>
          <leafValues>
            2.6326483488082886e-01 -5.7215946912765503e-01</leafValues></_>
        <_>
          <internalNodes>
            0 -1 102 2.0506195724010468e-02</internalNodes>
          <leafValues>
            -4.9506136775016785e-01 2.1653988957405090e-01</leafValues></_>
        <_>
          <internalNodes>
            0 -1 131 2.8732834383845329e-02</internalNodes>
          <leafValues>
            1.6864138841629028e-01 -6.5124875307083130e-01</leafValues></_>
        <_>
          <internalNodes>
            0 -1 36 1.4791499823331833e-02</internalNodes>
          <leafValues>
            2.3714132606983185e-01 -4.0806886553764343e-01</leafValues></_>
        <_>
          <internalNodes>
            0 -1 133 6.2543272972106934e-02</internalNodes>
          <leafValues>
            -8.9250788092613220e-02 8.3136272430419922e-01</leafValues></_>
        <_>
          <internalNodes>
            0 -1 22 1.4335217885673046e-02</internalNodes>
          <leafValues>
            -5.0959587097167969e-01 1.3716530799865723e-01</leafValues></_>
        <_>
          <internalNodes>
            0 -1 15 1.5135284513235092e-02</internalNodes>
          <leafValues>
            -3.9632695913314819e-01 1.7733523249626160e-01</leafValues></_>
        <_>
          <internalNodes>
            0 -1 38 2.3004757240414619e-02</internalNodes>
          <leafValues>
            -3.4502395987510681e-01 2.1165530383586884e-01</leafValues></_>
        <_>
          <internalNodes>
            0 -1 33 8.5385955870151520e-02</internalNodes>
          <leafValues>
            -1.1022213101387024e-01 8.0722570419311523e-01</leafValues></_>
        <_>
          <internalNodes>
            0 -1 46 2.7975887060165405e-02</internalNodes>
          <leafValues>
            1.6663883626461029e-01 -5.1111596822738647e-01</leafValues></_>
        <_>
          <internalNodes>
            0 -1 90 2.3354802280664444e-02</internalNodes>
          <leafValues>
            1.1377225071191788e-01 -5.3757154941558838e-01</leafValues></_>
        <_>
          <internalNodes>
            0 -1 110 5.8898225426673889e-02</internalNodes>
          <leafValues>
            1.1400249600410461e-01 -5.2446055412292480e-01</leafValues></_>
        <_>
          <internalNodes>
            0 -1 123 9.2220762744545937e-03</internalNodes>
          <leafValues>
            -6.3114666938781738e-01 7.7032856643199921e-02</leafValues></_>
        <_>
          <internalNodes>
            0 -1 0 9.9684372544288635e-03</internalNodes>
          <leafValues>
            -3.9665815234184265e-01 1.4527063071727753e-01</leafValues></_>
        <_>
          <internalNodes>
            0 -1 19 2.6607997715473175e-02</internalNodes>
          <leafValues>
            -2.9019677639007568e-01 1.8622617423534393e-01</leafValues></_>
        <_>
          <internalNodes>
            0 -1 16 8.0511167645454407e-02</internalNodes>
          <leafValues>
            -8.7431818246841431e-02 6.4277762174606323e-01</leafValues></_>
        <_>
          <internalNodes>
            0 -1 127 2.8558485209941864e-02</internalNodes>
          <leafValues>
            1.0395939648151398e-01 -5.9270334243774414e-01</leafValues></_>
        <_>
          <internalNodes>
            0 -1 11 3.1523302197456360e-02</internalNodes>
          <leafValues>
            8.9152447879314423e-02 -5.4684203863143921e-01</leafValues></_>
        <_>
          <internalNodes>
            0 -1 100 1.1416435241699219e-02</internalNodes>
          <leafValues>
            -4.8783540725708008e-01 9.1363638639450073e-02</leafValues></_>
        <_>
          <internalNodes>
            0 -1 119 4.8972211778163910e-02</internalNodes>
          <leafValues>
            7.7925577759742737e-02 -5.8480006456375122e-01</leafValues></_>
        <_>
          <internalNodes>
            0 -1 26 4.0110643021762371e-03</internalNodes>
          <leafValues>
            -5.1501441001892090e-01 8.2960039377212524e-02</leafValues></_>
        <_>
          <internalNodes>
            0 -1 58 4.2641289532184601e-02</internalNodes>
          <leafValues>
            -1.9656597077846527e-01 2.4138404428958893e-01</leafValues></_>
        <_>
          <internalNodes>
            0 -1 18 7.4861697852611542e-02</internalNodes>
          <leafValues>
            -1.2562695145606995e-01 4.2383143305778503e-01</leafValues></_>
        <_>
          <internalNodes>
            0 -1 122 1.8788680434226990e-02</internalNodes>
          <leafValues>
            1.8330715596675873e-01 -3.1117290258407593e-01</leafValues></_>
        <_>
          <internalNodes>
            0 -1 7 7.5414225459098816e-02</internalNodes>
          <leafValues>
            -9.2581070959568024e-02 6.1852383613586426e-01</leafValues></_>
        <_>
          <internalNodes>
            0 -1 48 3.9317891001701355e-02</internalNodes>
          <leafValues>
            7.7007986605167389e-02 -6.6337984800338745e-01</leafValues></_>
        <_>
          <internalNodes>
            0 -1 124 1.5334464609622955e-02</internalNodes>
          <leafValues>
            -4.0411594510078430e-01 1.1578998714685440e-01</leafValues></_></weakClassifiers></_>
    <!-- stage 7 -->
    <_>
      <maxWeakCount>39</maxWeakCount>
      <stageThreshold>-2.1732603013515472e-01</stageThreshold>
      <weakClassifiers>
        <_>
          <internalNodes>
            0 -1 97 3.9777517318725586e-02</internalNodes>
          <leafValues>
            -2.8776845335960388e-01 5.4608613252639771e-01</leafValues></_>
        <_>
          <internalNodes>
            0 -1 102 5.3142759948968887e-02</internalNodes>
          <leafValues>
            -1.9250713288784027e-01 5.5467975139617920e-01</leafValues></_>
        <_>
          <internalNodes>
            0 -1 113 5.4611958563327789e-02</internalNodes>
          <leafValues>
            -2.2703911364078522e-01 3.6521548032760620e-01</leafValues></_>
        <_>
          <internalNodes>
            0 -1 91 2.7280751615762711e-02</internalNodes>
          <leafValues>
            1.4924146234989166e-01 -4.3659457564353943e-01</leafValues></_>
        <_>
          <internalNodes>
            0 -1 71 3.5619981586933136e-02</internalNodes>
          <leafValues>
            2.2121900320053101e-01 -3.5820245742797852e-01</leafValues></_>
        <_>
          <internalNodes>
            0 -1 37 2.1389730274677277e-02</internalNodes>
          <leafValues>
            1.0618527978658676e-01 -4.7693762183189392e-01</leafValues></_>
        <_>
          <internalNodes>
            0 -1 78 6.9446461275219917e-03</internalNodes>
          <leafValues>
            3.7027770280838013e-01 -1.5143549442291260e-01</leafValues></_>
        <_>
          <internalNodes>
            0 -1 130 1.8110424280166626e-02</internalNodes>
          <leafValues>
            -3.8393649458885193e-01 1.6116346418857574e-01</leafValues></_>
        <_>
          <internalNodes>
            0 -1 98 3.4643847495317459e-02</internalNodes>
          <leafValues>
            1.6744297742843628e-01 -3.7886589765548706e-01</leafValues></_>
        <_>
          <internalNodes>
            0 -1 74 7.3692008852958679e-02</internalNodes>
          <leafValues>
            -1.2755565345287323e-01 4.8194029927253723e-01</leafValues></_>
        <_>
          <internalNodes>
            0 -1 2 1.1810604482889175e-02</internalNodes>
          <leafValues>
            -5.7534343004226685e-01 9.6251688897609711e-02</leafValues></_>
        <_>
          <internalNodes>
            0 -1 84 6.4319148659706116e-02</internalNodes>
          <leafValues>
            -9.5130845904350281e-02 5.6505644321441650e-01</leafValues></_>
        <_>
          <internalNodes>
            0 -1 42 6.1432451009750366e-02</internalNodes>
          <leafValues>
            -1.2686589360237122e-01 4.9909254908561707e-01</leafValues></_>
        <_>
          <internalNodes>
            0 -1 108 1.1078190989792347e-02</internalNodes>
          <leafValues>
            -4.7231116890907288e-01 1.3585704565048218e-01</leafValues></_>
        <_>
          <internalNodes>
            0 -1 65 2.3448335006833076e-02</internalNodes>
          <leafValues>
            1.0804491490125656e-01 -5.1001214981079102e-01</leafValues></_>
        <_>
          <internalNodes>
            0 -1 87 1.1603477410972118e-02</internalNodes>
          <leafValues>
            -5.1511871814727783e-01 9.0575993061065674e-02</leafValues></_>
        <_>
          <internalNodes>
            0 -1 38 5.4550480097532272e-02</internalNodes>
          <leafValues>
            -1.7738294601440430e-01 3.0591028928756714e-01</leafValues></_>
        <_>
          <internalNodes>
            0 -1 56 4.9902591854333878e-03</internalNodes>
          <leafValues>
            5.5645602941513062e-01 -1.0121253877878189e-01</leafValues></_>
        <_>
          <internalNodes>
            0 -1 134 1.6252677887678146e-02</internalNodes>
          <leafValues>
            -4.2073836922645569e-01 1.1866995692253113e-01</leafValues></_>
        <_>
          <internalNodes>
            0 -1 31 5.9059888124465942e-02</internalNodes>
          <leafValues>
            6.3029386103153229e-02 -5.8475112915039063e-01</leafValues></_>
        <_>
          <internalNodes>
            0 -1 24 1.0352434590458870e-02</internalNodes>
          <leafValues>
            -4.0822449326515198e-01 9.4986952841281891e-02</leafValues></_>
        <_>
          <internalNodes>
            0 -1 27 8.3499178290367126e-02</internalNodes>
          <leafValues>
            -5.5358853191137314e-02 7.8357291221618652e-01</leafValues></_>
        <_>
          <internalNodes>
            0 -1 93 4.3512001633644104e-02</internalNodes>
          <leafValues>
            6.1707664281129837e-02 -7.2625803947448730e-01</leafValues></_>
        <_>
          <internalNodes>
            0 -1 103 2.7602011337876320e-02</internalNodes>
          <leafValues>
            1.1664421856403351e-01 -3.1611901521682739e-01</leafValues></_>
        <_>
          <internalNodes>
            0 -1 10 5.8203684166073799e-03</internalNodes>
          <leafValues>
            -5.1279830932617188e-01 7.9839482903480530e-02</leafValues></_>
        <_>
          <internalNodes>
            0 -1 59 5.7121545076370239e-02</internalNodes>
          <leafValues>
            -8.5584513843059540e-02 5.1922124624252319e-01</leafValues></_>
        <_>
          <internalNodes>
            0 -1 12 2.4712346494197845e-02</internalNodes>
          <leafValues>
            9.8262242972850800e-02 -4.2302349209785461e-01</leafValues></_>
        <_>
          <internalNodes>
            0 -1 102 1.3311104848980904e-02</internalNodes>
          <leafValues>
            -5.4836326837539673e-01 6.3978582620620728e-02</leafValues></_>
        <_>
          <internalNodes>
            0 -1 104 7.1771712973713875e-03</internalNodes>
          <leafValues>
            -6.8009400367736816e-01 4.2965285480022430e-02</leafValues></_>
        <_>
          <internalNodes>
            0 -1 47 5.2422523498535156e-02</internalNodes>
          <leafValues>
            5.6298952549695969e-02 -5.7467830181121826e-01</leafValues></_>
        <_>
          <internalNodes>
            0 -1 119 3.6898162215948105e-02</internalNodes>
          <leafValues>
            1.0256568342447281e-01 -3.2202729582786560e-01</leafValues></_>
        <_>
          <internalNodes>
            0 -1 2 9.5514945685863495e-02</internalNodes>
          <leafValues>
            -9.7618117928504944e-02 3.8391059637069702e-01</leafValues></_>
        <_>
          <internalNodes>
            0 -1 20 4.8026675358414650e-03</internalNodes>
          <leafValues>
            -5.9733688831329346e-01 6.9755703210830688e-02</leafValues></_>
        <_>
          <internalNodes>
            0 -1 44 1.0380621254444122e-01</internalNodes>
          <leafValues>
            -6.3685804605484009e-02 6.6375464200973511e-01</leafValues></_>
        <_>
          <internalNodes>
            0 -1 32 2.3798048496246338e-02</internalNodes>
          <leafValues>
            2.7146190404891968e-01 -1.5208329260349274e-01</leafValues></_>
        <_>
          <internalNodes>
            0 -1 83 1.5736531466245651e-02</internalNodes>
          <leafValues>
            1.2662655115127563e-01 -2.8540751338005066e-01</leafValues></_>
        <_>
          <internalNodes>
            0 -1 54 1.4505133032798767e-02</internalNodes>
          <leafValues>
            -4.3811199069023132e-01 8.0438010394573212e-02</leafValues></_>
        <_>
          <internalNodes>
            0 -1 43 4.2005874216556549e-02</internalNodes>
          <leafValues>
            9.3988530337810516e-02 -4.2471039295196533e-01</leafValues></_>
        <_>
          <internalNodes>
            0 -1 1 4.4629359617829323e-03</internalNodes>
          <leafValues>
            -3.3991444110870361e-01 1.1654985696077347e-01</leafValues></_></weakClassifiers></_>
    <!-- stage 8 -->
    <_>
      <maxWeakCount>25</maxWeakCount>
      <stageThreshold>6.4729404449462891e-01</stageThreshold>
      <weakClassifiers>
        <_>
          <internalNodes>
            0 -1 135 3.8967803120613098e-02</internalNodes>
          <leafValues>
            5.2055323123931885e-01 9.2564100027084351e-01</leafValues></_>
        <_>
          <internalNodes>
            0 -1 30 5.1783233880996704e-02</internalNodes>
          <leafValues>
            3.4318320453166962e-02 7.0348984003067017e-01</leafValues></_>
        <_>
          <internalNodes>
            0 -1 23 4.9099914729595184e-02</internalNodes>
          <leafValues>
            1.9482585787773132e-01 -6.2098604440689087e-01</leafValues></_>
        <_>
          <internalNodes>
            0 -1 136 2.9443439096212387e-02</internalNodes>
          <leafValues>
            -4.0992125868797302e-01 2.2700883448123932e-01</leafValues></_>
        <_>
          <internalNodes>
            0 -1 8 6.5721377730369568e-02</internalNodes>
          <leafValues>
            -1.3035754859447479e-01 8.4696024656295776e-01</leafValues></_>
        <_>
          <internalNodes>
            0 -1 69 4.0193907916545868e-03</internalNodes>
          <leafValues>
            5.7495379447937012e-01 -1.5550521016120911e-01</leafValues></_>
        <_>
          <internalNodes>
            0 -1 73 8.2093462347984314e-02</internalNodes>
          <leafValues>
            -1.4686794579029083e-01 5.2688431739807129e-01</leafValues></_>
        <_>
          <internalNodes>
            0 -1 35 1.5258165076375008e-02</internalNodes>
          <leafValues>
            1.9485661387443542e-01 -3.7371343374252319e-01</leafValues></_>
        <_>
          <internalNodes>
            0 -1 53 4.7910075634717941e-02</internalNodes>
          <leafValues>
            9.9188342690467834e-02 -6.1270898580551147e-01</leafValues></_>
        <_>
          <internalNodes>
            0 -1 64 2.4801122024655342e-02</internalNodes>
          <leafValues>
            -3.2336908578872681e-01 2.2629454731941223e-01</leafValues></_>
        <_>
          <internalNodes>
            0 -1 77 2.3717638105154037e-02</internalNodes>
          <leafValues>
            1.7980353534221649e-01 -3.9917784929275513e-01</leafValues></_>
        <_>
          <internalNodes>
            0 -1 39 5.2322853356599808e-02</internalNodes>
          <leafValues>
            -1.6044324636459351e-01 5.2003985643386841e-01</leafValues></_>
        <_>
          <internalNodes>
            0 -1 112 1.6719385981559753e-02</internalNodes>
          <leafValues>
            -4.3107956647872925e-01 1.6724072396755219e-01</leafValues></_>
        <_>
          <internalNodes>
            0 -1 25 4.5658349990844727e-02</internalNodes>
          <leafValues>
            1.3787639141082764e-01 -4.5818218588829041e-01</leafValues></_>
        <_>
          <internalNodes>
            0 -1 118 3.5310432314872742e-02</internalNodes>
          <leafValues>
            1.1235135793685913e-01 -6.1590611934661865e-01</leafValues></_>
        <_>
          <internalNodes>
            0 -1 62 1.9167417660355568e-02</internalNodes>
          <leafValues>
            -4.6444973349571228e-01 1.1879537254571915e-01</leafValues></_>
        <_>
          <internalNodes>
            0 -1 91 4.0133096277713776e-02</internalNodes>
          <leafValues>
            1.1117399483919144e-01 -5.2909004688262939e-01</leafValues></_>
        <_>
          <internalNodes>
            0 -1 5 2.5120224803686142e-02</internalNodes>
          <leafValues>
            1.4234323799610138e-01 -4.1458925604820251e-01</leafValues></_>
        <_>
          <internalNodes>
            0 -1 80 7.7759996056556702e-02</internalNodes>
          <leafValues>
            -7.0152141153812408e-02 8.7226116657257080e-01</leafValues></_>
        <_>
          <internalNodes>
            0 -1 51 1.8174700438976288e-02</internalNodes>
          <leafValues>
            -3.3712399005889893e-01 2.1684381365776062e-01</leafValues></_>
        <_>
          <internalNodes>
            0 -1 55 3.9377741515636444e-02</internalNodes>
          <leafValues>
            -2.4296344816684723e-01 2.8527459502220154e-01</leafValues></_>
        <_>
          <internalNodes>
            0 -1 42 6.9217078387737274e-02</internalNodes>
          <leafValues>
            -1.1541113257408142e-01 6.3752043247222900e-01</leafValues></_>
        <_>
          <internalNodes>
            0 -1 45 7.9715237021446228e-02</internalNodes>
          <leafValues>
            8.0197118222713470e-02 -8.9196062088012695e-01</leafValues></_>
        <_>
          <internalNodes>
            0 -1 29 3.0370742082595825e-02</internalNodes>
          <leafValues>
            -2.0401541888713837e-01 3.4473630785942078e-01</leafValues></_>
        <_>
          <internalNodes>
            0 -1 60 6.9077080115675926e-03</internalNodes>
          <leafValues>
            4.3880364298820496e-01 -1.4936934411525726e-01</leafValues></_></weakClassifiers></_></stages>
  <features>
    <_>
      <rect>
        0 0 8 8 1</rect></_>
    <_>
      <rect>
        0 0 8 8 7</rect></_>
    <_>
      <rect>
        0 0 8 8 12</rect></_>
    <_>
      <rect>
        0 0 8 8 17</rect></_>
    <_>
      <rect>
        0 0 8 8 19</rect></_>
    <_>
      <rect>
        0 0 8 8 22</rect></_>
    <_>
      <rect>
        0 4 8 8 4</rect></_>
    <_>
      <rect>
        0 4 8 8 10</rect></_>
    <_>
      <rect>
        0 4 8 8 19</rect></_>
    <_>
      <rect>
        0 4 8 8 22</rect></_>
    <_>
      <rect>
        0 8 8 8 10</rect></_>
    <_>
      <rect>
        0 8 8 8 19</rect></_>
    <_>
      <rect>
        0 8 8 8 20</rect></_>
    <_>
      <rect>
        0 12 8 8 4</rect></_>
    <_>
      <rect>
        0 16 8 8 7</rect></_>
    <_>
      <rect>
        0 16 8 8 32</rect></_>
    <_>
      <rect>
        0 16 8 8 33</rect></_>
    <_>
      <rect>
        4 0 8 8 0</rect></_>
    <_>
      <rect>
        4 0 8 8 3</rect></_>
    <_>
      <rect>
        4 0 8 8 31</rect></_>
    <_>
      <rect>
        4 0 8 8 32</rect></_>
    <_>
      <rect>
        4 4 8 8 1</rect></_>
    <_>
      <rect>
        4 4 8 8 2</rect></_>
    <_>
      <rect>
        4 8 8 8 0</rect></_>
    <_>
      <rect>
        4 8 8 8 12</rect></_>
    <_>
      <rect>
        4 8 8 8 25</rect></_>
    <_>
      <rect>
        4 12 8 8 2</rect></_>
    <_>
      <rect>
        4 12 8 8 9</rect></_>
    <_>
      <rect>
        4 12 8 8 17</rect></_>
    <_>
      <rect>
        4 12 8 8 23</rect></_>
    <_>
      <rect>
        4 12 8 8 24</rect></_>
    <_>
      <rect>
        4 12 8 8 30</rect></_>
    <_>
      <rect>
        4 16 8 8 8</rect></_>
    <_>
      <rect>
        4 16 8 8 9</rect></_>
    <_>
      <rect>
        8 0 8 8 3</rect></_>
    <_>
      <rect>
        8 0 8 8 6</rect></_>
    <_>
      <rect>
        8 0 8 8 8</rect></_>
    <_>
      <rect>
        8 0 8 8 10</rect></_>
    <_>
      <rect>
        8 0 8 8 12</rect></_>
    <_>
      <rect>
        8 4 8 8 1</rect></_>
    <_>
      <rect>
        8 4 8 8 2</rect></_>
    <_>
      <rect>
        8 4 8 8 17</rect></_>
    <_>
      <rect>
        8 4 8 8 30</rect></_>
    <_>
      <rect>
        8 8 8 8 14</rect></_>
    <_>
      <rect>
        8 12 8 8 8</rect></_>
    <_>
      <rect>
        8 12 8 8 29</rect></_>
    <_>
      <rect>
        8 16 8 8 18</rect></_>
    <_>
      <rect>
        8 16 8 8 26</rect></_>
    <_>
      <rect>
        12 0 8 8 0</rect></_>
    <_>
      <rect>
        12 0 8 8 3</rect></_>
    <_>
      <rect>
        12 0 8 8 17</rect></_>
    <_>
      <rect>
        12 0 8 8 21</rect></_>
    <_>
      <rect>
        12 0 8 8 23</rect></_>
    <_>
      <rect>
        12 4 8 8 2</rect></_>
    <_>
      <rect>
        12 4 8 8 14</rect></_>
    <_>
      <rect>
        12 4 8 8 15</rect></_>
    <_>
      <rect>
        12 4 8 8 31</rect></_>
    <_>
      <rect>
        12 4 8 8 35</rect></_>
    <_>
      <rect>
        12 8 8 8 26</rect></_>
    <_>
      <rect>
        12 8 8 8 31</rect></_>
    <_>
      <rect>
        12 12 8 8 13</rect></_>
    <_>
      <rect>
        12 12 8 8 26</rect></_>
    <_>
      <rect>
        12 12 8 8 28</rect></_>
    <_>
      <rect>
        12 16 8 8 28</rect></_>
    <_>
      <rect>
        12 16 8 8 29</rect></_>
    <_>
      <rect>
        12 16 8 8 33</rect></_>
    <_>
      <rect>
        12 16 8 8 35</rect></_>
    <_>
      <rect>
        16 0 8 8 33</rect></_>
    <_>
      <rect>
        16 0 8 8 34</rect></_>
    <_>
      <rect>
        16 4 8 8 0</rect></_>
    <_>
      <rect>
        16 4 8 8 5</rect></_>
    <_>
      <rect>
        16 4 8 8 13</rect></_>
    <_>
      <rect>
        16 4 8 8 25</rect></_>
    <_>
      <rect>
        16 4 8 8 35</rect></_>
    <_>
      <rect>
        16 12 8 8 8</rect></_>
    <_>
      <rect>
        16 12 8 8 12</rect></_>
    <_>
      <rect>
        16 12 8 8 13</rect></_>
    <_>
      <rect>
        16 12 8 8 30</rect></_>
    <_>
      <rect>
        16 12 8 8 31</rect></_>
    <_>
      <rect>
        16 16 8 8 2</rect></_>
    <_>
      <rect>
        16 16 8 8 7</rect></_>
    <_>
      <rect>
        16 16 8 8 26</rect></_>
    <_>
      <rect>
        16 16 8 8 28</rect></_>
    <_>
      <rect>
        0 0 8 16 5</rect></_>
    <_>
      <rect>
        0 0 8 16 10</rect></_>
    <_>
      <rect>
        0 0 8 16 21</rect></_>
    <_>
      <rect>
        0 0 8 16 22</rect></_>
    <_>
      <rect>
        0 0 8 16 24</rect></_>
    <_>
      <rect>
        4 0 8 16 1</rect></_>
    <_>
      <rect>
        4 0 8 16 3</rect></_>
    <_>
      <rect>
        4 0 8 16 5</rect></_>
    <_>
      <rect>
        4 0 8 16 8</rect></_>
    <_>
      <rect>
        4 0 8 16 18</rect></_>
    <_>
      <rect>
        8 0 8 16 11</rect></_>
    <_>
      <rect>
        8 0 8 16 12</rect></_>
    <_>
      <rect>
        8 0 8 16 14</rect></_>
    <_>
      <rect>
        12 0 8 16 3</rect></_>
    <_>
      <rect>
        12 0 8 16 15</rect></_>
    <_>
      <rect>
        12 0 8 16 35</rect></_>
    <_>
      <rect>
        16 0 8 16 11</rect></_>
    <_>
      <rect>
        16 0 8 16 14</rect></_>
    <_>
      <rect>
        16 0 8 16 15</rect></_>
    <_>
      <rect>
        16 0 8 16 28</rect></_>
    <_>
      <rect>
        16 0 8 16 31</rect></_>
    <_>
      <rect>
        0 0 16 8 1</rect></_>
    <_>
      <rect>
        0 0 16 8 2</rect></_>
    <_>
      <rect>
        0 0 16 8 6</rect></_>
    <_>
      <rect>
        0 0 16 8 14</rect></_>
    <_>
      <rect>
        0 0 16 8 15</rect></_>
    <_>
      <rect>
        0 4 16 8 4</rect></_>
    <_>
      <rect>
        0 4 16 8 13</rect></_>
    <_>
      <rect>
        0 4 16 8 23</rect></_>
    <_>
      <rect>
        0 4 16 8 25</rect></_>
    <_>
      <rect>
        0 4 16 8 26</rect></_>
    <_>
      <rect>
        0 4 16 8 28</rect></_>
    <_>
      <rect>
        0 4 16 8 35</rect></_>
    <_>
      <rect>
        0 8 16 8 10</rect></_>
    <_>
      <rect>
        0 8 16 8 26</rect></_>
    <_>
      <rect>
        0 12 16 8 2</rect></_>
    <_>
      <rect>
        0 12 16 8 22</rect></_>
    <_>
      <rect>
        0 16 16 8 8</rect></_>
    <_>
      <rect>
        0 16 16 8 10</rect></_>
    <_>
      <rect>
        0 16 16 8 19</rect></_>
    <_>
      <rect>
        0 16 16 8 25</rect></_>
    <_>
      <rect>
        0 16 16 8 28</rect></_>
    <_>
      <rect>
        0 16 16 8 30</rect></_>
    <_>
      <rect>
        0 16 16 8 32</rect></_>
    <_>
      <rect>
        0 16 16 8 33</rect></_>
    <_>
      <rect>
        0 0 16 16 1</rect></_>
    <_>
      <rect>
        0 0 16 16 5</rect></_>
    <_>
      <rect>
        0 0 16 16 8</rect></_>
    <_>
      <rect>
        0 0 16 16 11</rect></_>
    <_>
      <rect>
        0 0 16 16 14</rect></_>
    <_>
      <rect>
        0 0 16 16 15</rect></_>
    <_>
      <rect>
        0 0 16 16 23</rect></_>
    <_>
      <rect>
        0 0 16 16 24</rect></_>
    <_>
      <rect>
        0 0 16 16 26</rect></_>
    <_>
      <rect>
        0 0 16 16 28</rect></_>
    <_>
      <rect>
        0 0 16 16 29</rect></_></features></cascade>
</opencv_storage>
