<?xml version="1.0"?>
<opencv_storage>
<!-- Created using Computer Vision System Toolbox(tm) for MATLAB(R) -->
<!-- Version 9.1.0.441655 (R2016b) -->
<!-- Compatible with OpenCV 2.4 -->
<cascade>
  <stageType>BOOST</stageType>
  <featureType>HAAR</featureType>
  <height>33</height>
  <width>32</width>
  <stageParams>
    <boostType>GAB</boostType>
    <minHitRate>8.9999997615814209e-01</minHitRate>
    <maxFalseAlarm>3.0000001192092896e-01</maxFalseAlarm>
    <weightTrimRate>9.4999999999999996e-01</weightTrimRate>
    <maxDepth>1</maxDepth>
    <maxWeakCount>100</maxWeakCount></stageParams>
  <featureParams>
    <maxCatCount>0</maxCatCount>
    <featSize>1</featSize>
    <mode>BASIC</mode></featureParams>
  <stageNum>8</stageNum>
  <stages>
    <!-- stage 0 -->
    <_>
      <maxWeakCount>2</maxWeakCount>
      <stageThreshold>6.2696464359760284e-02</stageThreshold>
      <weakClassifiers>
        <_>
          <internalNodes>
            0 -1 19 9.3213599175214767e-03</internalNodes>
          <leafValues>
            -6.7993712425231934e-01 8.4615385532379150e-01</leafValues></_>
        <_>
          <internalNodes>
            0 -1 18 -2.5044530630111694e-03</internalNodes>
          <leafValues>
            7.4263358116149902e-01 -5.0615429878234863e-01</leafValues></_></weakClassifiers></_>
    <!-- stage 1 -->
    <_>
      <maxWeakCount>2</maxWeakCount>
      <stageThreshold>1.2062112987041473e-01</stageThreshold>
      <weakClassifiers>
        <_>
          <internalNodes>
            0 -1 3 7.7577587217092514e-03</internalNodes>
          <leafValues>
            -6.5174388885498047e-01 8.2260185480117798e-01</leafValues></_>
        <_>
          <internalNodes>
            0 -1 7 -4.7799339517951012e-03</internalNodes>
          <leafValues>
            7.7236503362655640e-01 -4.4268828630447388e-01</leafValues></_></weakClassifiers></_>
    <!-- stage 2 -->
    <_>
      <maxWeakCount>3</maxWeakCount>
      <stageThreshold>-2.6812741160392761e-01</stageThreshold>
      <weakClassifiers>
        <_>
          <internalNodes>
            0 -1 16 -9.4446893781423569e-03</internalNodes>
          <leafValues>
            8.3562660217285156e-01 -5.3538239002227783e-01</leafValues></_>
        <_>
          <internalNodes>
            0 -1 0 6.4491599798202515e-02</internalNodes>
          <leafValues>
            -4.0805536508560181e-01 8.7590014934539795e-01</leafValues></_>
        <_>
          <internalNodes>
            0 -1 6 1.1681766482070088e-03</internalNodes>
          <leafValues>
            -4.0485772490501404e-01 6.7531037330627441e-01</leafValues></_></weakClassifiers></_>
    <!-- stage 3 -->
    <_>
      <maxWeakCount>2</maxWeakCount>
      <stageThreshold>5.3801108151674271e-02</stageThreshold>
      <weakClassifiers>
        <_>
          <internalNodes>
            0 -1 22 -3.2873831223696470e-03</internalNodes>
          <leafValues>
            8.6768800020217896e-01 -6.2082707881927490e-01</leafValues></_>
        <_>
          <internalNodes>
            0 -1 14 5.6450348347425461e-03</internalNodes>
          <leafValues>
            -5.9105294942855835e-01 6.7462819814682007e-01</leafValues></_></weakClassifiers></_>
    <!-- stage 4 -->
    <_>
      <maxWeakCount>3</maxWeakCount>
      <stageThreshold>-2.1434490382671356e-01</stageThreshold>
      <weakClassifiers>
        <_>
          <internalNodes>
            0 -1 10 1.6489915549755096e-02</internalNodes>
          <leafValues>
            -4.9241513013839722e-01 7.4826198816299438e-01</leafValues></_>
        <_>
          <internalNodes>
            0 -1 2 1.9955018535256386e-02</internalNodes>
          <leafValues>
            -3.9394670724868774e-01 7.7982598543167114e-01</leafValues></_>
        <_>
          <internalNodes>
            0 -1 13 3.1467882217839360e-04</internalNodes>
          <leafValues>
            -3.1937447190284729e-01 6.7201691865921021e-01</leafValues></_></weakClassifiers></_>
    <!-- stage 5 -->
    <_>
      <maxWeakCount>4</maxWeakCount>
      <stageThreshold>-6.3120312988758087e-03</stageThreshold>
      <weakClassifiers>
        <_>
          <internalNodes>
            0 -1 9 7.7803810127079487e-03</internalNodes>
          <leafValues>
            -5.0939512252807617e-01 6.5944683551788330e-01</leafValues></_>
        <_>
          <internalNodes>
            0 -1 21 -2.0906206220388412e-02</internalNodes>
          <leafValues>
            5.3059053421020508e-01 -5.5940002202987671e-01</leafValues></_>
        <_>
          <internalNodes>
            0 -1 12 -2.2937832400202751e-03</internalNodes>
          <leafValues>
            4.7679221630096436e-01 -4.8901054263114929e-01</leafValues></_>
        <_>
          <internalNodes>
            0 -1 15 -2.0896322894259356e-05</internalNodes>
          <leafValues>
            4.6150305867195129e-01 -4.7586879134178162e-01</leafValues></_></weakClassifiers></_>
    <!-- stage 6 -->
    <_>
      <maxWeakCount>4</maxWeakCount>
      <stageThreshold>6.5730884671211243e-02</stageThreshold>
      <weakClassifiers>
        <_>
          <internalNodes>
            0 -1 5 4.7883845865726471e-02</internalNodes>
          <leafValues>
            -5.1600444316864014e-01 5.7326793670654297e-01</leafValues></_>
        <_>
          <internalNodes>
            0 -1 8 5.4997798055410385e-02</internalNodes>
          <leafValues>
            -4.0360826253890991e-01 6.4232122898101807e-01</leafValues></_>
        <_>
          <internalNodes>
            0 -1 17 2.7617057785391808e-03</internalNodes>
          <leafValues>
            -3.7549370527267456e-01 5.7298552989959717e-01</leafValues></_>
        <_>
          <internalNodes>
            0 -1 4 1.6083801165223122e-04</internalNodes>
          <leafValues>
            -5.3737968206405640e-01 4.1235804557800293e-01</leafValues></_></weakClassifiers></_>
    <!-- stage 7 -->
    <_>
      <maxWeakCount>3</maxWeakCount>
      <stageThreshold>-2.1681457757949829e-01</stageThreshold>
      <weakClassifiers>
        <_>
          <internalNodes>
            0 -1 1 1.0088639333844185e-02</internalNodes>
          <leafValues>
            -5.3273642063140869e-01 5.9020459651947021e-01</leafValues></_>
        <_>
          <internalNodes>
            0 -1 20 -3.0335665214806795e-03</internalNodes>
          <leafValues>
            6.0164803266525269e-01 -4.2672768235206604e-01</leafValues></_>
        <_>
          <internalNodes>
            0 -1 11 2.5680053979158401e-02</internalNodes>
          <leafValues>
            -3.1144297122955322e-01 7.4264955520629883e-01</leafValues></_></weakClassifiers></_></stages>
  <features>
    <_>
      <rects>
        <_>
          0 11 15 11 -1.</_>
        <_>
          5 11 5 11 3.</_></rects>
      <tilted>0</tilted></_>
    <_>
      <rects>
        <_>
          0 13 18 1 -1.</_>
        <_>
          6 13 6 1 3.</_></rects>
      <tilted>0</tilted></_>
    <_>
      <rects>
        <_>
          0 14 6 7 -1.</_>
        <_>
          3 14 3 7 2.</_></rects>
      <tilted>0</tilted></_>
    <_>
      <rects>
        <_>
          1 14 6 7 -1.</_>
        <_>
          4 14 3 7 2.</_></rects>
      <tilted>0</tilted></_>
    <_>
      <rects>
        <_>
          1 17 2 1 -1.</_>
        <_>
          2 17 1 1 2.</_></rects>
      <tilted>0</tilted></_>
    <_>
      <rects>
        <_>
          4 11 28 12 -1.</_>
        <_>
          4 15 28 4 3.</_></rects>
      <tilted>0</tilted></_>
    <_>
      <rects>
        <_>
          5 22 9 1 -1.</_>
        <_>
          8 22 3 1 3.</_></rects>
      <tilted>0</tilted></_>
    <_>
      <rects>
        <_>
          6 13 10 2 -1.</_>
        <_>
          11 13 5 2 2.</_></rects>
      <tilted>0</tilted></_>
    <_>
      <rects>
        <_>
          7 0 22 12 -1.</_>
        <_>
          7 6 22 6 2.</_></rects>
      <tilted>0</tilted></_>
    <_>
      <rects>
        <_>
          7 22 8 6 -1.</_>
        <_>
          7 22 4 3 2.</_>
        <_>
          11 25 4 3 2.</_></rects>
      <tilted>0</tilted></_>
    <_>
      <rects>
        <_>
          9 27 15 3 -1.</_>
        <_>
          14 27 5 3 3.</_></rects>
      <tilted>0</tilted></_>
    <_>
      <rects>
        <_>
          10 13 12 11 -1.</_>
        <_>
          14 13 4 11 3.</_></rects>
      <tilted>0</tilted></_>
    <_>
      <rects>
        <_>
          15 29 3 4 -1.</_>
        <_>
          15 31 3 2 2.</_></rects>
      <tilted>0</tilted></_>
    <_>
      <rects>
        <_>
          16 2 1 2 -1.</_>
        <_>
          16 3 1 1 2.</_></rects>
      <tilted>0</tilted></_>
    <_>
      <rects>
        <_>
          16 13 12 2 -1.</_>
        <_>
          22 13 6 2 2.</_></rects>
      <tilted>0</tilted></_>
    <_>
      <rects>
        <_>
          18 5 2 1 -1.</_>
        <_>
          19 5 1 1 2.</_></rects>
      <tilted>0</tilted></_>
    <_>
      <rects>
        <_>
          18 20 10 6 -1.</_>
        <_>
          18 20 5 3 2.</_>
        <_>
          23 23 5 3 2.</_></rects>
      <tilted>0</tilted></_>
    <_>
      <rects>
        <_>
          19 20 4 3 -1.</_>
        <_>
          21 20 2 3 2.</_></rects>
      <tilted>0</tilted></_>
    <_>
      <rects>
        <_>
          19 20 4 10 -1.</_>
        <_>
          19 20 2 5 2.</_>
        <_>
          21 25 2 5 2.</_></rects>
      <tilted>0</tilted></_>
    <_>
      <rects>
        <_>
          20 14 12 5 -1.</_>
        <_>
          24 14 4 5 3.</_></rects>
      <tilted>0</tilted></_>
    <_>
      <rects>
        <_>
          22 24 4 3 -1.</_>
        <_>
          24 24 2 3 2.</_></rects>
      <tilted>0</tilted></_>
    <_>
      <rects>
        <_>
          26 12 6 11 -1.</_>
        <_>
          29 12 3 11 2.</_></rects>
      <tilted>0</tilted></_>
    <_>
      <rects>
        <_>
          28 15 4 3 -1.</_>
        <_>
          30 15 2 3 2.</_></rects>
      <tilted>0</tilted></_></features></cascade>
</opencv_storage>
