<?xml version="1.0"?>
<opencv_storage>
<!-- Created using Computer Vision System Toolbox(tm) for MATLAB(R) -->
<!-- Version 9.1.0.441655 (R2016b) -->
<!-- Compatible with OpenCV 2.4 -->
<cascade>
  <stageType>BOOST</stageType>
  <featureType>HOG</featureType>
  <height>33</height>
  <width>32</width>
  <stageParams>
    <boostType>GAB</boostType>
    <minHitRate>8.5000002384185791e-01</minHitRate>
    <maxFalseAlarm>3.0000001192092896e-01</maxFalseAlarm>
    <weightTrimRate>9.4999999999999996e-01</weightTrimRate>
    <maxDepth>1</maxDepth>
    <maxWeakCount>100</maxWeakCount></stageParams>
  <featureParams>
    <maxCatCount>0</maxCatCount>
    <featSize>36</featSize></featureParams>
  <stageNum>11</stageNum>
  <stages>
    <!-- stage 0 -->
    <_>
      <maxWeakCount>1</maxWeakCount>
      <stageThreshold>6.5352112054824829e-01</stageThreshold>
      <weakClassifiers>
        <_>
          <internalNodes>
            0 -1 25 1.4293706044554710e-02</internalNodes>
          <leafValues>
            -8.9575290679931641e-01 6.5352112054824829e-01</leafValues></_></weakClassifiers></_>
    <!-- stage 1 -->
    <_>
      <maxWeakCount>1</maxWeakCount>
      <stageThreshold>6.4631199836730957e-01</stageThreshold>
      <weakClassifiers>
        <_>
          <internalNodes>
            0 -1 24 1.8846951425075531e-02</internalNodes>
          <leafValues>
            -7.5494349002838135e-01 6.4631199836730957e-01</leafValues></_></weakClassifiers></_>
    <!-- stage 2 -->
    <_>
      <maxWeakCount>1</maxWeakCount>
      <stageThreshold>5.9159481525421143e-01</stageThreshold>
      <weakClassifiers>
        <_>
          <internalNodes>
            0 -1 1 4.3632570654153824e-02</internalNodes>
          <leafValues>
            5.9159481525421143e-01 -9.0444809198379517e-01</leafValues></_></weakClassifiers></_>
    <!-- stage 3 -->
    <_>
      <maxWeakCount>1</maxWeakCount>
      <stageThreshold>5.3237789869308472e-01</stageThreshold>
      <weakClassifiers>
        <_>
          <internalNodes>
            0 -1 19 3.7830665707588196e-02</internalNodes>
          <leafValues>
            5.3237789869308472e-01 -8.4569984674453735e-01</leafValues></_></weakClassifiers></_>
    <!-- stage 4 -->
    <_>
      <maxWeakCount>3</maxWeakCount>
      <stageThreshold>3.6637210845947266e-01</stageThreshold>
      <weakClassifiers>
        <_>
          <internalNodes>
            0 -1 23 3.0729586258530617e-02</internalNodes>
          <leafValues>
            -5.3364270925521851e-01 6.8350666761398315e-01</leafValues></_>
        <_>
          <internalNodes>
            0 -1 17 1.5447191894054413e-02</internalNodes>
          <leafValues>
            -6.7889070510864258e-01 5.6230074167251587e-01</leafValues></_>
        <_>
          <internalNodes>
            0 -1 15 4.7112125903367996e-02</internalNodes>
          <leafValues>
            3.6175614595413208e-01 -8.8624209165573120e-01</leafValues></_></weakClassifiers></_>
    <!-- stage 5 -->
    <_>
      <maxWeakCount>4</maxWeakCount>
      <stageThreshold>5.9593643993139267e-02</stageThreshold>
      <weakClassifiers>
        <_>
          <internalNodes>
            0 -1 12 3.8278073072433472e-02</internalNodes>
          <leafValues>
            -5.2757984399795532e-01 8.5027647018432617e-01</leafValues></_>
        <_>
          <internalNodes>
            0 -1 9 4.2386688292026520e-02</internalNodes>
          <leafValues>
            4.5337781310081482e-01 -7.0658093690872192e-01</leafValues></_>
        <_>
          <internalNodes>
            0 -1 24 3.8914650678634644e-02</internalNodes>
          <leafValues>
            -3.5016551613807678e-01 8.6436152458190918e-01</leafValues></_>
        <_>
          <internalNodes>
            0 -1 13 1.1099709197878838e-02</internalNodes>
          <leafValues>
            -6.2669789791107178e-01 4.8396119475364685e-01</leafValues></_></weakClassifiers></_>
    <!-- stage 6 -->
    <_>
      <maxWeakCount>4</maxWeakCount>
      <stageThreshold>-7.2714067995548248e-02</stageThreshold>
      <weakClassifiers>
        <_>
          <internalNodes>
            0 -1 22 3.7162497639656067e-02</internalNodes>
          <leafValues>
            -4.7514697909355164e-01 7.4145120382308960e-01</leafValues></_>
        <_>
          <internalNodes>
            0 -1 25 3.5459846258163452e-02</internalNodes>
          <leafValues>
            -3.2117161154747009e-01 6.5592926740646362e-01</leafValues></_>
        <_>
          <internalNodes>
            0 -1 21 3.0754161998629570e-02</internalNodes>
          <leafValues>
            -4.9073395133018494e-01 3.8366854190826416e-01</leafValues></_>
        <_>
          <internalNodes>
            0 -1 8 2.0855344831943512e-02</internalNodes>
          <leafValues>
            -4.8655682802200317e-01 3.3993598818778992e-01</leafValues></_></weakClassifiers></_>
    <!-- stage 7 -->
    <_>
      <maxWeakCount>4</maxWeakCount>
      <stageThreshold>1.4802519977092743e-01</stageThreshold>
      <weakClassifiers>
        <_>
          <internalNodes>
            0 -1 23 4.2518001049757004e-02</internalNodes>
          <leafValues>
            -4.9511399865150452e-01 7.4267101287841797e-01</leafValues></_>
        <_>
          <internalNodes>
            0 -1 0 4.8546433448791504e-02</internalNodes>
          <leafValues>
            -2.5529026985168457e-01 7.1148133277893066e-01</leafValues></_>
        <_>
          <internalNodes>
            0 -1 5 3.6007232964038849e-02</internalNodes>
          <leafValues>
            -3.5175651311874390e-01 4.9264979362487793e-01</leafValues></_>
        <_>
          <internalNodes>
            0 -1 2 1.2794730253517628e-02</internalNodes>
          <leafValues>
            4.0577968955039978e-01 -4.3349823355674744e-01</leafValues></_></weakClassifiers></_>
    <!-- stage 8 -->
    <_>
      <maxWeakCount>5</maxWeakCount>
      <stageThreshold>5.5646695196628571e-02</stageThreshold>
      <weakClassifiers>
        <_>
          <internalNodes>
            0 -1 16 4.3811380863189697e-02</internalNodes>
          <leafValues>
            -5.5199998617172241e-01 7.3181819915771484e-01</leafValues></_>
        <_>
          <internalNodes>
            0 -1 6 2.3135434836149216e-02</internalNodes>
          <leafValues>
            3.4703996777534485e-01 -7.3618823289871216e-01</leafValues></_>
        <_>
          <internalNodes>
            0 -1 12 9.3680560588836670e-02</internalNodes>
          <leafValues>
            -2.3720501363277435e-01 8.4319585561752319e-01</leafValues></_>
        <_>
          <internalNodes>
            0 -1 20 1.3079844415187836e-02</internalNodes>
          <leafValues>
            -7.3926258087158203e-01 2.7681198716163635e-01</leafValues></_>
        <_>
          <internalNodes>
            0 -1 10 3.0615031719207764e-02</internalNodes>
          <leafValues>
            2.2099976241588593e-01 -7.0306712388992310e-01</leafValues></_></weakClassifiers></_>
    <!-- stage 9 -->
    <_>
      <maxWeakCount>2</maxWeakCount>
      <stageThreshold>4.2407602071762085e-02</stageThreshold>
      <weakClassifiers>
        <_>
          <internalNodes>
            0 -1 14 5.3319059312343597e-02</internalNodes>
          <leafValues>
            -5.1846706867218018e-01 7.3532885313034058e-01</leafValues></_>
        <_>
          <internalNodes>
            0 -1 7 3.7309806793928146e-02</internalNodes>
          <leafValues>
            -4.5311820507049561e-01 5.6087470054626465e-01</leafValues></_></weakClassifiers></_>
    <!-- stage 10 -->
    <_>
      <maxWeakCount>4</maxWeakCount>
      <stageThreshold>8.3799652755260468e-02</stageThreshold>
      <weakClassifiers>
        <_>
          <internalNodes>
            0 -1 18 5.0988420844078064e-02</internalNodes>
          <leafValues>
            -4.3176734447479248e-01 7.8697252273559570e-01</leafValues></_>
        <_>
          <internalNodes>
            0 -1 3 5.1543459296226501e-02</internalNodes>
          <leafValues>
            -2.6476684212684631e-01 6.1673831939697266e-01</leafValues></_>
        <_>
          <internalNodes>
            0 -1 4 1.7583165317773819e-02</internalNodes>
          <leafValues>
            -4.9914258718490601e-01 2.8325903415679932e-01</leafValues></_>
        <_>
          <internalNodes>
            0 -1 11 4.0277950465679169e-02</internalNodes>
          <leafValues>
            -2.7880355715751648e-01 4.9707478284835815e-01</leafValues></_></weakClassifiers></_></stages>
  <features>
    <_>
      <rect>
        0 0 8 8 19</rect></_>
    <_>
      <rect>
        0 4 8 8 22</rect></_>
    <_>
      <rect>
        0 12 8 8 4</rect></_>
    <_>
      <rect>
        0 16 8 8 6</rect></_>
    <_>
      <rect>
        4 16 8 8 23</rect></_>
    <_>
      <rect>
        8 0 8 8 3</rect></_>
    <_>
      <rect>
        8 0 8 8 6</rect></_>
    <_>
      <rect>
        12 8 8 8 26</rect></_>
    <_>
      <rect>
        12 16 8 8 29</rect></_>
    <_>
      <rect>
        12 16 8 8 35</rect></_>
    <_>
      <rect>
        16 0 8 8 0</rect></_>
    <_>
      <rect>
        16 0 8 8 6</rect></_>
    <_>
      <rect>
        16 0 8 8 33</rect></_>
    <_>
      <rect>
        16 0 8 8 34</rect></_>
    <_>
      <rect>
        16 8 8 8 15</rect></_>
    <_>
      <rect>
        0 0 8 16 22</rect></_>
    <_>
      <rect>
        4 0 8 16 1</rect></_>
    <_>
      <rect>
        4 0 8 16 12</rect></_>
    <_>
      <rect>
        16 0 8 16 28</rect></_>
    <_>
      <rect>
        16 0 8 16 31</rect></_>
    <_>
      <rect>
        0 0 16 8 2</rect></_>
    <_>
      <rect>
        0 4 16 8 35</rect></_>
    <_>
      <rect>
        0 0 16 16 1</rect></_>
    <_>
      <rect>
        0 0 16 16 15</rect></_>
    <_>
      <rect>
        0 0 16 16 24</rect></_>
    <_>
      <rect>
        0 0 16 16 28</rect></_></features></cascade>
</opencv_storage>
