<?xml version="1.0"?>
<opencv_storage>
<!-- Created using Computer Vision System Toolbox(tm) for MATLAB(R) -->
<!-- Version 9.1.0.441655 (R2016b) -->
<!-- Compatible with OpenCV 2.4 -->
<cascade>
  <stageType>BOOST</stageType>
  <featureType>HOG</featureType>
  <height>33</height>
  <width>32</width>
  <stageParams>
    <boostType>GAB</boostType>
    <minHitRate>8.0000001192092896e-01</minHitRate>
    <maxFalseAlarm>3.0000001192092896e-01</maxFalseAlarm>
    <weightTrimRate>9.4999999999999996e-01</weightTrimRate>
    <maxDepth>1</maxDepth>
    <maxWeakCount>100</maxWeakCount></stageParams>
  <featureParams>
    <maxCatCount>0</maxCatCount>
    <featSize>36</featSize></featureParams>
  <stageNum>9</stageNum>
  <stages>
    <!-- stage 0 -->
    <_>
      <maxWeakCount>1</maxWeakCount>
      <stageThreshold>6.5600234270095825e-01</stageThreshold>
      <weakClassifiers>
        <_>
          <internalNodes>
            0 -1 11 1.4293706044554710e-02</internalNodes>
          <leafValues>
            -8.9579159021377563e-01 6.5600234270095825e-01</leafValues></_></weakClassifiers></_>
    <!-- stage 1 -->
    <_>
      <maxWeakCount>1</maxWeakCount>
      <stageThreshold>6.4553767442703247e-01</stageThreshold>
      <weakClassifiers>
        <_>
          <internalNodes>
            0 -1 10 1.8846951425075531e-02</internalNodes>
          <leafValues>
            -7.4954229593276978e-01 6.4553767442703247e-01</leafValues></_></weakClassifiers></_>
    <!-- stage 2 -->
    <_>
      <maxWeakCount>1</maxWeakCount>
      <stageThreshold>5.9270685911178589e-01</stageThreshold>
      <weakClassifiers>
        <_>
          <internalNodes>
            0 -1 1 4.3454501777887344e-02</internalNodes>
          <leafValues>
            5.9270685911178589e-01 -9.0415060520172119e-01</leafValues></_></weakClassifiers></_>
    <!-- stage 3 -->
    <_>
      <maxWeakCount>1</maxWeakCount>
      <stageThreshold>5.4655414819717407e-01</stageThreshold>
      <weakClassifiers>
        <_>
          <internalNodes>
            0 -1 5 3.6119941622018814e-02</internalNodes>
          <leafValues>
            5.4655414819717407e-01 -8.2786536216735840e-01</leafValues></_></weakClassifiers></_>
    <!-- stage 4 -->
    <_>
      <maxWeakCount>3</maxWeakCount>
      <stageThreshold>4.3243426084518433e-01</stageThreshold>
      <weakClassifiers>
        <_>
          <internalNodes>
            0 -1 8 2.7656737715005875e-02</internalNodes>
          <leafValues>
            -5.6305170059204102e-01 6.5421247482299805e-01</leafValues></_>
        <_>
          <internalNodes>
            0 -1 4 1.8024552613496780e-02</internalNodes>
          <leafValues>
            -6.2837380170822144e-01 6.2178128957748413e-01</leafValues></_>
        <_>
          <internalNodes>
            0 -1 9 4.9420803785324097e-02</internalNodes>
          <leafValues>
            4.0659561753273010e-01 -8.1633490324020386e-01</leafValues></_></weakClassifiers></_>
    <!-- stage 5 -->
    <_>
      <maxWeakCount>3</maxWeakCount>
      <stageThreshold>4.6660360693931580e-01</stageThreshold>
      <weakClassifiers>
        <_>
          <internalNodes>
            0 -1 3 3.8400158286094666e-02</internalNodes>
          <leafValues>
            -5.6457567214965820e-01 8.3606559038162231e-01</leafValues></_>
        <_>
          <internalNodes>
            0 -1 6 5.2412379533052444e-02</internalNodes>
          <leafValues>
            4.9691700935363770e-01 -7.2322738170623779e-01</leafValues></_>
        <_>
          <internalNodes>
            0 -1 2 1.7500393092632294e-02</internalNodes>
          <leafValues>
            5.3426223993301392e-01 -6.5014886856079102e-01</leafValues></_></weakClassifiers></_>
    <!-- stage 6 -->
    <_>
      <maxWeakCount>2</maxWeakCount>
      <stageThreshold>9.8792962729930878e-02</stageThreshold>
      <weakClassifiers>
        <_>
          <internalNodes>
            0 -1 11 3.3024601638317108e-02</internalNodes>
          <leafValues>
            -6.1937499046325684e-01 7.3353070020675659e-01</leafValues></_>
        <_>
          <internalNodes>
            0 -1 7 3.5756789147853851e-02</internalNodes>
          <leafValues>
            -3.7175932526588440e-01 7.1816796064376831e-01</leafValues></_></weakClassifiers></_>
    <!-- stage 7 -->
    <_>
      <maxWeakCount>2</maxWeakCount>
      <stageThreshold>5.9558708220720291e-02</stageThreshold>
      <weakClassifiers>
        <_>
          <internalNodes>
            0 -1 8 4.2629793286323547e-02</internalNodes>
          <leafValues>
            -6.2400001287460327e-01 7.6470589637756348e-01</leafValues></_>
        <_>
          <internalNodes>
            0 -1 0 3.9110288023948669e-02</internalNodes>
          <leafValues>
            -5.0185990333557129e-01 6.8355870246887207e-01</leafValues></_></weakClassifiers></_>
    <!-- stage 8 -->
    <_>
      <maxWeakCount>1</maxWeakCount>
      <stageThreshold>6.5671640634536743e-01</stageThreshold>
      <weakClassifiers>
        <_>
          <internalNodes>
            0 -1 3 4.7873873263597488e-02</internalNodes>
          <leafValues>
            -7.1773052215576172e-01 6.5671640634536743e-01</leafValues></_></weakClassifiers></_></stages>
  <features>
    <_>
      <rect>
        0 0 8 8 19</rect></_>
    <_>
      <rect>
        0 4 8 8 22</rect></_>
    <_>
      <rect>
        0 12 8 8 4</rect></_>
    <_>
      <rect>
        16 0 8 8 33</rect></_>
    <_>
      <rect>
        4 0 8 16 12</rect></_>
    <_>
      <rect>
        16 0 8 16 31</rect></_>
    <_>
      <rect>
        0 4 16 8 13</rect></_>
    <_>
      <rect>
        0 0 16 16 1</rect></_>
    <_>
      <rect>
        0 0 16 16 15</rect></_>
    <_>
      <rect>
        0 0 16 16 22</rect></_>
    <_>
      <rect>
        0 0 16 16 24</rect></_>
    <_>
      <rect>
        0 0 16 16 28</rect></_></features></cascade>
</opencv_storage>
