<?xml version="1.0"?>
<opencv_storage>
<!-- Created using Computer Vision System Toolbox(tm) for MATLAB(R) -->
<!-- Version 9.1.0.441655 (R2016b) -->
<!-- Compatible with OpenCV 2.4 -->
<cascade>
  <stageType>BOOST</stageType>
  <featureType>HOG</featureType>
  <height>33</height>
  <width>32</width>
  <stageParams>
    <boostType>GAB</boostType>
    <minHitRate>8.9999997615814209e-01</minHitRate>
    <maxFalseAlarm>4.0000000596046448e-01</maxFalseAlarm>
    <weightTrimRate>9.4999999999999996e-01</weightTrimRate>
    <maxDepth>1</maxDepth>
    <maxWeakCount>100</maxWeakCount></stageParams>
  <featureParams>
    <maxCatCount>0</maxCatCount>
    <featSize>36</featSize></featureParams>
  <stageNum>9</stageNum>
  <stages>
    <!-- stage 0 -->
    <_>
      <maxWeakCount>1</maxWeakCount>
      <stageThreshold>6.5755921602249146e-01</stageThreshold>
      <weakClassifiers>
        <_>
          <internalNodes>
            0 -1 18 1.4293706044554710e-02</internalNodes>
          <leafValues>
            -9.0627616643905640e-01 6.5755921602249146e-01</leafValues></_></weakClassifiers></_>
    <!-- stage 1 -->
    <_>
      <maxWeakCount>3</maxWeakCount>
      <stageThreshold>1.4637078344821930e-01</stageThreshold>
      <weakClassifiers>
        <_>
          <internalNodes>
            0 -1 17 1.8846951425075531e-02</internalNodes>
          <leafValues>
            -7.4835443496704102e-01 6.4597904682159424e-01</leafValues></_>
        <_>
          <internalNodes>
            0 -1 2 3.3324897289276123e-02</internalNodes>
          <leafValues>
            4.9671277403831482e-01 -8.5876852273941040e-01</leafValues></_>
        <_>
          <internalNodes>
            0 -1 11 9.6554737538099289e-03</internalNodes>
          <leafValues>
            -8.3615660667419434e-01 3.9801242947578430e-01</leafValues></_></weakClassifiers></_>
    <!-- stage 2 -->
    <_>
      <maxWeakCount>1</maxWeakCount>
      <stageThreshold>4.2898288369178772e-01</stageThreshold>
      <weakClassifiers>
        <_>
          <internalNodes>
            0 -1 12 3.6266110837459564e-02</internalNodes>
          <leafValues>
            4.2898288369178772e-01 -8.0208683013916016e-01</leafValues></_></weakClassifiers></_>
    <!-- stage 3 -->
    <_>
      <maxWeakCount>2</maxWeakCount>
      <stageThreshold>1.5037351846694946e-01</stageThreshold>
      <weakClassifiers>
        <_>
          <internalNodes>
            0 -1 5 4.6714276075363159e-02</internalNodes>
          <leafValues>
            -4.3116271495819092e-01 7.8891468048095703e-01</leafValues></_>
        <_>
          <internalNodes>
            0 -1 13 1.6517892479896545e-02</internalNodes>
          <leafValues>
            -5.5376350879669189e-01 5.8153623342514038e-01</leafValues></_></weakClassifiers></_>
    <!-- stage 4 -->
    <_>
      <maxWeakCount>2</maxWeakCount>
      <stageThreshold>8.6965337395668030e-02</stageThreshold>
      <weakClassifiers>
        <_>
          <internalNodes>
            0 -1 16 3.0298585072159767e-02</internalNodes>
          <leafValues>
            -4.6357616782188416e-01 7.0165091753005981e-01</leafValues></_>
        <_>
          <internalNodes>
            0 -1 9 1.8087027594447136e-02</internalNodes>
          <leafValues>
            -6.1404985189437866e-01 5.5054152011871338e-01</leafValues></_></weakClassifiers></_>
    <!-- stage 5 -->
    <_>
      <maxWeakCount>4</maxWeakCount>
      <stageThreshold>-2.7711150050163269e-01</stageThreshold>
      <weakClassifiers>
        <_>
          <internalNodes>
            0 -1 17 3.9989449083805084e-02</internalNodes>
          <leafValues>
            -3.9648768305778503e-01 9.0168970823287964e-01</leafValues></_>
        <_>
          <internalNodes>
            0 -1 3 2.7923278510570526e-02</internalNodes>
          <leafValues>
            4.3945547938346863e-01 -6.8663340806961060e-01</leafValues></_>
        <_>
          <internalNodes>
            0 -1 4 1.4988455921411514e-02</internalNodes>
          <leafValues>
            -6.8219000101089478e-01 4.1779893636703491e-01</leafValues></_>
        <_>
          <internalNodes>
            0 -1 6 5.1655776798725128e-02</internalNodes>
          <leafValues>
            3.6211067438125610e-01 -6.9354361295700073e-01</leafValues></_></weakClassifiers></_>
    <!-- stage 6 -->
    <_>
      <maxWeakCount>3</maxWeakCount>
      <stageThreshold>2.8279873728752136e-01</stageThreshold>
      <weakClassifiers>
        <_>
          <internalNodes>
            0 -1 10 3.4522682428359985e-02</internalNodes>
          <leafValues>
            -4.8230692744255066e-01 7.2324830293655396e-01</leafValues></_>
        <_>
          <internalNodes>
            0 -1 15 1.0064534842967987e-02</internalNodes>
          <leafValues>
            -6.6588157415390015e-01 3.8613480329513550e-01</leafValues></_>
        <_>
          <internalNodes>
            0 -1 8 3.2733038067817688e-02</internalNodes>
          <leafValues>
            3.7897086143493652e-01 -6.6963994503021240e-01</leafValues></_></weakClassifiers></_>
    <!-- stage 7 -->
    <_>
      <maxWeakCount>2</maxWeakCount>
      <stageThreshold>6.0541760176420212e-03</stageThreshold>
      <weakClassifiers>
        <_>
          <internalNodes>
            0 -1 18 3.6749735474586487e-02</internalNodes>
          <leafValues>
            -4.3893772363662720e-01 7.3828250169754028e-01</leafValues></_>
        <_>
          <internalNodes>
            0 -1 14 4.0087111294269562e-02</internalNodes>
          <leafValues>
            -3.7139713764190674e-01 4.4499188661575317e-01</leafValues></_></weakClassifiers></_>
    <!-- stage 8 -->
    <_>
      <maxWeakCount>3</maxWeakCount>
      <stageThreshold>-2.1577185392379761e-01</stageThreshold>
      <weakClassifiers>
        <_>
          <internalNodes>
            0 -1 1 4.3979749083518982e-02</internalNodes>
          <leafValues>
            -4.4153904914855957e-01 7.4527114629745483e-01</leafValues></_>
        <_>
          <internalNodes>
            0 -1 0 1.4461681246757507e-02</internalNodes>
          <leafValues>
            5.1399642229080200e-01 -3.7947428226470947e-01</leafValues></_>
        <_>
          <internalNodes>
            0 -1 7 4.2945794761180878e-02</internalNodes>
          <leafValues>
            -2.8822925686836243e-01 6.6938650608062744e-01</leafValues></_></weakClassifiers></_></stages>
  <features>
    <_>
      <rect>
        0 0 8 8 17</rect></_>
    <_>
      <rect>
        0 0 8 8 19</rect></_>
    <_>
      <rect>
        0 4 8 8 22</rect></_>
    <_>
      <rect>
        0 12 8 8 4</rect></_>
    <_>
      <rect>
        0 16 8 8 32</rect></_>
    <_>
      <rect>
        12 4 8 8 15</rect></_>
    <_>
      <rect>
        16 4 8 8 13</rect></_>
    <_>
      <rect>
        16 8 8 8 15</rect></_>
    <_>
      <rect>
        0 0 8 16 22</rect></_>
    <_>
      <rect>
        4 0 8 16 12</rect></_>
    <_>
      <rect>
        12 0 8 16 15</rect></_>
    <_>
      <rect>
        16 0 8 16 15</rect></_>
    <_>
      <rect>
        16 0 8 16 31</rect></_>
    <_>
      <rect>
        0 4 16 8 25</rect></_>
    <_>
      <rect>
        0 8 16 8 26</rect></_>
    <_>
      <rect>
        0 16 16 8 30</rect></_>
    <_>
      <rect>
        0 0 16 16 1</rect></_>
    <_>
      <rect>
        0 0 16 16 24</rect></_>
    <_>
      <rect>
        0 0 16 16 28</rect></_></features></cascade>
</opencv_storage>
