<?xml version="1.0"?>
<opencv_storage>
<!-- Created using Computer Vision System Toolbox(tm) for MATLAB(R) -->
<!-- Version 9.1.0.441655 (R2016b) -->
<!-- Compatible with OpenCV 2.4 -->
<cascade>
  <stageType>BOOST</stageType>
  <featureType>HOG</featureType>
  <height>33</height>
  <width>32</width>
  <stageParams>
    <boostType>GAB</boostType>
    <minHitRate>9.4999998807907104e-01</minHitRate>
    <maxFalseAlarm>3.0000001192092896e-01</maxFalseAlarm>
    <weightTrimRate>9.4999999999999996e-01</weightTrimRate>
    <maxDepth>1</maxDepth>
    <maxWeakCount>100</maxWeakCount></stageParams>
  <featureParams>
    <maxCatCount>0</maxCatCount>
    <featSize>36</featSize></featureParams>
  <stageNum>8</stageNum>
  <stages>
    <!-- stage 0 -->
    <_>
      <maxWeakCount>3</maxWeakCount>
      <stageThreshold>6.4146317541599274e-02</stageThreshold>
      <weakClassifiers>
        <_>
          <internalNodes>
            0 -1 38 1.4293706044554710e-02</internalNodes>
          <leafValues>
            -8.6775845289230347e-01 6.5366232395172119e-01</leafValues></_>
        <_>
          <internalNodes>
            0 -1 1 3.1282931566238403e-02</internalNodes>
          <leafValues>
            4.7355934977531433e-01 -8.2759904861450195e-01</leafValues></_>
        <_>
          <internalNodes>
            0 -1 37 1.2885619886219501e-02</internalNodes>
          <leafValues>
            -7.9925161600112915e-01 4.5834541320800781e-01</leafValues></_></weakClassifiers></_>
    <!-- stage 1 -->
    <_>
      <maxWeakCount>4</maxWeakCount>
      <stageThreshold>2.9890203475952148e-01</stageThreshold>
      <weakClassifiers>
        <_>
          <internalNodes>
            0 -1 24 1.2498866766691208e-02</internalNodes>
          <leafValues>
            -7.4294269084930420e-01 5.1897221803665161e-01</leafValues></_>
        <_>
          <internalNodes>
            0 -1 16 4.0621101856231689e-02</internalNodes>
          <leafValues>
            3.4080088138580322e-01 -8.4479767084121704e-01</leafValues></_>
        <_>
          <internalNodes>
            0 -1 27 1.1451816186308861e-02</internalNodes>
          <leafValues>
            -8.3269953727722168e-01 3.3127737045288086e-01</leafValues></_>
        <_>
          <internalNodes>
            0 -1 28 1.4729276299476624e-02</internalNodes>
          <leafValues>
            -6.7101657390594482e-01 3.6976647377014160e-01</leafValues></_></weakClassifiers></_>
    <!-- stage 2 -->
    <_>
      <maxWeakCount>5</maxWeakCount>
      <stageThreshold>-1.2673822045326233e-01</stageThreshold>
      <weakClassifiers>
        <_>
          <internalNodes>
            0 -1 2 3.0554607510566711e-02</internalNodes>
          <leafValues>
            4.4008028507232666e-01 -6.9868004322052002e-01</leafValues></_>
        <_>
          <internalNodes>
            0 -1 32 1.5406647697091103e-02</internalNodes>
          <leafValues>
            -6.4378929138183594e-01 3.6284193396568298e-01</leafValues></_>
        <_>
          <internalNodes>
            0 -1 10 1.6140960156917572e-02</internalNodes>
          <leafValues>
            -7.1556061506271362e-01 3.0393704771995544e-01</leafValues></_>
        <_>
          <internalNodes>
            0 -1 31 3.4112758934497833e-02</internalNodes>
          <leafValues>
            -4.5955142378807068e-01 4.6774205565452576e-01</leafValues></_>
        <_>
          <internalNodes>
            0 -1 12 1.1458069086074829e-02</internalNodes>
          <leafValues>
            -5.6257927417755127e-01 4.0825930237770081e-01</leafValues></_></weakClassifiers></_>
    <!-- stage 3 -->
    <_>
      <maxWeakCount>5</maxWeakCount>
      <stageThreshold>-1.7720024287700653e-01</stageThreshold>
      <weakClassifiers>
        <_>
          <internalNodes>
            0 -1 18 4.1906259953975677e-02</internalNodes>
          <leafValues>
            4.5414304733276367e-01 -7.9280364513397217e-01</leafValues></_>
        <_>
          <internalNodes>
            0 -1 14 3.8399860262870789e-02</internalNodes>
          <leafValues>
            3.9762088656425476e-01 -5.7719922065734863e-01</leafValues></_>
        <_>
          <internalNodes>
            0 -1 22 3.3014453947544098e-02</internalNodes>
          <leafValues>
            -4.2329359054565430e-01 6.0493665933609009e-01</leafValues></_>
        <_>
          <internalNodes>
            0 -1 13 9.1104712337255478e-03</internalNodes>
          <leafValues>
            -6.3741087913513184e-01 3.4203600883483887e-01</leafValues></_>
        <_>
          <internalNodes>
            0 -1 21 1.2695568613708019e-02</internalNodes>
          <leafValues>
            -7.1603161096572876e-01 2.9924011230468750e-01</leafValues></_></weakClassifiers></_>
    <!-- stage 4 -->
    <_>
      <maxWeakCount>5</maxWeakCount>
      <stageThreshold>-7.7689975500106812e-01</stageThreshold>
      <weakClassifiers>
        <_>
          <internalNodes>
            0 -1 15 1.7546858638525009e-02</internalNodes>
          <leafValues>
            5.2379286289215088e-01 -5.2953660488128662e-01</leafValues></_>
        <_>
          <internalNodes>
            0 -1 19 2.3644084110856056e-02</internalNodes>
          <leafValues>
            -4.2055565118789673e-01 4.7563531994819641e-01</leafValues></_>
        <_>
          <internalNodes>
            0 -1 34 9.7383437678217888e-03</internalNodes>
          <leafValues>
            -7.2239363193511963e-01 2.8084060549736023e-01</leafValues></_>
        <_>
          <internalNodes>
            0 -1 1 1.6556002199649811e-02</internalNodes>
          <leafValues>
            4.3078014254570007e-01 -5.0710791349411011e-01</leafValues></_>
        <_>
          <internalNodes>
            0 -1 30 2.1400284022092819e-02</internalNodes>
          <leafValues>
            -5.4682642221450806e-01 3.0988448858261108e-01</leafValues></_></weakClassifiers></_>
    <!-- stage 5 -->
    <_>
      <maxWeakCount>6</maxWeakCount>
      <stageThreshold>-6.9181330502033234e-02</stageThreshold>
      <weakClassifiers>
        <_>
          <internalNodes>
            0 -1 23 2.4456504732370377e-02</internalNodes>
          <leafValues>
            -4.2952805757522583e-01 5.2844250202178955e-01</leafValues></_>
        <_>
          <internalNodes>
            0 -1 5 3.7905186414718628e-02</internalNodes>
          <leafValues>
            3.3027708530426025e-01 -6.6330152750015259e-01</leafValues></_>
        <_>
          <internalNodes>
            0 -1 25 1.0211993008852005e-02</internalNodes>
          <leafValues>
            -7.4062478542327881e-01 2.2907166182994843e-01</leafValues></_>
        <_>
          <internalNodes>
            0 -1 6 6.0371175408363342e-02</internalNodes>
          <leafValues>
            -2.2274728119373322e-01 8.8125824928283691e-01</leafValues></_>
        <_>
          <internalNodes>
            0 -1 7 5.4210029542446136e-02</internalNodes>
          <leafValues>
            -3.0512315034866333e-01 6.4413523674011230e-01</leafValues></_>
        <_>
          <internalNodes>
            0 -1 11 1.3365762308239937e-02</internalNodes>
          <leafValues>
            -5.0489556789398193e-01 3.7318864464759827e-01</leafValues></_></weakClassifiers></_>
    <!-- stage 6 -->
    <_>
      <maxWeakCount>9</maxWeakCount>
      <stageThreshold>-4.6617516875267029e-01</stageThreshold>
      <weakClassifiers>
        <_>
          <internalNodes>
            0 -1 9 4.5396931469440460e-02</internalNodes>
          <leafValues>
            -3.7735024094581604e-01 5.7418495416641235e-01</leafValues></_>
        <_>
          <internalNodes>
            0 -1 17 2.4132966995239258e-02</internalNodes>
          <leafValues>
            2.5145971775054932e-01 -5.3812283277511597e-01</leafValues></_>
        <_>
          <internalNodes>
            0 -1 26 2.4818256497383118e-02</internalNodes>
          <leafValues>
            -3.9729782938957214e-01 3.2004991173744202e-01</leafValues></_>
        <_>
          <internalNodes>
            0 -1 37 1.3246132992208004e-02</internalNodes>
          <leafValues>
            -7.3195052146911621e-01 1.9926303625106812e-01</leafValues></_>
        <_>
          <internalNodes>
            0 -1 29 4.0017463266849518e-02</internalNodes>
          <leafValues>
            -4.1172137856483459e-01 2.6577287912368774e-01</leafValues></_>
        <_>
          <internalNodes>
            0 -1 0 3.7529435008764267e-02</internalNodes>
          <leafValues>
            1.9073434174060822e-01 -5.5587369203567505e-01</leafValues></_>
        <_>
          <internalNodes>
            0 -1 4 7.4524372816085815e-02</internalNodes>
          <leafValues>
            -2.3623023927211761e-01 5.7417619228363037e-01</leafValues></_>
        <_>
          <internalNodes>
            0 -1 18 6.7868441343307495e-02</internalNodes>
          <leafValues>
            1.8309128284454346e-01 -8.5047411918640137e-01</leafValues></_>
        <_>
          <internalNodes>
            0 -1 36 1.6309879720211029e-02</internalNodes>
          <leafValues>
            -5.3793209791183472e-01 1.6113649308681488e-01</leafValues></_></weakClassifiers></_>
    <!-- stage 7 -->
    <_>
      <maxWeakCount>8</maxWeakCount>
      <stageThreshold>-7.9381626844406128e-01</stageThreshold>
      <weakClassifiers>
        <_>
          <internalNodes>
            0 -1 20 4.2665243148803711e-02</internalNodes>
          <leafValues>
            -3.8275259733200073e-01 7.8180819749832153e-01</leafValues></_>
        <_>
          <internalNodes>
            0 -1 35 2.1044878289103508e-02</internalNodes>
          <leafValues>
            3.5681217908859253e-01 -5.3460872173309326e-01</leafValues></_>
        <_>
          <internalNodes>
            0 -1 33 4.2385023087263107e-02</internalNodes>
          <leafValues>
            -3.4558594226837158e-01 4.2754343152046204e-01</leafValues></_>
        <_>
          <internalNodes>
            0 -1 8 1.3583345338702202e-02</internalNodes>
          <leafValues>
            3.9867973327636719e-01 -3.7164744734764099e-01</leafValues></_>
        <_>
          <internalNodes>
            0 -1 3 7.4300751090049744e-02</internalNodes>
          <leafValues>
            -1.6891716420650482e-01 7.3158192634582520e-01</leafValues></_>
        <_>
          <internalNodes>
            0 -1 7 4.0087632834911346e-02</internalNodes>
          <leafValues>
            -3.2671362161636353e-01 4.3971335887908936e-01</leafValues></_>
        <_>
          <internalNodes>
            0 -1 30 4.3598063290119171e-02</internalNodes>
          <leafValues>
            -2.4170055985450745e-01 4.2457473278045654e-01</leafValues></_>
        <_>
          <internalNodes>
            0 -1 24 4.9555242061614990e-02</internalNodes>
          <leafValues>
            -1.5731067955493927e-01 6.7761075496673584e-01</leafValues></_></weakClassifiers></_></stages>
  <features>
    <_>
      <rect>
        0 4 8 8 4</rect></_>
    <_>
      <rect>
        0 4 8 8 22</rect></_>
    <_>
      <rect>
        0 8 8 8 4</rect></_>
    <_>
      <rect>
        0 16 8 8 33</rect></_>
    <_>
      <rect>
        4 0 8 8 3</rect></_>
    <_>
      <rect>
        4 4 8 8 8</rect></_>
    <_>
      <rect>
        4 16 8 8 24</rect></_>
    <_>
      <rect>
        8 0 8 8 3</rect></_>
    <_>
      <rect>
        8 0 8 8 17</rect></_>
    <_>
      <rect>
        12 4 8 8 15</rect></_>
    <_>
      <rect>
        12 12 8 8 28</rect></_>
    <_>
      <rect>
        12 16 8 8 0</rect></_>
    <_>
      <rect>
        16 0 8 8 23</rect></_>
    <_>
      <rect>
        16 0 8 8 34</rect></_>
    <_>
      <rect>
        16 4 8 8 13</rect></_>
    <_>
      <rect>
        16 8 8 8 31</rect></_>
    <_>
      <rect>
        16 12 8 8 13</rect></_>
    <_>
      <rect>
        16 12 8 8 31</rect></_>
    <_>
      <rect>
        0 0 8 16 22</rect></_>
    <_>
      <rect>
        0 0 8 16 24</rect></_>
    <_>
      <rect>
        4 0 8 16 1</rect></_>
    <_>
      <rect>
        12 0 8 16 3</rect></_>
    <_>
      <rect>
        12 0 8 16 28</rect></_>
    <_>
      <rect>
        16 0 8 16 5</rect></_>
    <_>
      <rect>
        16 0 8 16 15</rect></_>
    <_>
      <rect>
        16 0 8 16 20</rect></_>
    <_>
      <rect>
        16 0 8 16 28</rect></_>
    <_>
      <rect>
        0 0 16 8 2</rect></_>
    <_>
      <rect>
        0 0 16 8 14</rect></_>
    <_>
      <rect>
        0 4 16 8 26</rect></_>
    <_>
      <rect>
        0 4 16 8 35</rect></_>
    <_>
      <rect>
        0 12 16 8 8</rect></_>
    <_>
      <rect>
        0 16 16 8 6</rect></_>
    <_>
      <rect>
        0 16 16 8 8</rect></_>
    <_>
      <rect>
        0 16 16 8 30</rect></_>
    <_>
      <rect>
        0 0 16 16 5</rect></_>
    <_>
      <rect>
        0 0 16 16 23</rect></_>
    <_>
      <rect>
        0 0 16 16 24</rect></_>
    <_>
      <rect>
        0 0 16 16 28</rect></_></features></cascade>
</opencv_storage>
