<?xml version="1.0"?>
<opencv_storage>
<!-- Created using Computer Vision System Toolbox(tm) for MATLAB(R) -->
<!-- Version 9.1.0.441655 (R2016b) -->
<!-- Compatible with OpenCV 2.4 -->
<cascade>
  <stageType>BOOST</stageType>
  <featureType>HOG</featureType>
  <height>33</height>
  <width>32</width>
  <stageParams>
    <boostType>GAB</boostType>
    <minHitRate>8.9999997615814209e-01</minHitRate>
    <maxFalseAlarm>2.0000000298023224e-01</maxFalseAlarm>
    <weightTrimRate>9.4999999999999996e-01</weightTrimRate>
    <maxDepth>1</maxDepth>
    <maxWeakCount>100</maxWeakCount></stageParams>
  <featureParams>
    <maxCatCount>0</maxCatCount>
    <featSize>36</featSize></featureParams>
  <stageNum>11</stageNum>
  <stages>
    <!-- stage 0 -->
    <_>
      <maxWeakCount>3</maxWeakCount>
      <stageThreshold>2.8746235370635986e-01</stageThreshold>
      <weakClassifiers>
        <_>
          <internalNodes>
            0 -1 50 1.4293706044554710e-02</internalNodes>
          <leafValues>
            -8.9834737777709961e-01 6.4495187997817993e-01</leafValues></_>
        <_>
          <internalNodes>
            0 -1 2 3.1271561980247498e-02</internalNodes>
          <leafValues>
            4.6015560626983643e-01 -8.3453530073165894e-01</leafValues></_>
        <_>
          <internalNodes>
            0 -1 49 1.3868168927729130e-02</internalNodes>
          <leafValues>
            -7.9974967241287231e-01 4.7704580426216125e-01</leafValues></_></weakClassifiers></_>
    <!-- stage 1 -->
    <_>
      <maxWeakCount>3</maxWeakCount>
      <stageThreshold>3.9539864659309387e-01</stageThreshold>
      <weakClassifiers>
        <_>
          <internalNodes>
            0 -1 48 3.1749837100505829e-02</internalNodes>
          <leafValues>
            -4.8567995429039001e-01 9.0451323986053467e-01</leafValues></_>
        <_>
          <internalNodes>
            0 -1 38 1.1464694514870644e-02</internalNodes>
          <leafValues>
            -8.2349246740341187e-01 4.6670818328857422e-01</leafValues></_>
        <_>
          <internalNodes>
            0 -1 39 1.4847023412585258e-02</internalNodes>
          <leafValues>
            -6.7748969793319702e-01 4.1437041759490967e-01</leafValues></_></weakClassifiers></_>
    <!-- stage 2 -->
    <_>
      <maxWeakCount>5</maxWeakCount>
      <stageThreshold>-2.7827693149447441e-02</stageThreshold>
      <weakClassifiers>
        <_>
          <internalNodes>
            0 -1 23 3.9209827780723572e-02</internalNodes>
          <leafValues>
            4.4959557056427002e-01 -8.7485605478286743e-01</leafValues></_>
        <_>
          <internalNodes>
            0 -1 13 4.3379496783018112e-02</internalNodes>
          <leafValues>
            -4.9337950348854065e-01 7.2084599733352661e-01</leafValues></_>
        <_>
          <internalNodes>
            0 -1 30 5.1608614623546600e-02</internalNodes>
          <leafValues>
            3.2232749462127686e-01 -8.4750330448150635e-01</leafValues></_>
        <_>
          <internalNodes>
            0 -1 43 1.5837684273719788e-02</internalNodes>
          <leafValues>
            -6.2492001056671143e-01 4.4647800922393799e-01</leafValues></_>
        <_>
          <internalNodes>
            0 -1 21 8.4860846400260925e-03</internalNodes>
          <leafValues>
            -6.8107199668884277e-01 3.1854876875877380e-01</leafValues></_></weakClassifiers></_>
    <!-- stage 3 -->
    <_>
      <maxWeakCount>3</maxWeakCount>
      <stageThreshold>2.5575825572013855e-01</stageThreshold>
      <weakClassifiers>
        <_>
          <internalNodes>
            0 -1 17 3.0307564884424210e-02</internalNodes>
          <leafValues>
            -6.3250517845153809e-01 6.4146983623504639e-01</leafValues></_>
        <_>
          <internalNodes>
            0 -1 12 7.2219418361783028e-03</internalNodes>
          <leafValues>
            -6.8629729747772217e-01 4.8398035764694214e-01</leafValues></_>
        <_>
          <internalNodes>
            0 -1 28 4.1489951312541962e-02</internalNodes>
          <leafValues>
            4.0428307652473450e-01 -7.9036015272140503e-01</leafValues></_></weakClassifiers></_>
    <!-- stage 4 -->
    <_>
      <maxWeakCount>5</maxWeakCount>
      <stageThreshold>2.4128913879394531e-01</stageThreshold>
      <weakClassifiers>
        <_>
          <internalNodes>
            0 -1 34 2.7844071388244629e-02</internalNodes>
          <leafValues>
            -5.5586856603622437e-01 6.9361454248428345e-01</leafValues></_>
        <_>
          <internalNodes>
            0 -1 0 2.5029256939888000e-02</internalNodes>
          <leafValues>
            -4.6554660797119141e-01 4.9357104301452637e-01</leafValues></_>
        <_>
          <internalNodes>
            0 -1 15 1.2407662346959114e-02</internalNodes>
          <leafValues>
            -5.8450686931610107e-01 4.0946146845817566e-01</leafValues></_>
        <_>
          <internalNodes>
            0 -1 2 1.0378565639257431e-02</internalNodes>
          <leafValues>
            6.9769513607025146e-01 -4.0433937311172485e-01</leafValues></_>
        <_>
          <internalNodes>
            0 -1 47 1.3945294544100761e-02</internalNodes>
          <leafValues>
            -7.6599651575088501e-01 2.9846453666687012e-01</leafValues></_></weakClassifiers></_>
    <!-- stage 5 -->
    <_>
      <maxWeakCount>6</maxWeakCount>
      <stageThreshold>1.4607270061969757e-01</stageThreshold>
      <weakClassifiers>
        <_>
          <internalNodes>
            0 -1 49 3.5275869071483612e-02</internalNodes>
          <leafValues>
            -4.4298338890075684e-01 6.7710047960281372e-01</leafValues></_>
        <_>
          <internalNodes>
            0 -1 45 3.6144301295280457e-02</internalNodes>
          <leafValues>
            -2.4605616927146912e-01 6.3343685865402222e-01</leafValues></_>
        <_>
          <internalNodes>
            0 -1 22 4.6924371272325516e-02</internalNodes>
          <leafValues>
            2.7345427870750427e-01 -6.3746458292007446e-01</leafValues></_>
        <_>
          <internalNodes>
            0 -1 14 3.4124009311199188e-02</internalNodes>
          <leafValues>
            2.0735336840152740e-01 -6.3136237859725952e-01</leafValues></_>
        <_>
          <internalNodes>
            0 -1 26 2.9664866626262665e-02</internalNodes>
          <leafValues>
            1.9908231496810913e-01 -6.3415211439132690e-01</leafValues></_>
        <_>
          <internalNodes>
            0 -1 27 3.2220915891230106e-03</internalNodes>
          <leafValues>
            -7.6375949382781982e-01 1.5522231161594391e-01</leafValues></_></weakClassifiers></_>
    <!-- stage 6 -->
    <_>
      <maxWeakCount>7</maxWeakCount>
      <stageThreshold>-2.7300876379013062e-01</stageThreshold>
      <weakClassifiers>
        <_>
          <internalNodes>
            0 -1 1 4.8160400241613388e-02</internalNodes>
          <leafValues>
            -4.2759862542152405e-01 7.9634463787078857e-01</leafValues></_>
        <_>
          <internalNodes>
            0 -1 40 4.4092807918787003e-02</internalNodes>
          <leafValues>
            -2.9849168658256531e-01 5.5840545892715454e-01</leafValues></_>
        <_>
          <internalNodes>
            0 -1 18 6.0754023492336273e-02</internalNodes>
          <leafValues>
            -2.2062125802040100e-01 6.6286200284957886e-01</leafValues></_>
        <_>
          <internalNodes>
            0 -1 42 4.9093212932348251e-02</internalNodes>
          <leafValues>
            -2.5305843353271484e-01 5.7007247209548950e-01</leafValues></_>
        <_>
          <internalNodes>
            0 -1 9 5.2778966724872589e-02</internalNodes>
          <leafValues>
            -2.6965638995170593e-01 5.3100663423538208e-01</leafValues></_>
        <_>
          <internalNodes>
            0 -1 46 2.9112504795193672e-02</internalNodes>
          <leafValues>
            1.8304876983165741e-01 -6.3449865579605103e-01</leafValues></_>
        <_>
          <internalNodes>
            0 -1 36 4.5164853334426880e-02</internalNodes>
          <leafValues>
            -2.1057441830635071e-01 4.8640286922454834e-01</leafValues></_></weakClassifiers></_>
    <!-- stage 7 -->
    <_>
      <maxWeakCount>8</maxWeakCount>
      <stageThreshold>-1.3899646699428558e-01</stageThreshold>
      <weakClassifiers>
        <_>
          <internalNodes>
            0 -1 6 3.8757495582103729e-02</internalNodes>
          <leafValues>
            -5.3145337104797363e-01 6.2553191184997559e-01</leafValues></_>
        <_>
          <internalNodes>
            0 -1 10 2.0135235041379929e-02</internalNodes>
          <leafValues>
            4.3472346663475037e-01 -5.3052419424057007e-01</leafValues></_>
        <_>
          <internalNodes>
            0 -1 50 4.5691482722759247e-02</internalNodes>
          <leafValues>
            -3.2552757859230042e-01 6.0839223861694336e-01</leafValues></_>
        <_>
          <internalNodes>
            0 -1 33 1.1904266662895679e-02</internalNodes>
          <leafValues>
            -7.0377975702285767e-01 2.4313281476497650e-01</leafValues></_>
        <_>
          <internalNodes>
            0 -1 48 5.5745601654052734e-02</internalNodes>
          <leafValues>
            -1.6094106435775757e-01 7.3221313953399658e-01</leafValues></_>
        <_>
          <internalNodes>
            0 -1 11 5.7822085916996002e-02</internalNodes>
          <leafValues>
            -1.5143950283527374e-01 7.0138943195343018e-01</leafValues></_>
        <_>
          <internalNodes>
            0 -1 17 1.5698149800300598e-02</internalNodes>
          <leafValues>
            -6.6752237081527710e-01 1.5424598753452301e-01</leafValues></_>
        <_>
          <internalNodes>
            0 -1 5 1.2406364083290100e-02</internalNodes>
          <leafValues>
            -4.5991078019142151e-01 1.9826276600360870e-01</leafValues></_></weakClassifiers></_>
    <!-- stage 8 -->
    <_>
      <maxWeakCount>3</maxWeakCount>
      <stageThreshold>4.5002561807632446e-01</stageThreshold>
      <weakClassifiers>
        <_>
          <internalNodes>
            0 -1 41 2.8349794447422028e-02</internalNodes>
          <leafValues>
            6.2377166748046875e-01 -7.8411763906478882e-01</leafValues></_>
        <_>
          <internalNodes>
            0 -1 35 2.9395237565040588e-02</internalNodes>
          <leafValues>
            4.2674931883811951e-01 -8.8640433549880981e-01</leafValues></_>
        <_>
          <internalNodes>
            0 -1 25 6.2309831380844116e-02</internalNodes>
          <leafValues>
            -4.4900140166282654e-01 8.0739390850067139e-01</leafValues></_></weakClassifiers></_>
    <!-- stage 9 -->
    <_>
      <maxWeakCount>8</maxWeakCount>
      <stageThreshold>-3.2559046149253845e-01</stageThreshold>
      <weakClassifiers>
        <_>
          <internalNodes>
            0 -1 37 4.4807143509387970e-02</internalNodes>
          <leafValues>
            -5.1395648717880249e-01 6.3053721189498901e-01</leafValues></_>
        <_>
          <internalNodes>
            0 -1 44 4.2852751910686493e-02</internalNodes>
          <leafValues>
            -3.5850271582603455e-01 5.5875164270401001e-01</leafValues></_>
        <_>
          <internalNodes>
            0 -1 8 5.1468759775161743e-02</internalNodes>
          <leafValues>
            -3.2502996921539307e-01 5.1080369949340820e-01</leafValues></_>
        <_>
          <internalNodes>
            0 -1 19 1.6767255961894989e-02</internalNodes>
          <leafValues>
            2.5537955760955811e-01 -5.0602114200592041e-01</leafValues></_>
        <_>
          <internalNodes>
            0 -1 20 2.4693114683032036e-02</internalNodes>
          <leafValues>
            -4.0237775444984436e-01 2.8150922060012817e-01</leafValues></_>
        <_>
          <internalNodes>
            0 -1 4 4.4866681098937988e-02</internalNodes>
          <leafValues>
            -2.0837093889713287e-01 5.5299353599548340e-01</leafValues></_>
        <_>
          <internalNodes>
            0 -1 32 1.8288474529981613e-02</internalNodes>
          <leafValues>
            1.4525063335895538e-01 -5.4149264097213745e-01</leafValues></_>
        <_>
          <internalNodes>
            0 -1 29 1.7071321606636047e-02</internalNodes>
          <leafValues>
            2.4618352949619293e-01 -3.7002784013748169e-01</leafValues></_></weakClassifiers></_>
    <!-- stage 10 -->
    <_>
      <maxWeakCount>6</maxWeakCount>
      <stageThreshold>4.4979056715965271e-01</stageThreshold>
      <weakClassifiers>
        <_>
          <internalNodes>
            0 -1 31 2.9276220127940178e-02</internalNodes>
          <leafValues>
            -4.3454346060752869e-01 7.5612670183181763e-01</leafValues></_>
        <_>
          <internalNodes>
            0 -1 50 3.6654260009527206e-02</internalNodes>
          <leafValues>
            -4.3004530668258667e-01 5.4357463121414185e-01</leafValues></_>
        <_>
          <internalNodes>
            0 -1 3 6.8311922252178192e-02</internalNodes>
          <leafValues>
            -2.1724468469619751e-01 6.9679981470108032e-01</leafValues></_>
        <_>
          <internalNodes>
            0 -1 7 2.6239082217216492e-02</internalNodes>
          <leafValues>
            3.6942252516746521e-01 -3.5152646899223328e-01</leafValues></_>
        <_>
          <internalNodes>
            0 -1 24 1.8819581717252731e-02</internalNodes>
          <leafValues>
            2.1101287007331848e-01 -4.9355453252792358e-01</leafValues></_>
        <_>
          <internalNodes>
            0 -1 16 1.2225409038364887e-02</internalNodes>
          <leafValues>
            -4.3257707357406616e-01 3.1341654062271118e-01</leafValues></_></weakClassifiers></_></stages>
  <features>
    <_>
      <rect>
        0 0 8 8 12</rect></_>
    <_>
      <rect>
        0 0 8 8 19</rect></_>
    <_>
      <rect>
        0 4 8 8 22</rect></_>
    <_>
      <rect>
        0 12 8 8 17</rect></_>
    <_>
      <rect>
        0 16 8 8 6</rect></_>
    <_>
      <rect>
        4 0 8 8 32</rect></_>
    <_>
      <rect>
        4 4 8 8 1</rect></_>
    <_>
      <rect>
        4 12 8 8 26</rect></_>
    <_>
      <rect>
        4 16 8 8 17</rect></_>
    <_>
      <rect>
        8 0 8 8 3</rect></_>
    <_>
      <rect>
        8 0 8 8 8</rect></_>
    <_>
      <rect>
        8 4 8 8 30</rect></_>
    <_>
      <rect>
        12 0 8 8 21</rect></_>
    <_>
      <rect>
        12 4 8 8 15</rect></_>
    <_>
      <rect>
        12 4 8 8 17</rect></_>
    <_>
      <rect>
        12 4 8 8 18</rect></_>
    <_>
      <rect>
        12 12 8 8 3</rect></_>
    <_>
      <rect>
        12 12 8 8 28</rect></_>
    <_>
      <rect>
        12 16 8 8 28</rect></_>
    <_>
      <rect>
        12 16 8 8 33</rect></_>
    <_>
      <rect>
        16 0 8 8 3</rect></_>
    <_>
      <rect>
        16 0 8 8 34</rect></_>
    <_>
      <rect>
        16 4 8 8 13</rect></_>
    <_>
      <rect>
        16 4 8 8 31</rect></_>
    <_>
      <rect>
        16 8 8 8 31</rect></_>
    <_>
      <rect>
        16 12 8 8 28</rect></_>
    <_>
      <rect>
        16 12 8 8 31</rect></_>
    <_>
      <rect>
        16 16 8 8 30</rect></_>
    <_>
      <rect>
        0 0 8 16 4</rect></_>
    <_>
      <rect>
        0 0 8 16 20</rect></_>
    <_>
      <rect>
        0 0 8 16 22</rect></_>
    <_>
      <rect>
        4 0 8 16 1</rect></_>
    <_>
      <rect>
        4 0 8 16 6</rect></_>
    <_>
      <rect>
        4 0 8 16 23</rect></_>
    <_>
      <rect>
        4 0 8 16 24</rect></_>
    <_>
      <rect>
        12 0 8 16 10</rect></_>
    <_>
      <rect>
        12 0 8 16 15</rect></_>
    <_>
      <rect>
        16 0 8 16 15</rect></_>
    <_>
      <rect>
        0 0 16 8 2</rect></_>
    <_>
      <rect>
        0 4 16 8 25</rect></_>
    <_>
      <rect>
        0 4 16 8 35</rect></_>
    <_>
      <rect>
        0 12 16 8 4</rect></_>
    <_>
      <rect>
        0 16 16 8 8</rect></_>
    <_>
      <rect>
        0 16 16 8 23</rect></_>
    <_>
      <rect>
        0 16 16 8 24</rect></_>
    <_>
      <rect>
        0 0 16 16 1</rect></_>
    <_>
      <rect>
        0 0 16 16 5</rect></_>
    <_>
      <rect>
        0 0 16 16 14</rect></_>
    <_>
      <rect>
        0 0 16 16 15</rect></_>
    <_>
      <rect>
        0 0 16 16 24</rect></_>
    <_>
      <rect>
        0 0 16 16 28</rect></_></features></cascade>
</opencv_storage>
