<?xml version="1.0"?>
<opencv_storage>
<!-- Created using Computer Vision System Toolbox(tm) for MATLAB(R) -->
<!-- Version 9.1.0.441655 (R2016b) -->
<!-- Compatible with OpenCV 2.4 -->
<cascade>
  <stageType>BOOST</stageType>
  <featureType>HOG</featureType>
  <height>33</height>
  <width>32</width>
  <stageParams>
    <boostType>GAB</boostType>
    <minHitRate>8.9999997615814209e-01</minHitRate>
    <maxFalseAlarm>2.0000000298023224e-01</maxFalseAlarm>
    <weightTrimRate>9.4999999999999996e-01</weightTrimRate>
    <maxDepth>1</maxDepth>
    <maxWeakCount>100</maxWeakCount></stageParams>
  <featureParams>
    <maxCatCount>0</maxCatCount>
    <featSize>36</featSize></featureParams>
  <stageNum>8</stageNum>
  <stages>
    <!-- stage 0 -->
    <_>
      <maxWeakCount>1</maxWeakCount>
      <stageThreshold>6.5622609853744507e-01</stageThreshold>
      <weakClassifiers>
        <_>
          <internalNodes>
            0 -1 30 1.4293706044554710e-02</internalNodes>
          <leafValues>
            -9.0611815452575684e-01 6.5622609853744507e-01</leafValues></_></weakClassifiers></_>
    <!-- stage 1 -->
    <_>
      <maxWeakCount>3</maxWeakCount>
      <stageThreshold>1.4209964871406555e-01</stageThreshold>
      <weakClassifiers>
        <_>
          <internalNodes>
            0 -1 29 1.8846951425075531e-02</internalNodes>
          <leafValues>
            -7.3811787366867065e-01 6.4439833164215088e-01</leafValues></_>
        <_>
          <internalNodes>
            0 -1 2 3.5493478178977966e-02</internalNodes>
          <leafValues>
            4.9130487442016602e-01 -8.7240797281265259e-01</leafValues></_>
        <_>
          <internalNodes>
            0 -1 21 9.6554737538099289e-03</internalNodes>
          <leafValues>
            -8.2988500595092773e-01 3.8891264796257019e-01</leafValues></_></weakClassifiers></_>
    <!-- stage 2 -->
    <_>
      <maxWeakCount>3</maxWeakCount>
      <stageThreshold>4.1066792607307434e-01</stageThreshold>
      <weakClassifiers>
        <_>
          <internalNodes>
            0 -1 22 3.8049273192882538e-02</internalNodes>
          <leafValues>
            4.2231875658035278e-01 -8.3103221654891968e-01</leafValues></_>
        <_>
          <internalNodes>
            0 -1 9 4.0703400969505310e-02</internalNodes>
          <leafValues>
            -4.9113512039184570e-01 6.7227357625961304e-01</leafValues></_>
        <_>
          <internalNodes>
            0 -1 24 1.6707781702280045e-02</internalNodes>
          <leafValues>
            -5.8958005905151367e-01 5.6942653656005859e-01</leafValues></_></weakClassifiers></_>
    <!-- stage 3 -->
    <_>
      <maxWeakCount>4</maxWeakCount>
      <stageThreshold>-1.3603214919567108e-01</stageThreshold>
      <weakClassifiers>
        <_>
          <internalNodes>
            0 -1 2 1.9278701394796371e-02</internalNodes>
          <leafValues>
            5.5252671241760254e-01 -6.1868983507156372e-01</leafValues></_>
        <_>
          <internalNodes>
            0 -1 27 1.7276626080274582e-02</internalNodes>
          <leafValues>
            -6.4672189950942993e-01 4.5257419347763062e-01</leafValues></_>
        <_>
          <internalNodes>
            0 -1 20 3.3092729747295380e-02</internalNodes>
          <leafValues>
            -4.7882160544395447e-01 5.2195364236831665e-01</leafValues></_>
        <_>
          <internalNodes>
            0 -1 18 1.7947468906641006e-02</internalNodes>
          <leafValues>
            -5.6379061937332153e-01 4.5368427038192749e-01</leafValues></_></weakClassifiers></_>
    <!-- stage 4 -->
    <_>
      <maxWeakCount>4</maxWeakCount>
      <stageThreshold>5.7427090406417847e-01</stageThreshold>
      <weakClassifiers>
        <_>
          <internalNodes>
            0 -1 16 2.7157722041010857e-02</internalNodes>
          <leafValues>
            -5.0625842809677124e-01 6.8552803993225098e-01</leafValues></_>
        <_>
          <internalNodes>
            0 -1 17 1.0584143921732903e-02</internalNodes>
          <leafValues>
            -7.5048005580902100e-01 3.9355096220970154e-01</leafValues></_>
        <_>
          <internalNodes>
            0 -1 8 4.0361292660236359e-02</internalNodes>
          <leafValues>
            3.2447516918182373e-01 -6.9649201631546021e-01</leafValues></_>
        <_>
          <internalNodes>
            0 -1 15 3.8821488618850708e-02</internalNodes>
          <leafValues>
            3.6250323057174683e-01 -7.9477113485336304e-01</leafValues></_></weakClassifiers></_>
    <!-- stage 5 -->
    <_>
      <maxWeakCount>6</maxWeakCount>
      <stageThreshold>-8.2152903079986572e-02</stageThreshold>
      <weakClassifiers>
        <_>
          <internalNodes>
            0 -1 21 3.0893314629793167e-02</internalNodes>
          <leafValues>
            -4.9970617890357971e-01 6.5026766061782837e-01</leafValues></_>
        <_>
          <internalNodes>
            0 -1 13 3.0510000884532928e-02</internalNodes>
          <leafValues>
            3.0984714627265930e-01 -6.7464488744735718e-01</leafValues></_>
        <_>
          <internalNodes>
            0 -1 11 2.8100214898586273e-02</internalNodes>
          <leafValues>
            -4.7681182622909546e-01 2.9497161507606506e-01</leafValues></_>
        <_>
          <internalNodes>
            0 -1 12 5.8655250817537308e-02</internalNodes>
          <leafValues>
            2.2084866464138031e-01 -6.3943332433700562e-01</leafValues></_>
        <_>
          <internalNodes>
            0 -1 10 3.4309118986129761e-02</internalNodes>
          <leafValues>
            2.2956725955009460e-01 -6.3619118928909302e-01</leafValues></_>
        <_>
          <internalNodes>
            0 -1 4 1.4199273660778999e-02</internalNodes>
          <leafValues>
            -6.3768136501312256e-01 2.1775989234447479e-01</leafValues></_></weakClassifiers></_>
    <!-- stage 6 -->
    <_>
      <maxWeakCount>6</maxWeakCount>
      <stageThreshold>-1.6872370243072510e-01</stageThreshold>
      <weakClassifiers>
        <_>
          <internalNodes>
            0 -1 3 5.0103694200515747e-02</internalNodes>
          <leafValues>
            -4.3983185291290283e-01 7.5655317306518555e-01</leafValues></_>
        <_>
          <internalNodes>
            0 -1 25 3.7019405514001846e-02</internalNodes>
          <leafValues>
            -3.4398460388183594e-01 4.8341125249862671e-01</leafValues></_>
        <_>
          <internalNodes>
            0 -1 6 1.3855846598744392e-02</internalNodes>
          <leafValues>
            3.7612432241439819e-01 -3.6758643388748169e-01</leafValues></_>
        <_>
          <internalNodes>
            0 -1 26 2.8585657477378845e-02</internalNodes>
          <leafValues>
            -4.6207669377326965e-01 2.2945167124271393e-01</leafValues></_>
        <_>
          <internalNodes>
            0 -1 7 5.2715610712766647e-02</internalNodes>
          <leafValues>
            -2.1828371286392212e-01 5.5079603195190430e-01</leafValues></_>
        <_>
          <internalNodes>
            0 -1 0 3.0408903956413269e-02</internalNodes>
          <leafValues>
            -3.6074128746986389e-01 3.8986745476722717e-01</leafValues></_></weakClassifiers></_>
    <!-- stage 7 -->
    <_>
      <maxWeakCount>6</maxWeakCount>
      <stageThreshold>5.1760558038949966e-02</stageThreshold>
      <weakClassifiers>
        <_>
          <internalNodes>
            0 -1 1 4.5742563903331757e-02</internalNodes>
          <leafValues>
            -4.6886155009269714e-01 7.3416149616241455e-01</leafValues></_>
        <_>
          <internalNodes>
            0 -1 5 2.4360444396734238e-02</internalNodes>
          <leafValues>
            3.1107017397880554e-01 -5.7009536027908325e-01</leafValues></_>
        <_>
          <internalNodes>
            0 -1 14 4.9289673566818237e-02</internalNodes>
          <leafValues>
            -3.1066668033599854e-01 5.3439199924468994e-01</leafValues></_>
        <_>
          <internalNodes>
            0 -1 19 3.2300740480422974e-02</internalNodes>
          <leafValues>
            1.8471780419349670e-01 -6.9748395681381226e-01</leafValues></_>
        <_>
          <internalNodes>
            0 -1 28 2.3481678217649460e-02</internalNodes>
          <leafValues>
            1.9252620637416840e-01 -6.0673379898071289e-01</leafValues></_>
        <_>
          <internalNodes>
            0 -1 23 1.6035541892051697e-02</internalNodes>
          <leafValues>
            -5.5854606628417969e-01 1.7908143997192383e-01</leafValues></_></weakClassifiers></_></stages>
  <features>
    <_>
      <rect>
        0 0 8 8 12</rect></_>
    <_>
      <rect>
        0 0 8 8 19</rect></_>
    <_>
      <rect>
        0 4 8 8 22</rect></_>
    <_>
      <rect>
        4 4 8 8 1</rect></_>
    <_>
      <rect>
        4 4 8 8 2</rect></_>
    <_>
      <rect>
        8 0 8 8 8</rect></_>
    <_>
      <rect>
        8 0 8 8 17</rect></_>
    <_>
      <rect>
        8 16 8 8 24</rect></_>
    <_>
      <rect>
        8 16 8 8 35</rect></_>
    <_>
      <rect>
        12 4 8 8 15</rect></_>
    <_>
      <rect>
        12 4 8 8 17</rect></_>
    <_>
      <rect>
        12 12 8 8 28</rect></_>
    <_>
      <rect>
        16 4 8 8 13</rect></_>
    <_>
      <rect>
        16 12 8 8 13</rect></_>
    <_>
      <rect>
        16 12 8 8 28</rect></_>
    <_>
      <rect>
        0 0 8 16 22</rect></_>
    <_>
      <rect>
        0 0 8 16 24</rect></_>
    <_>
      <rect>
        0 0 8 16 32</rect></_>
    <_>
      <rect>
        4 0 8 16 12</rect></_>
    <_>
      <rect>
        4 0 8 16 18</rect></_>
    <_>
      <rect>
        12 0 8 16 28</rect></_>
    <_>
      <rect>
        16 0 8 16 15</rect></_>
    <_>
      <rect>
        16 0 8 16 31</rect></_>
    <_>
      <rect>
        0 0 16 8 14</rect></_>
    <_>
      <rect>
        0 4 16 8 25</rect></_>
    <_>
      <rect>
        0 4 16 8 35</rect></_>
    <_>
      <rect>
        0 16 16 8 8</rect></_>
    <_>
      <rect>
        0 0 16 16 2</rect></_>
    <_>
      <rect>
        0 0 16 16 5</rect></_>
    <_>
      <rect>
        0 0 16 16 24</rect></_>
    <_>
      <rect>
        0 0 16 16 28</rect></_></features></cascade>
</opencv_storage>
