<?xml version="1.0"?>
<opencv_storage>
<!-- Created using Computer Vision System Toolbox(tm) for MATLAB(R) -->
<!-- Version 9.1.0.441655 (R2016b) -->
<!-- Compatible with OpenCV 2.4 -->
<cascade>
  <stageType>BOOST</stageType>
  <featureType>HOG</featureType>
  <height>33</height>
  <width>32</width>
  <stageParams>
    <boostType>GAB</boostType>
    <minHitRate>8.0000001192092896e-01</minHitRate>
    <maxFalseAlarm>4.0000000596046448e-01</maxFalseAlarm>
    <weightTrimRate>9.4999999999999996e-01</weightTrimRate>
    <maxDepth>1</maxDepth>
    <maxWeakCount>100</maxWeakCount></stageParams>
  <featureParams>
    <maxCatCount>0</maxCatCount>
    <featSize>36</featSize></featureParams>
  <stageNum>10</stageNum>
  <stages>
    <!-- stage 0 -->
    <_>
      <maxWeakCount>1</maxWeakCount>
      <stageThreshold>6.4321774244308472e-01</stageThreshold>
      <weakClassifiers>
        <_>
          <internalNodes>
            0 -1 12 1.4293706044554710e-02</internalNodes>
          <leafValues>
            -8.9090907573699951e-01 6.4321774244308472e-01</leafValues></_></weakClassifiers></_>
    <!-- stage 1 -->
    <_>
      <maxWeakCount>1</maxWeakCount>
      <stageThreshold>6.4512598514556885e-01</stageThreshold>
      <weakClassifiers>
        <_>
          <internalNodes>
            0 -1 11 1.8854748457670212e-02</internalNodes>
          <leafValues>
            -7.4337399005889893e-01 6.4512598514556885e-01</leafValues></_></weakClassifiers></_>
    <!-- stage 2 -->
    <_>
      <maxWeakCount>1</maxWeakCount>
      <stageThreshold>5.9559297561645508e-01</stageThreshold>
      <weakClassifiers>
        <_>
          <internalNodes>
            0 -1 1 4.3454501777887344e-02</internalNodes>
          <leafValues>
            5.9559297561645508e-01 -9.0541869401931763e-01</leafValues></_></weakClassifiers></_>
    <!-- stage 3 -->
    <_>
      <maxWeakCount>2</maxWeakCount>
      <stageThreshold>-7.7343457378447056e-03</stageThreshold>
      <weakClassifiers>
        <_>
          <internalNodes>
            0 -1 7 3.6699369549751282e-02</internalNodes>
          <leafValues>
            -5.4595291614532471e-01 8.4019851684570313e-01</leafValues></_>
        <_>
          <internalNodes>
            0 -1 9 3.7811800837516785e-02</internalNodes>
          <leafValues>
            5.3821855783462524e-01 -8.0340659618377686e-01</leafValues></_></weakClassifiers></_>
    <!-- stage 4 -->
    <_>
      <maxWeakCount>1</maxWeakCount>
      <stageThreshold>4.4240197539329529e-01</stageThreshold>
      <weakClassifiers>
        <_>
          <internalNodes>
            0 -1 6 1.0643694549798965e-02</internalNodes>
          <leafValues>
            -7.7969759702682495e-01 4.4240197539329529e-01</leafValues></_></weakClassifiers></_>
    <!-- stage 5 -->
    <_>
      <maxWeakCount>2</maxWeakCount>
      <stageThreshold>6.8879267200827599e-03</stageThreshold>
      <weakClassifiers>
        <_>
          <internalNodes>
            0 -1 0 2.3079602047801018e-02</internalNodes>
          <leafValues>
            7.3501574993133545e-01 -5.6299620866775513e-01</leafValues></_>
        <_>
          <internalNodes>
            0 -1 8 2.5160480290651321e-02</internalNodes>
          <leafValues>
            -6.2730401754379272e-01 5.6988412141799927e-01</leafValues></_></weakClassifiers></_>
    <!-- stage 6 -->
    <_>
      <maxWeakCount>3</maxWeakCount>
      <stageThreshold>5.1407802104949951e-01</stageThreshold>
      <weakClassifiers>
        <_>
          <internalNodes>
            0 -1 11 3.8916800171136856e-02</internalNodes>
          <leafValues>
            -4.8434621095657349e-01 8.4930032491683960e-01</leafValues></_>
        <_>
          <internalNodes>
            0 -1 3 3.9561226963996887e-02</internalNodes>
          <leafValues>
            4.9382135272026062e-01 -7.1658802032470703e-01</leafValues></_>
        <_>
          <internalNodes>
            0 -1 1 1.6845718026161194e-02</internalNodes>
          <leafValues>
            5.0460284948348999e-01 -5.4605507850646973e-01</leafValues></_></weakClassifiers></_>
    <!-- stage 7 -->
    <_>
      <maxWeakCount>3</maxWeakCount>
      <stageThreshold>-3.4038737416267395e-01</stageThreshold>
      <weakClassifiers>
        <_>
          <internalNodes>
            0 -1 2 4.1205868124961853e-02</internalNodes>
          <leafValues>
            -5.5866903066635132e-01 7.0544004440307617e-01</leafValues></_>
        <_>
          <internalNodes>
            0 -1 5 4.7410503029823303e-02</internalNodes>
          <leafValues>
            3.7076663970947266e-01 -7.1152859926223755e-01</leafValues></_>
        <_>
          <internalNodes>
            0 -1 12 4.4873453676700592e-02</internalNodes>
          <leafValues>
            -3.3429884910583496e-01 8.0216735601425171e-01</leafValues></_></weakClassifiers></_>
    <!-- stage 8 -->
    <_>
      <maxWeakCount>1</maxWeakCount>
      <stageThreshold>8.7967914342880249e-01</stageThreshold>
      <weakClassifiers>
        <_>
          <internalNodes>
            0 -1 10 3.7518993020057678e-02</internalNodes>
          <leafValues>
            -6.8732589483261108e-01 8.7967914342880249e-01</leafValues></_></weakClassifiers></_>
    <!-- stage 9 -->
    <_>
      <maxWeakCount>1</maxWeakCount>
      <stageThreshold>8.9147287607192993e-01</stageThreshold>
      <weakClassifiers>
        <_>
          <internalNodes>
            0 -1 4 2.7710344642400742e-02</internalNodes>
          <leafValues>
            -9.0694004297256470e-01 8.9147287607192993e-01</leafValues></_></weakClassifiers></_></stages>
  <features>
    <_>
      <rect>
        0 4 8 8 4</rect></_>
    <_>
      <rect>
        0 4 8 8 22</rect></_>
    <_>
      <rect>
        12 4 8 8 15</rect></_>
    <_>
      <rect>
        12 16 8 8 35</rect></_>
    <_>
      <rect>
        16 0 8 8 33</rect></_>
    <_>
      <rect>
        16 4 8 8 13</rect></_>
    <_>
      <rect>
        4 0 8 16 12</rect></_>
    <_>
      <rect>
        12 0 8 16 15</rect></_>
    <_>
      <rect>
        16 0 8 16 28</rect></_>
    <_>
      <rect>
        16 0 8 16 31</rect></_>
    <_>
      <rect>
        0 0 16 16 1</rect></_>
    <_>
      <rect>
        0 0 16 16 24</rect></_>
    <_>
      <rect>
        0 0 16 16 28</rect></_></features></cascade>
</opencv_storage>
