<?xml version="1.0"?>
<opencv_storage>
<!-- Created using Computer Vision System Toolbox(tm) for MATLAB(R) -->
<!-- Version 9.2.0.556344 (R2017a) -->
<!-- Compatible with OpenCV 3.1 -->
<cascade>
  <stageType>BOOST</stageType>
  <featureType>HOG</featureType>
  <height>38</height>
  <width>32</width>
  <stageParams>
    <boostType>GAB</boostType>
    <minHitRate>8.9999997615814209e-01</minHitRate>
    <maxFalseAlarm>2.0000000298023224e-01</maxFalseAlarm>
    <weightTrimRate>9.4999999999999996e-01</weightTrimRate>
    <maxDepth>1</maxDepth>
    <maxWeakCount>100</maxWeakCount></stageParams>
  <featureParams>
    <maxCatCount>0</maxCatCount>
    <featSize>36</featSize></featureParams>
  <stageNum>9</stageNum>
  <stages>
    <!-- stage 0 -->
    <_>
      <maxWeakCount>1</maxWeakCount>
      <stageThreshold>7.0442289113998413e-01</stageThreshold>
      <weakClassifiers>
        <_>
          <internalNodes>
            0 -1 11 1.5973974019289017e-02</internalNodes>
          <leafValues>
            -9.2887622117996216e-01 7.0442289113998413e-01</leafValues></_></weakClassifiers></_>
    <!-- stage 1 -->
    <_>
      <maxWeakCount>1</maxWeakCount>
      <stageThreshold>7.2466957569122314e-01</stageThreshold>
      <weakClassifiers>
        <_>
          <internalNodes>
            0 -1 0 2.5460690259933472e-02</internalNodes>
          <leafValues>
            -9.1135734319686890e-01 7.2466957569122314e-01</leafValues></_></weakClassifiers></_>
    <!-- stage 2 -->
    <_>
      <maxWeakCount>1</maxWeakCount>
      <stageThreshold>7.2991853952407837e-01</stageThreshold>
      <weakClassifiers>
        <_>
          <internalNodes>
            0 -1 8 1.6678508371114731e-02</internalNodes>
          <leafValues>
            -8.1322956085205078e-01 7.2991853952407837e-01</leafValues></_></weakClassifiers></_>
    <!-- stage 3 -->
    <_>
      <maxWeakCount>1</maxWeakCount>
      <stageThreshold>7.4884790182113647e-01</stageThreshold>
      <weakClassifiers>
        <_>
          <internalNodes>
            0 -1 14 2.4930389598011971e-02</internalNodes>
          <leafValues>
            -8.5301834344863892e-01 7.4884790182113647e-01</leafValues></_></weakClassifiers></_>
    <!-- stage 4 -->
    <_>
      <maxWeakCount>1</maxWeakCount>
      <stageThreshold>9.4380587339401245e-01</stageThreshold>
      <weakClassifiers>
        <_>
          <internalNodes>
            0 -1 9 3.4467637538909912e-02</internalNodes>
          <leafValues>
            -8.7249112129211426e-01 9.4380587339401245e-01</leafValues></_></weakClassifiers></_>
    <!-- stage 5 -->
    <_>
      <maxWeakCount>1</maxWeakCount>
      <stageThreshold>8.0952382087707520e-01</stageThreshold>
      <weakClassifiers>
        <_>
          <internalNodes>
            0 -1 1 4.4356402009725571e-02</internalNodes>
          <leafValues>
            -8.6075949668884277e-01 8.0952382087707520e-01</leafValues></_></weakClassifiers></_>
    <!-- stage 6 -->
    <_>
      <maxWeakCount>3</maxWeakCount>
      <stageThreshold>3.6221110820770264e-01</stageThreshold>
      <weakClassifiers>
        <_>
          <internalNodes>
            0 -1 4 4.3400526046752930e-02</internalNodes>
          <leafValues>
            -7.5504708290100098e-01 6.3968074321746826e-01</leafValues></_>
        <_>
          <internalNodes>
            0 -1 13 5.0962753593921661e-02</internalNodes>
          <leafValues>
            -7.8303021192550659e-01 6.3383936882019043e-01</leafValues></_>
        <_>
          <internalNodes>
            0 -1 12 2.1489989012479782e-02</internalNodes>
          <leafValues>
            5.0556057691574097e-01 -8.6800527572631836e-01</leafValues></_></weakClassifiers></_>
    <!-- stage 7 -->
    <_>
      <maxWeakCount>3</maxWeakCount>
      <stageThreshold>2.8326418995857239e-01</stageThreshold>
      <weakClassifiers>
        <_>
          <internalNodes>
            0 -1 7 2.8781924396753311e-02</internalNodes>
          <leafValues>
            -6.8435013294219971e-01 6.2318837642669678e-01</leafValues></_>
        <_>
          <internalNodes>
            0 -1 5 1.6925971955060959e-02</internalNodes>
          <leafValues>
            -8.8251686096191406e-01 4.7978371381759644e-01</leafValues></_>
        <_>
          <internalNodes>
            0 -1 10 1.8339559435844421e-02</internalNodes>
          <leafValues>
            4.8783063888549805e-01 -7.5273323059082031e-01</leafValues></_></weakClassifiers></_>
    <!-- stage 8 -->
    <_>
      <maxWeakCount>3</maxWeakCount>
      <stageThreshold>5.9205383062362671e-01</stageThreshold>
      <weakClassifiers>
        <_>
          <internalNodes>
            0 -1 3 1.5127543359994888e-02</internalNodes>
          <leafValues>
            7.6111817359924316e-01 -5.6097561120986938e-01</leafValues></_>
        <_>
          <internalNodes>
            0 -1 2 2.5133047252893448e-02</internalNodes>
          <leafValues>
            -8.0353128910064697e-01 6.1781495809555054e-01</leafValues></_>
        <_>
          <internalNodes>
            0 -1 6 2.0924534648656845e-02</internalNodes>
          <leafValues>
            -7.4617475271224976e-01 5.3521448373794556e-01</leafValues></_></weakClassifiers></_></stages>
  <features>
    <_>
      <rect>
        0 0 8 8 12</rect></_>
    <_>
      <rect>
        0 4 8 8 26</rect></_>
    <_>
      <rect>
        0 20 8 8 26</rect></_>
    <_>
      <rect>
        8 16 8 8 16</rect></_>
    <_>
      <rect>
        12 0 8 8 12</rect></_>
    <_>
      <rect>
        12 8 8 8 3</rect></_>
    <_>
      <rect>
        12 12 8 8 24</rect></_>
    <_>
      <rect>
        12 12 8 8 33</rect></_>
    <_>
      <rect>
        12 20 8 8 28</rect></_>
    <_>
      <rect>
        16 8 8 8 21</rect></_>
    <_>
      <rect>
        0 0 8 16 22</rect></_>
    <_>
      <rect>
        4 0 8 16 34</rect></_>
    <_>
      <rect>
        8 4 8 16 8</rect></_>
    <_>
      <rect>
        16 0 8 16 35</rect></_>
    <_>
      <rect>
        16 4 8 16 17</rect></_></features></cascade>
</opencv_storage>
