<?xml version="1.0"?>
<opencv_storage>
<!-- Created using Computer Vision System Toolbox(tm) for MATLAB(R) -->
<!-- Version 9.2.0.556344 (R2017a) -->
<!-- Compatible with OpenCV 3.1 -->
<cascade>
  <stageType>BOOST</stageType>
  <featureType>HOG</featureType>
  <height>38</height>
  <width>32</width>
  <stageParams>
    <boostType>GAB</boostType>
    <minHitRate>8.9999997615814209e-01</minHitRate>
    <maxFalseAlarm>3.0000001192092896e-01</maxFalseAlarm>
    <weightTrimRate>9.4999999999999996e-01</weightTrimRate>
    <maxDepth>1</maxDepth>
    <maxWeakCount>100</maxWeakCount></stageParams>
  <featureParams>
    <maxCatCount>0</maxCatCount>
    <featSize>36</featSize></featureParams>
  <stageNum>8</stageNum>
  <stages>
    <!-- stage 0 -->
    <_>
      <maxWeakCount>1</maxWeakCount>
      <stageThreshold>7.4276524782180786e-01</stageThreshold>
      <weakClassifiers>
        <_>
          <internalNodes>
            0 -1 9 1.8276108428835869e-02</internalNodes>
          <leafValues>
            -8.7389659881591797e-01 7.4276524782180786e-01</leafValues></_></weakClassifiers></_>
    <!-- stage 1 -->
    <_>
      <maxWeakCount>1</maxWeakCount>
      <stageThreshold>7.2471326589584351e-01</stageThreshold>
      <weakClassifiers>
        <_>
          <internalNodes>
            0 -1 3 2.6335965842008591e-02</internalNodes>
          <leafValues>
            -9.0612775087356567e-01 7.2471326589584351e-01</leafValues></_></weakClassifiers></_>
    <!-- stage 2 -->
    <_>
      <maxWeakCount>1</maxWeakCount>
      <stageThreshold>6.8205130100250244e-01</stageThreshold>
      <weakClassifiers>
        <_>
          <internalNodes>
            0 -1 10 1.6691582277417183e-02</internalNodes>
          <leafValues>
            -8.8548600673675537e-01 6.8205130100250244e-01</leafValues></_></weakClassifiers></_>
    <!-- stage 3 -->
    <_>
      <maxWeakCount>1</maxWeakCount>
      <stageThreshold>6.9459170103073120e-01</stageThreshold>
      <weakClassifiers>
        <_>
          <internalNodes>
            0 -1 7 2.5311613455414772e-02</internalNodes>
          <leafValues>
            -8.3652615547180176e-01 6.9459170103073120e-01</leafValues></_></weakClassifiers></_>
    <!-- stage 4 -->
    <_>
      <maxWeakCount>2</maxWeakCount>
      <stageThreshold>-2.3539885878562927e-02</stageThreshold>
      <weakClassifiers>
        <_>
          <internalNodes>
            0 -1 5 4.0955908596515656e-02</internalNodes>
          <leafValues>
            -7.7911162376403809e-01 7.2676372528076172e-01</leafValues></_>
        <_>
          <internalNodes>
            0 -1 0 3.5238996148109436e-02</internalNodes>
          <leafValues>
            -6.7584526538848877e-01 7.5557178258895874e-01</leafValues></_></weakClassifiers></_>
    <!-- stage 5 -->
    <_>
      <maxWeakCount>3</maxWeakCount>
      <stageThreshold>6.4560133218765259e-01</stageThreshold>
      <weakClassifiers>
        <_>
          <internalNodes>
            0 -1 6 5.1183361560106277e-02</internalNodes>
          <leafValues>
            -5.6148713827133179e-01 8.7001478672027588e-01</leafValues></_>
        <_>
          <internalNodes>
            0 -1 2 1.7510460689663887e-02</internalNodes>
          <leafValues>
            -7.9028648138046265e-01 5.9811449050903320e-01</leafValues></_>
        <_>
          <internalNodes>
            0 -1 4 1.8485279753804207e-02</internalNodes>
          <leafValues>
            -7.3391318321228027e-01 6.0897397994995117e-01</leafValues></_></weakClassifiers></_>
    <!-- stage 6 -->
    <_>
      <maxWeakCount>1</maxWeakCount>
      <stageThreshold>5.6782037019729614e-01</stageThreshold>
      <weakClassifiers>
        <_>
          <internalNodes>
            0 -1 8 4.1825562715530396e-02</internalNodes>
          <leafValues>
            5.6782037019729614e-01 -9.2389649152755737e-01</leafValues></_></weakClassifiers></_>
    <!-- stage 7 -->
    <_>
      <maxWeakCount>1</maxWeakCount>
      <stageThreshold>5.7937312126159668e-01</stageThreshold>
      <weakClassifiers>
        <_>
          <internalNodes>
            0 -1 1 3.9021022617816925e-02</internalNodes>
          <leafValues>
            -7.7747625112533569e-01 5.7937312126159668e-01</leafValues></_></weakClassifiers></_></stages>
  <features>
    <_>
      <rect>
        0 8 8 8 8</rect></_>
    <_>
      <rect>
        4 0 8 8 3</rect></_>
    <_>
      <rect>
        4 20 8 8 21</rect></_>
    <_>
      <rect>
        12 0 8 8 12</rect></_>
    <_>
      <rect>
        12 4 8 8 20</rect></_>
    <_>
      <rect>
        16 4 8 8 35</rect></_>
    <_>
      <rect>
        16 8 8 8 17</rect></_>
    <_>
      <rect>
        16 12 8 8 21</rect></_>
    <_>
      <rect>
        0 4 8 16 22</rect></_>
    <_>
      <rect>
        16 0 8 16 34</rect></_>
    <_>
      <rect>
        0 16 16 8 18</rect></_></features></cascade>
</opencv_storage>
