<?xml version="1.0"?>
<opencv_storage>
<!-- Created using Computer Vision System Toolbox(tm) for MATLAB(R) -->
<!-- Version 9.1.0.441655 (R2016b) -->
<!-- Compatible with OpenCV 2.4 -->
<cascade>
  <stageType>BOOST</stageType>
  <featureType>HOG</featureType>
  <height>33</height>
  <width>32</width>
  <stageParams>
    <boostType>GAB</boostType>
    <minHitRate>8.9999997615814209e-01</minHitRate>
    <maxFalseAlarm>4.0000000596046448e-01</maxFalseAlarm>
    <weightTrimRate>9.4999999999999996e-01</weightTrimRate>
    <maxDepth>1</maxDepth>
    <maxWeakCount>100</maxWeakCount></stageParams>
  <featureParams>
    <maxCatCount>0</maxCatCount>
    <featSize>36</featSize></featureParams>
  <stageNum>12</stageNum>
  <stages>
    <!-- stage 0 -->
    <_>
      <maxWeakCount>1</maxWeakCount>
      <stageThreshold>6.4619046449661255e-01</stageThreshold>
      <weakClassifiers>
        <_>
          <internalNodes>
            0 -1 32 1.4293706044554710e-02</internalNodes>
          <leafValues>
            -9.0769231319427490e-01 6.4619046449661255e-01</leafValues></_></weakClassifiers></_>
    <!-- stage 1 -->
    <_>
      <maxWeakCount>3</maxWeakCount>
      <stageThreshold>1.3112129271030426e-01</stageThreshold>
      <weakClassifiers>
        <_>
          <internalNodes>
            0 -1 31 1.8846951425075531e-02</internalNodes>
          <leafValues>
            -7.4745053052902222e-01 6.4626556634902954e-01</leafValues></_>
        <_>
          <internalNodes>
            0 -1 2 3.5493478178977966e-02</internalNodes>
          <leafValues>
            4.8612627387046814e-01 -8.6515778303146362e-01</leafValues></_>
        <_>
          <internalNodes>
            0 -1 24 9.6665490418672562e-03</internalNodes>
          <leafValues>
            -8.3921283483505249e-01 3.9244553446769714e-01</leafValues></_></weakClassifiers></_>
    <!-- stage 2 -->
    <_>
      <maxWeakCount>1</maxWeakCount>
      <stageThreshold>4.2712080478668213e-01</stageThreshold>
      <weakClassifiers>
        <_>
          <internalNodes>
            0 -1 16 4.1811302304267883e-02</internalNodes>
          <leafValues>
            4.2712080478668213e-01 -8.1973201036453247e-01</leafValues></_></weakClassifiers></_>
    <!-- stage 3 -->
    <_>
      <maxWeakCount>3</maxWeakCount>
      <stageThreshold>4.1032743453979492e-01</stageThreshold>
      <weakClassifiers>
        <_>
          <internalNodes>
            0 -1 18 2.5317844003438950e-02</internalNodes>
          <leafValues>
            4.8228114843368530e-01 -7.0160466432571411e-01</leafValues></_>
        <_>
          <internalNodes>
            0 -1 15 1.1186201125383377e-02</internalNodes>
          <leafValues>
            -6.5877223014831543e-01 5.1401990652084351e-01</leafValues></_>
        <_>
          <internalNodes>
            0 -1 5 3.0970606952905655e-02</internalNodes>
          <leafValues>
            -5.3510624170303345e-01 5.9791213274002075e-01</leafValues></_></weakClassifiers></_>
    <!-- stage 4 -->
    <_>
      <maxWeakCount>3</maxWeakCount>
      <stageThreshold>5.8040013536810875e-03</stageThreshold>
      <weakClassifiers>
        <_>
          <internalNodes>
            0 -1 20 3.1974606215953827e-02</internalNodes>
          <leafValues>
            5.7710570096969604e-01 -7.2405141592025757e-01</leafValues></_>
        <_>
          <internalNodes>
            0 -1 12 2.1648405119776726e-02</internalNodes>
          <leafValues>
            -7.4311101436614990e-01 3.7340292334556580e-01</leafValues></_>
        <_>
          <internalNodes>
            0 -1 19 3.9233934134244919e-02</internalNodes>
          <leafValues>
            3.5645249485969543e-01 -7.9864138364791870e-01</leafValues></_></weakClassifiers></_>
    <!-- stage 5 -->
    <_>
      <maxWeakCount>4</maxWeakCount>
      <stageThreshold>-2.7505857869982719e-02</stageThreshold>
      <weakClassifiers>
        <_>
          <internalNodes>
            0 -1 3 5.3119078278541565e-02</internalNodes>
          <leafValues>
            -3.3242294192314148e-01 8.2558137178421021e-01</leafValues></_>
        <_>
          <internalNodes>
            0 -1 27 3.3236652612686157e-02</internalNodes>
          <leafValues>
            -4.6477442979812622e-01 6.0085868835449219e-01</leafValues></_>
        <_>
          <internalNodes>
            0 -1 4 1.4003843069076538e-02</internalNodes>
          <leafValues>
            -6.5794539451599121e-01 4.4245177507400513e-01</leafValues></_>
        <_>
          <internalNodes>
            0 -1 0 1.6666719689965248e-02</internalNodes>
          <leafValues>
            -6.2725144624710083e-01 3.2723975181579590e-01</leafValues></_></weakClassifiers></_>
    <!-- stage 6 -->
    <_>
      <maxWeakCount>3</maxWeakCount>
      <stageThreshold>1.7846645414829254e-01</stageThreshold>
      <weakClassifiers>
        <_>
          <internalNodes>
            0 -1 10 5.4390199482440948e-02</internalNodes>
          <leafValues>
            -4.2531210184097290e-01 7.7672958374023438e-01</leafValues></_>
        <_>
          <internalNodes>
            0 -1 23 1.6069713979959488e-02</internalNodes>
          <leafValues>
            -5.3733271360397339e-01 3.9401441812515259e-01</leafValues></_>
        <_>
          <internalNodes>
            0 -1 14 4.3086957186460495e-02</internalNodes>
          <leafValues>
            2.0976410806179047e-01 -7.1422564983367920e-01</leafValues></_></weakClassifiers></_>
    <!-- stage 7 -->
    <_>
      <maxWeakCount>5</maxWeakCount>
      <stageThreshold>-1.9061642885208130e-01</stageThreshold>
      <weakClassifiers>
        <_>
          <internalNodes>
            0 -1 21 4.2665243148803711e-02</internalNodes>
          <leafValues>
            -4.3648350238800049e-01 7.5227272510528564e-01</leafValues></_>
        <_>
          <internalNodes>
            0 -1 11 4.7695301473140717e-02</internalNodes>
          <leafValues>
            -3.1234318017959595e-01 6.1034584045410156e-01</leafValues></_>
        <_>
          <internalNodes>
            0 -1 2 1.8535537645220757e-02</internalNodes>
          <leafValues>
            3.5717648267745972e-01 -5.3937244415283203e-01</leafValues></_>
        <_>
          <internalNodes>
            0 -1 32 4.9625225365161896e-02</internalNodes>
          <leafValues>
            -2.4071824550628662e-01 6.2805855274200439e-01</leafValues></_>
        <_>
          <internalNodes>
            0 -1 22 3.6188684403896332e-02</internalNodes>
          <leafValues>
            -3.5963195562362671e-01 4.4175201654434204e-01</leafValues></_></weakClassifiers></_>
    <!-- stage 8 -->
    <_>
      <maxWeakCount>4</maxWeakCount>
      <stageThreshold>3.4477684646844864e-02</stageThreshold>
      <weakClassifiers>
        <_>
          <internalNodes>
            0 -1 26 3.8825690746307373e-02</internalNodes>
          <leafValues>
            -4.7996398806571960e-01 7.7583694458007813e-01</leafValues></_>
        <_>
          <internalNodes>
            0 -1 8 2.8306864202022552e-02</internalNodes>
          <leafValues>
            4.4755181670188904e-01 -6.5548503398895264e-01</leafValues></_>
        <_>
          <internalNodes>
            0 -1 1 5.7824082672595978e-02</internalNodes>
          <leafValues>
            -2.7410009503364563e-01 7.7137923240661621e-01</leafValues></_>
        <_>
          <internalNodes>
            0 -1 9 2.9440321028232574e-02</internalNodes>
          <leafValues>
            3.4098997712135315e-01 -5.8761751651763916e-01</leafValues></_></weakClassifiers></_>
    <!-- stage 9 -->
    <_>
      <maxWeakCount>1</maxWeakCount>
      <stageThreshold>4.8388510942459106e-01</stageThreshold>
      <weakClassifiers>
        <_>
          <internalNodes>
            0 -1 30 2.8560813516378403e-02</internalNodes>
          <leafValues>
            4.8388510942459106e-01 -8.6244624853134155e-01</leafValues></_></weakClassifiers></_>
    <!-- stage 10 -->
    <_>
      <maxWeakCount>4</maxWeakCount>
      <stageThreshold>-3.8182880729436874e-02</stageThreshold>
      <weakClassifiers>
        <_>
          <internalNodes>
            0 -1 21 5.9673614799976349e-02</internalNodes>
          <leafValues>
            -3.6388948559761047e-01 8.0943304300308228e-01</leafValues></_>
        <_>
          <internalNodes>
            0 -1 29 2.3121275007724762e-02</internalNodes>
          <leafValues>
            3.4197562932968140e-01 -6.5581572055816650e-01</leafValues></_>
        <_>
          <internalNodes>
            0 -1 13 4.9221687018871307e-02</internalNodes>
          <leafValues>
            -3.4900754690170288e-01 6.1035501956939697e-01</leafValues></_>
        <_>
          <internalNodes>
            0 -1 25 1.9562799483537674e-02</internalNodes>
          <leafValues>
            -4.4900971651077271e-01 3.7116730213165283e-01</leafValues></_></weakClassifiers></_>
    <!-- stage 11 -->
    <_>
      <maxWeakCount>5</maxWeakCount>
      <stageThreshold>-2.3536063730716705e-01</stageThreshold>
      <weakClassifiers>
        <_>
          <internalNodes>
            0 -1 5 5.5834949016571045e-02</internalNodes>
          <leafValues>
            -4.5589855313301086e-01 6.5791565179824829e-01</leafValues></_>
        <_>
          <internalNodes>
            0 -1 17 1.8266715109348297e-02</internalNodes>
          <leafValues>
            3.8468408584594727e-01 -5.2184802293777466e-01</leafValues></_>
        <_>
          <internalNodes>
            0 -1 6 3.2841596752405167e-02</internalNodes>
          <leafValues>
            -4.2588350176811218e-01 3.1831365823745728e-01</leafValues></_>
        <_>
          <internalNodes>
            0 -1 28 2.4355851113796234e-02</internalNodes>
          <leafValues>
            1.8830452859401703e-01 -6.4344763755798340e-01</leafValues></_>
        <_>
          <internalNodes>
            0 -1 7 1.9877452403306961e-02</internalNodes>
          <leafValues>
            -4.2209625244140625e-01 2.3576778173446655e-01</leafValues></_></weakClassifiers></_></stages>
  <features>
    <_>
      <rect>
        0 0 8 8 12</rect></_>
    <_>
      <rect>
        0 0 8 8 19</rect></_>
    <_>
      <rect>
        0 4 8 8 22</rect></_>
    <_>
      <rect>
        0 16 8 8 6</rect></_>
    <_>
      <rect>
        4 4 8 8 2</rect></_>
    <_>
      <rect>
        4 12 8 8 24</rect></_>
    <_>
      <rect>
        4 16 8 8 17</rect></_>
    <_>
      <rect>
        4 16 8 8 23</rect></_>
    <_>
      <rect>
        8 0 8 8 8</rect></_>
    <_>
      <rect>
        12 0 8 8 17</rect></_>
    <_>
      <rect>
        12 4 8 8 15</rect></_>
    <_>
      <rect>
        12 8 8 8 26</rect></_>
    <_>
      <rect>
        12 12 8 8 28</rect></_>
    <_>
      <rect>
        12 16 8 8 28</rect></_>
    <_>
      <rect>
        12 16 8 8 35</rect></_>
    <_>
      <rect>
        16 0 8 8 23</rect></_>
    <_>
      <rect>
        16 0 8 8 31</rect></_>
    <_>
      <rect>
        16 8 8 8 31</rect></_>
    <_>
      <rect>
        16 12 8 8 31</rect></_>
    <_>
      <rect>
        0 0 8 16 4</rect></_>
    <_>
      <rect>
        0 0 8 16 22</rect></_>
    <_>
      <rect>
        4 0 8 16 1</rect></_>
    <_>
      <rect>
        4 0 8 16 12</rect></_>
    <_>
      <rect>
        12 0 8 16 24</rect></_>
    <_>
      <rect>
        16 0 8 16 15</rect></_>
    <_>
      <rect>
        0 0 16 8 14</rect></_>
    <_>
      <rect>
        0 0 16 8 33</rect></_>
    <_>
      <rect>
        0 16 16 8 8</rect></_>
    <_>
      <rect>
        0 16 16 8 33</rect></_>
    <_>
      <rect>
        0 0 16 16 5</rect></_>
    <_>
      <rect>
        0 0 16 16 11</rect></_>
    <_>
      <rect>
        0 0 16 16 24</rect></_>
    <_>
      <rect>
        0 0 16 16 28</rect></_></features></cascade>
</opencv_storage>
