<?xml version="1.0"?>
<opencv_storage>
<!-- Created using Computer Vision System Toolbox(tm) for MATLAB(R) -->
<!-- Version 9.2.0.556344 (R2017a) -->
<!-- Compatible with OpenCV 3.1 -->
<cascade>
  <stageType>BOOST</stageType>
  <featureType>LBP</featureType>
  <height>38</height>
  <width>32</width>
  <stageParams>
    <boostType>GAB</boostType>
    <minHitRate>8.5000002384185791e-01</minHitRate>
    <maxFalseAlarm>4.0000000596046448e-01</maxFalseAlarm>
    <weightTrimRate>9.4999999999999996e-01</weightTrimRate>
    <maxDepth>1</maxDepth>
    <maxWeakCount>100</maxWeakCount></stageParams>
  <featureParams>
    <maxCatCount>256</maxCatCount>
    <featSize>1</featSize></featureParams>
  <stageNum>8</stageNum>
  <stages>
    <!-- stage 0 -->
    <_>
      <maxWeakCount>1</maxWeakCount>
      <stageThreshold>8.9655172824859619e-01</stageThreshold>
      <weakClassifiers>
        <_>
          <internalNodes>
            0 -1 0 -178258977 -788430326 -2139094905 -1055948597
            -939425639 -1844609024 -1044135797 1432351295</internalNodes>
          <leafValues>
            -9.7805643081665039e-01 8.9655172824859619e-01</leafValues></_></weakClassifiers></_>
    <!-- stage 1 -->
    <_>
      <maxWeakCount>1</maxWeakCount>
      <stageThreshold>9.7500002384185791e-01</stageThreshold>
      <weakClassifiers>
        <_>
          <internalNodes>
            0 -1 2 -754482983 822247680 65539 285278273 131233
            1107296256 704774155 -1685127025</internalNodes>
          <leafValues>
            -8.9913547039031982e-01 9.7500002384185791e-01</leafValues></_></weakClassifiers></_>
    <!-- stage 2 -->
    <_>
      <maxWeakCount>1</maxWeakCount>
      <stageThreshold>9.4658756256103516e-01</stageThreshold>
      <weakClassifiers>
        <_>
          <internalNodes>
            0 -1 1 -795831408 -1845493760 67178505 1367572501
            -2147441792 -2013200117 411041931 -612136869</internalNodes>
          <leafValues>
            -9.6666663885116577e-01 9.4658756256103516e-01</leafValues></_></weakClassifiers></_>
    <!-- stage 3 -->
    <_>
      <maxWeakCount>1</maxWeakCount>
      <stageThreshold>9.8456788063049316e-01</stageThreshold>
      <weakClassifiers>
        <_>
          <internalNodes>
            0 -1 5 -787365717 -536768503 1081345 -2147483647 -2147450752
            -2146926592 -2147450752 -1044254574</internalNodes>
          <leafValues>
            -9.3002915382385254e-01 9.8456788063049316e-01</leafValues></_></weakClassifiers></_>
    <!-- stage 4 -->
    <_>
      <maxWeakCount>1</maxWeakCount>
      <stageThreshold>9.6969699859619141e-01</stageThreshold>
      <weakClassifiers>
        <_>
          <internalNodes>
            0 -1 3 -1073618814 -787152895 65539 1095041031 -2134863744
            -2147254118 -2147303293 -746348406</internalNodes>
          <leafValues>
            -9.4955492019653320e-01 9.6969699859619141e-01</leafValues></_></weakClassifiers></_>
    <!-- stage 5 -->
    <_>
      <maxWeakCount>1</maxWeakCount>
      <stageThreshold>9.8170733451843262e-01</stageThreshold>
      <weakClassifiers>
        <_>
          <internalNodes>
            0 -1 6 1898175455 25206784 1073758272 1073938709 -2146791221
            1208647714 -268402486 554160527</internalNodes>
          <leafValues>
            -9.4985252618789673e-01 9.8170733451843262e-01</leafValues></_></weakClassifiers></_>
    <!-- stage 6 -->
    <_>
      <maxWeakCount>1</maxWeakCount>
      <stageThreshold>9.7019374370574951e-01</stageThreshold>
      <weakClassifiers>
        <_>
          <internalNodes>
            0 -1 7 -2143158256 -1879048192 1090519049 -683606007 32922
            -1996488704 671187083 -1962174316</internalNodes>
          <leafValues>
            -9.8190045356750488e-01 9.7019374370574951e-01</leafValues></_></weakClassifiers></_>
    <!-- stage 7 -->
    <_>
      <maxWeakCount>1</maxWeakCount>
      <stageThreshold>9.2548435926437378e-01</stageThreshold>
      <weakClassifiers>
        <_>
          <internalNodes>
            0 -1 4 -87047169 -249843193 4292611 -128204653 -1878286197
            -2147475446 -1442602493 -78781301</internalNodes>
          <leafValues>
            -9.3665158748626709e-01 9.2548435926437378e-01</leafValues></_></weakClassifiers></_></stages>
  <features>
    <_>
      <rect>
        4 16 5 5</rect></_>
    <_>
      <rect>
        8 8 5 3</rect></_>
    <_>
      <rect>
        9 13 3 3</rect></_>
    <_>
      <rect>
        11 21 4 5</rect></_>
    <_>
      <rect>
        12 8 3 6</rect></_>
    <_>
      <rect>
        12 8 6 8</rect></_>
    <_>
      <rect>
        12 9 6 9</rect></_>
    <_>
      <rect>
        14 14 6 3</rect></_></features></cascade>
</opencv_storage>
