<?xml version="1.0"?>
<opencv_storage>
<!-- Created using Computer Vision System Toolbox(tm) for MATLAB(R) -->
<!-- Version 9.1.0.441655 (R2016b) -->
<!-- Compatible with OpenCV 2.4 -->
<cascade>
  <stageType>BOOST</stageType>
  <featureType>HOG</featureType>
  <height>33</height>
  <width>32</width>
  <stageParams>
    <boostType>GAB</boostType>
    <minHitRate>8.9999997615814209e-01</minHitRate>
    <maxFalseAlarm>1.0000000149011612e-01</maxFalseAlarm>
    <weightTrimRate>9.4999999999999996e-01</weightTrimRate>
    <maxDepth>1</maxDepth>
    <maxWeakCount>100</maxWeakCount></stageParams>
  <featureParams>
    <maxCatCount>0</maxCatCount>
    <featSize>36</featSize></featureParams>
  <stageNum>7</stageNum>
  <stages>
    <!-- stage 0 -->
    <_>
      <maxWeakCount>4</maxWeakCount>
      <stageThreshold>6.7135995626449585e-01</stageThreshold>
      <weakClassifiers>
        <_>
          <internalNodes>
            0 -1 48 1.4293706044554710e-02</internalNodes>
          <leafValues>
            -9.0769231319427490e-01 6.4619046449661255e-01</leafValues></_>
        <_>
          <internalNodes>
            0 -1 2 3.1245231628417969e-02</internalNodes>
          <leafValues>
            4.5049768686294556e-01 -8.2732999324798584e-01</leafValues></_>
        <_>
          <internalNodes>
            0 -1 47 1.5019282698631287e-02</internalNodes>
          <leafValues>
            -7.7500450611114502e-01 4.9784484505653381e-01</leafValues></_>
        <_>
          <internalNodes>
            0 -1 33 6.8919127807021141e-03</internalNodes>
          <leafValues>
            -9.1644072532653809e-01 3.5465463995933533e-01</leafValues></_></weakClassifiers></_>
    <!-- stage 1 -->
    <_>
      <maxWeakCount>4</maxWeakCount>
      <stageThreshold>7.3030102252960205e-01</stageThreshold>
      <weakClassifiers>
        <_>
          <internalNodes>
            0 -1 46 3.2155595719814301e-02</internalNodes>
          <leafValues>
            -4.6481397747993469e-01 7.6026391983032227e-01</leafValues></_>
        <_>
          <internalNodes>
            0 -1 35 1.1524694971740246e-02</internalNodes>
          <leafValues>
            -8.3405852317810059e-01 4.3451881408691406e-01</leafValues></_>
        <_>
          <internalNodes>
            0 -1 24 4.1971616446971893e-02</internalNodes>
          <leafValues>
            3.1752005219459534e-01 -9.0371918678283691e-01</leafValues></_>
        <_>
          <internalNodes>
            0 -1 38 1.4914638362824917e-02</internalNodes>
          <leafValues>
            -6.9221895933151245e-01 4.4307613372802734e-01</leafValues></_></weakClassifiers></_>
    <!-- stage 2 -->
    <_>
      <maxWeakCount>6</maxWeakCount>
      <stageThreshold>2.9352420568466187e-01</stageThreshold>
      <weakClassifiers>
        <_>
          <internalNodes>
            0 -1 25 3.4491628408432007e-02</internalNodes>
          <leafValues>
            3.4619247913360596e-01 -7.7858108282089233e-01</leafValues></_>
        <_>
          <internalNodes>
            0 -1 14 4.6187557280063629e-02</internalNodes>
          <leafValues>
            -4.6246889233589172e-01 6.9166195392608643e-01</leafValues></_>
        <_>
          <internalNodes>
            0 -1 3 2.2443905472755432e-02</internalNodes>
          <leafValues>
            4.1695773601531982e-01 -6.2402975559234619e-01</leafValues></_>
        <_>
          <internalNodes>
            0 -1 9 8.7666427716612816e-03</internalNodes>
          <leafValues>
            -7.4525994062423706e-01 4.3695926666259766e-01</leafValues></_>
        <_>
          <internalNodes>
            0 -1 5 1.6913527622818947e-02</internalNodes>
          <leafValues>
            -5.9778940677642822e-01 3.1776642799377441e-01</leafValues></_>
        <_>
          <internalNodes>
            0 -1 1 4.4369213283061981e-02</internalNodes>
          <leafValues>
            2.7910470962524414e-01 -7.6664048433303833e-01</leafValues></_></weakClassifiers></_>
    <!-- stage 3 -->
    <_>
      <maxWeakCount>7</maxWeakCount>
      <stageThreshold>3.7537750601768494e-01</stageThreshold>
      <weakClassifiers>
        <_>
          <internalNodes>
            0 -1 18 3.6646567285060883e-02</internalNodes>
          <leafValues>
            -5.1919698715209961e-01 6.4555382728576660e-01</leafValues></_>
        <_>
          <internalNodes>
            0 -1 27 3.6904260516166687e-02</internalNodes>
          <leafValues>
            4.0510642528533936e-01 -7.3433870077133179e-01</leafValues></_>
        <_>
          <internalNodes>
            0 -1 43 3.8705069571733475e-02</internalNodes>
          <leafValues>
            -2.9917618632316589e-01 7.3937201499938965e-01</leafValues></_>
        <_>
          <internalNodes>
            0 -1 26 1.3645937666296959e-02</internalNodes>
          <leafValues>
            -4.9646991491317749e-01 4.0521258115768433e-01</leafValues></_>
        <_>
          <internalNodes>
            0 -1 16 3.2012879848480225e-02</internalNodes>
          <leafValues>
            -5.4840463399887085e-01 3.5617890954017639e-01</leafValues></_>
        <_>
          <internalNodes>
            0 -1 32 1.8124639987945557e-02</internalNodes>
          <leafValues>
            -5.1515239477157593e-01 3.8260373473167419e-01</leafValues></_>
        <_>
          <internalNodes>
            0 -1 3 9.1542992740869522e-03</internalNodes>
          <leafValues>
            5.4923254251480103e-01 -3.1585019826889038e-01</leafValues></_></weakClassifiers></_>
    <!-- stage 4 -->
    <_>
      <maxWeakCount>13</maxWeakCount>
      <stageThreshold>1.6569806635379791e-01</stageThreshold>
      <weakClassifiers>
        <_>
          <internalNodes>
            0 -1 45 4.3358214199542999e-02</internalNodes>
          <leafValues>
            -3.8637810945510864e-01 7.3516350984573364e-01</leafValues></_>
        <_>
          <internalNodes>
            0 -1 4 4.1123725473880768e-02</internalNodes>
          <leafValues>
            -2.0806728303432465e-01 6.3197672367095947e-01</leafValues></_>
        <_>
          <internalNodes>
            0 -1 29 3.6523610353469849e-02</internalNodes>
          <leafValues>
            -3.0567523837089539e-01 4.5770272612571716e-01</leafValues></_>
        <_>
          <internalNodes>
            0 -1 40 3.6949515342712402e-02</internalNodes>
          <leafValues>
            -4.1081520915031433e-01 3.5807174444198608e-01</leafValues></_>
        <_>
          <internalNodes>
            0 -1 10 2.1902512758970261e-02</internalNodes>
          <leafValues>
            1.6920395195484161e-01 -5.3928369283676147e-01</leafValues></_>
        <_>
          <internalNodes>
            0 -1 23 6.8236865103244781e-02</internalNodes>
          <leafValues>
            -1.2581068277359009e-01 6.6328716278076172e-01</leafValues></_>
        <_>
          <internalNodes>
            0 -1 6 3.8920417428016663e-02</internalNodes>
          <leafValues>
            -3.0291506648063660e-01 4.5694702863693237e-01</leafValues></_>
        <_>
          <internalNodes>
            0 -1 31 1.3975979760289192e-02</internalNodes>
          <leafValues>
            -5.6851089000701904e-01 1.8330436944961548e-01</leafValues></_>
        <_>
          <internalNodes>
            0 -1 41 4.5434881001710892e-02</internalNodes>
          <leafValues>
            1.5014825761318207e-01 -6.6253691911697388e-01</leafValues></_>
        <_>
          <internalNodes>
            0 -1 39 3.1037352979183197e-02</internalNodes>
          <leafValues>
            -3.9272743463516235e-01 2.1176001429557800e-01</leafValues></_>
        <_>
          <internalNodes>
            0 -1 13 1.2811932712793350e-02</internalNodes>
          <leafValues>
            -5.7503485679626465e-01 1.3305181264877319e-01</leafValues></_>
        <_>
          <internalNodes>
            0 -1 44 2.8434481471776962e-02</internalNodes>
          <leafValues>
            1.2973353266716003e-01 -5.8926337957382202e-01</leafValues></_>
        <_>
          <internalNodes>
            0 -1 15 1.3394325971603394e-02</internalNodes>
          <leafValues>
            -4.4270658493041992e-01 1.6829560697078705e-01</leafValues></_></weakClassifiers></_>
    <!-- stage 5 -->
    <_>
      <maxWeakCount>12</maxWeakCount>
      <stageThreshold>2.2635857760906219e-01</stageThreshold>
      <weakClassifiers>
        <_>
          <internalNodes>
            0 -1 36 4.9454521387815475e-02</internalNodes>
          <leafValues>
            -4.0490132570266724e-01 7.2392398118972778e-01</leafValues></_>
        <_>
          <internalNodes>
            0 -1 43 1.6752626746892929e-02</internalNodes>
          <leafValues>
            -5.4823929071426392e-01 3.3348292112350464e-01</leafValues></_>
        <_>
          <internalNodes>
            0 -1 8 2.3298704996705055e-02</internalNodes>
          <leafValues>
            -4.1393634676933289e-01 3.7833997607231140e-01</leafValues></_>
        <_>
          <internalNodes>
            0 -1 48 4.5192368328571320e-02</internalNodes>
          <leafValues>
            -2.5684392452239990e-01 6.4131230115890503e-01</leafValues></_>
        <_>
          <internalNodes>
            0 -1 6 6.2846347689628601e-02</internalNodes>
          <leafValues>
            -2.3117372393608093e-01 5.5882823467254639e-01</leafValues></_>
        <_>
          <internalNodes>
            0 -1 33 4.4373393058776855e-02</internalNodes>
          <leafValues>
            -1.3777132332324982e-01 5.8534669876098633e-01</leafValues></_>
        <_>
          <internalNodes>
            0 -1 28 2.3119175806641579e-02</internalNodes>
          <leafValues>
            1.6775232553482056e-01 -6.8862724304199219e-01</leafValues></_>
        <_>
          <internalNodes>
            0 -1 11 6.4079090952873230e-02</internalNodes>
          <leafValues>
            -1.6405959427356720e-01 7.0455163717269897e-01</leafValues></_>
        <_>
          <internalNodes>
            0 -1 5 1.1459171772003174e-02</internalNodes>
          <leafValues>
            -6.1376726627349854e-01 1.8935599923133850e-01</leafValues></_>
        <_>
          <internalNodes>
            0 -1 7 5.7540405541658401e-03</internalNodes>
          <leafValues>
            -8.6612927913665771e-01 9.3552649021148682e-02</leafValues></_>
        <_>
          <internalNodes>
            0 -1 21 3.9612326771020889e-02</internalNodes>
          <leafValues>
            1.1782388389110565e-01 -7.0018172264099121e-01</leafValues></_>
        <_>
          <internalNodes>
            0 -1 25 1.4894529245793819e-02</internalNodes>
          <leafValues>
            2.7406224608421326e-01 -3.6526644229888916e-01</leafValues></_></weakClassifiers></_>
    <!-- stage 6 -->
    <_>
      <maxWeakCount>14</maxWeakCount>
      <stageThreshold>2.6244300603866577e-01</stageThreshold>
      <weakClassifiers>
        <_>
          <internalNodes>
            0 -1 0 5.3055003285408020e-02</internalNodes>
          <leafValues>
            -7.8142695128917694e-02 8.1359815597534180e-01</leafValues></_>
        <_>
          <internalNodes>
            0 -1 34 4.9499586224555969e-02</internalNodes>
          <leafValues>
            -1.9969631731510162e-01 6.0600620508193970e-01</leafValues></_>
        <_>
          <internalNodes>
            0 -1 37 4.4402062892913818e-02</internalNodes>
          <leafValues>
            2.5754737854003906e-01 -5.3258681297302246e-01</leafValues></_>
        <_>
          <internalNodes>
            0 -1 12 1.5835106372833252e-02</internalNodes>
          <leafValues>
            3.4040021896362305e-01 -3.9360386133193970e-01</leafValues></_>
        <_>
          <internalNodes>
            0 -1 22 2.9061686247587204e-02</internalNodes>
          <leafValues>
            1.5237471461296082e-01 -6.4828771352767944e-01</leafValues></_>
        <_>
          <internalNodes>
            0 -1 39 4.5051652938127518e-02</internalNodes>
          <leafValues>
            -4.1100853681564331e-01 2.3848557472229004e-01</leafValues></_>
        <_>
          <internalNodes>
            0 -1 30 2.9299763962626457e-02</internalNodes>
          <leafValues>
            1.8097987771034241e-01 -6.2409275770187378e-01</leafValues></_>
        <_>
          <internalNodes>
            0 -1 19 1.6126513481140137e-02</internalNodes>
          <leafValues>
            -4.2060124874114990e-01 2.0646303892135620e-01</leafValues></_>
        <_>
          <internalNodes>
            0 -1 20 2.1230004727840424e-02</internalNodes>
          <leafValues>
            -4.1088908910751343e-01 1.6257022321224213e-01</leafValues></_>
        <_>
          <internalNodes>
            0 -1 14 6.8517148494720459e-02</internalNodes>
          <leafValues>
            -1.6646011173725128e-01 4.8494043946266174e-01</leafValues></_>
        <_>
          <internalNodes>
            0 -1 11 6.5569274127483368e-02</internalNodes>
          <leafValues>
            -1.5307748317718506e-01 6.2440735101699829e-01</leafValues></_>
        <_>
          <internalNodes>
            0 -1 17 6.6455937922000885e-02</internalNodes>
          <leafValues>
            -7.9177655279636383e-02 7.6936078071594238e-01</leafValues></_>
        <_>
          <internalNodes>
            0 -1 42 1.1669171974062920e-02</internalNodes>
          <leafValues>
            -4.7459462285041809e-01 1.7222359776496887e-01</leafValues></_>
        <_>
          <internalNodes>
            0 -1 40 5.1526352763175964e-02</internalNodes>
          <leafValues>
            -2.4206881225109100e-01 3.6981967091560364e-01</leafValues></_></weakClassifiers></_></stages>
  <features>
    <_>
      <rect>
        0 0 8 8 19</rect></_>
    <_>
      <rect>
        0 4 8 8 4</rect></_>
    <_>
      <rect>
        0 4 8 8 22</rect></_>
    <_>
      <rect>
        0 12 8 8 4</rect></_>
    <_>
      <rect>
        0 16 8 8 6</rect></_>
    <_>
      <rect>
        0 16 8 8 32</rect></_>
    <_>
      <rect>
        4 0 8 8 3</rect></_>
    <_>
      <rect>
        4 0 8 8 12</rect></_>
    <_>
      <rect>
        4 8 8 8 34</rect></_>
    <_>
      <rect>
        8 0 8 8 32</rect></_>
    <_>
      <rect>
        8 4 8 8 7</rect></_>
    <_>
      <rect>
        8 4 8 8 30</rect></_>
    <_>
      <rect>
        12 0 8 8 17</rect></_>
    <_>
      <rect>
        12 4 8 8 14</rect></_>
    <_>
      <rect>
        12 4 8 8 15</rect></_>
    <_>
      <rect>
        12 8 8 8 5</rect></_>
    <_>
      <rect>
        12 8 8 8 26</rect></_>
    <_>
      <rect>
        12 12 8 8 0</rect></_>
    <_>
      <rect>
        12 12 8 8 28</rect></_>
    <_>
      <rect>
        12 16 8 8 0</rect></_>
    <_>
      <rect>
        12 16 8 8 29</rect></_>
    <_>
      <rect>
        12 16 8 8 35</rect></_>
    <_>
      <rect>
        16 0 8 8 1</rect></_>
    <_>
      <rect>
        16 0 8 8 33</rect></_>
    <_>
      <rect>
        16 12 8 8 13</rect></_>
    <_>
      <rect>
        16 12 8 8 31</rect></_>
    <_>
      <rect>
        16 16 8 8 29</rect></_>
    <_>
      <rect>
        0 0 8 16 22</rect></_>
    <_>
      <rect>
        4 0 8 16 6</rect></_>
    <_>
      <rect>
        4 0 8 16 12</rect></_>
    <_>
      <rect>
        4 0 8 16 18</rect></_>
    <_>
      <rect>
        4 0 8 16 23</rect></_>
    <_>
      <rect>
        12 0 8 16 3</rect></_>
    <_>
      <rect>
        16 0 8 16 15</rect></_>
    <_>
      <rect>
        16 0 8 16 28</rect></_>
    <_>
      <rect>
        0 0 16 8 2</rect></_>
    <_>
      <rect>
        0 4 16 8 1</rect></_>
    <_>
      <rect>
        0 4 16 8 13</rect></_>
    <_>
      <rect>
        0 4 16 8 25</rect></_>
    <_>
      <rect>
        0 4 16 8 26</rect></_>
    <_>
      <rect>
        0 4 16 8 35</rect></_>
    <_>
      <rect>
        0 12 16 8 22</rect></_>
    <_>
      <rect>
        0 16 16 8 5</rect></_>
    <_>
      <rect>
        0 16 16 8 24</rect></_>
    <_>
      <rect>
        0 16 16 8 32</rect></_>
    <_>
      <rect>
        0 0 16 16 1</rect></_>
    <_>
      <rect>
        0 0 16 16 15</rect></_>
    <_>
      <rect>
        0 0 16 16 24</rect></_>
    <_>
      <rect>
        0 0 16 16 28</rect></_></features></cascade>
</opencv_storage>
