<?xml version="1.0"?>
<opencv_storage>
<!-- Created using Computer Vision System Toolbox(tm) for MATLAB(R) -->
<!-- Version 9.1.0.441655 (R2016b) -->
<!-- Compatible with OpenCV 2.4 -->
<cascade>
  <stageType>BOOST</stageType>
  <featureType>HOG</featureType>
  <height>33</height>
  <width>32</width>
  <stageParams>
    <boostType>GAB</boostType>
    <minHitRate>8.0000001192092896e-01</minHitRate>
    <maxFalseAlarm>2.0000000298023224e-01</maxFalseAlarm>
    <weightTrimRate>9.4999999999999996e-01</weightTrimRate>
    <maxDepth>1</maxDepth>
    <maxWeakCount>100</maxWeakCount></stageParams>
  <featureParams>
    <maxCatCount>0</maxCatCount>
    <featSize>36</featSize></featureParams>
  <stageNum>9</stageNum>
  <stages>
    <!-- stage 0 -->
    <_>
      <maxWeakCount>2</maxWeakCount>
      <stageThreshold>1.0970994234085083e+00</stageThreshold>
      <weakClassifiers>
        <_>
          <internalNodes>
            0 -1 21 1.4293706044554710e-02</internalNodes>
          <leafValues>
            -8.9576548337936401e-01 6.3510394096374512e-01</leafValues></_>
        <_>
          <internalNodes>
            0 -1 1 3.0862899497151375e-02</internalNodes>
          <leafValues>
            4.6199551224708557e-01 -8.5450768470764160e-01</leafValues></_></weakClassifiers></_>
    <!-- stage 1 -->
    <_>
      <maxWeakCount>3</maxWeakCount>
      <stageThreshold>7.6814550161361694e-01</stageThreshold>
      <weakClassifiers>
        <_>
          <internalNodes>
            0 -1 20 1.5275085344910622e-02</internalNodes>
          <leafValues>
            -8.6257928609848022e-01 6.4050233364105225e-01</leafValues></_>
        <_>
          <internalNodes>
            0 -1 14 2.1097887307405472e-02</internalNodes>
          <leafValues>
            -5.7398992776870728e-01 7.7354782819747925e-01</leafValues></_>
        <_>
          <internalNodes>
            0 -1 2 3.0242342501878738e-02</internalNodes>
          <leafValues>
            -5.6315422058105469e-01 7.0163309574127197e-01</leafValues></_></weakClassifiers></_>
    <!-- stage 2 -->
    <_>
      <maxWeakCount>2</maxWeakCount>
      <stageThreshold>8.2627213001251221e-01</stageThreshold>
      <weakClassifiers>
        <_>
          <internalNodes>
            0 -1 8 3.8836028426885605e-02</internalNodes>
          <leafValues>
            4.3349915742874146e-01 -9.1719299554824829e-01</leafValues></_>
        <_>
          <internalNodes>
            0 -1 12 3.9742887020111084e-02</internalNodes>
          <leafValues>
            3.9277294278144836e-01 -8.6283874511718750e-01</leafValues></_></weakClassifiers></_>
    <!-- stage 3 -->
    <_>
      <maxWeakCount>3</maxWeakCount>
      <stageThreshold>4.7172316908836365e-01</stageThreshold>
      <weakClassifiers>
        <_>
          <internalNodes>
            0 -1 15 5.0380311906337738e-02</internalNodes>
          <leafValues>
            4.9838998913764954e-01 -8.4680849313735962e-01</leafValues></_>
        <_>
          <internalNodes>
            0 -1 5 5.8373928070068359e-02</internalNodes>
          <leafValues>
            -4.6685123443603516e-01 9.0640658140182495e-01</leafValues></_>
        <_>
          <internalNodes>
            0 -1 16 1.0706248693168163e-02</internalNodes>
          <leafValues>
            -8.2492840290069580e-01 4.4018441438674927e-01</leafValues></_></weakClassifiers></_>
    <!-- stage 4 -->
    <_>
      <maxWeakCount>3</maxWeakCount>
      <stageThreshold>2.2499607503414154e-01</stageThreshold>
      <weakClassifiers>
        <_>
          <internalNodes>
            0 -1 13 3.3564709126949310e-02</internalNodes>
          <leafValues>
            -4.8894718289375305e-01 7.3687183856964111e-01</leafValues></_>
        <_>
          <internalNodes>
            0 -1 6 4.3191030621528625e-02</internalNodes>
          <leafValues>
            3.2963666319847107e-01 -7.6148098707199097e-01</leafValues></_>
        <_>
          <internalNodes>
            0 -1 7 2.8398610651493073e-02</internalNodes>
          <leafValues>
            -5.3775662183761597e-01 3.8430657982826233e-01</leafValues></_></weakClassifiers></_>
    <!-- stage 5 -->
    <_>
      <maxWeakCount>3</maxWeakCount>
      <stageThreshold>3.5963338613510132e-01</stageThreshold>
      <weakClassifiers>
        <_>
          <internalNodes>
            0 -1 0 4.4954571872949600e-02</internalNodes>
          <leafValues>
            -5.3663212060928345e-01 7.6322966814041138e-01</leafValues></_>
        <_>
          <internalNodes>
            0 -1 3 4.6934776008129120e-02</internalNodes>
          <leafValues>
            -3.3861172199249268e-01 5.8450388908386230e-01</leafValues></_>
        <_>
          <internalNodes>
            0 -1 18 2.3627717047929764e-02</internalNodes>
          <leafValues>
            3.1176164746284485e-01 -6.3231527805328369e-01</leafValues></_></weakClassifiers></_>
    <!-- stage 6 -->
    <_>
      <maxWeakCount>3</maxWeakCount>
      <stageThreshold>4.1720977425575256e-01</stageThreshold>
      <weakClassifiers>
        <_>
          <internalNodes>
            0 -1 9 5.9031464159488678e-02</internalNodes>
          <leafValues>
            -5.6792873144149780e-01 8.7628865242004395e-01</leafValues></_>
        <_>
          <internalNodes>
            0 -1 11 1.5749948099255562e-02</internalNodes>
          <leafValues>
            -7.4912297725677490e-01 4.8936051130294800e-01</leafValues></_>
        <_>
          <internalNodes>
            0 -1 4 2.1028270944952965e-02</internalNodes>
          <leafValues>
            4.9577799439430237e-01 -6.0843575000762939e-01</leafValues></_></weakClassifiers></_>
    <!-- stage 7 -->
    <_>
      <maxWeakCount>3</maxWeakCount>
      <stageThreshold>4.8313844203948975e-01</stageThreshold>
      <weakClassifiers>
        <_>
          <internalNodes>
            0 -1 10 5.6428600102663040e-02</internalNodes>
          <leafValues>
            -5.7064795494079590e-01 7.7848774194717407e-01</leafValues></_>
        <_>
          <internalNodes>
            0 -1 20 3.6797903478145599e-02</internalNodes>
          <leafValues>
            -4.7999879717826843e-01 6.4189362525939941e-01</leafValues></_>
        <_>
          <internalNodes>
            0 -1 19 1.8678341060876846e-02</internalNodes>
          <leafValues>
            4.1189277172088623e-01 -5.4778718948364258e-01</leafValues></_></weakClassifiers></_>
    <!-- stage 8 -->
    <_>
      <maxWeakCount>2</maxWeakCount>
      <stageThreshold>1.4926738739013672e+00</stageThreshold>
      <weakClassifiers>
        <_>
          <internalNodes>
            0 -1 17 3.6446951329708099e-02</internalNodes>
          <leafValues>
            -3.6434108018875122e-01 8.5895115137100220e-01</leafValues></_>
        <_>
          <internalNodes>
            0 -1 21 3.3717475831508636e-02</internalNodes>
          <leafValues>
            -5.9392899274826050e-01 6.3372272253036499e-01</leafValues></_></weakClassifiers></_></stages>
  <features>
    <_>
      <rect>
        0 0 8 8 19</rect></_>
    <_>
      <rect>
        0 4 8 8 22</rect></_>
    <_>
      <rect>
        4 0 8 8 12</rect></_>
    <_>
      <rect>
        4 8 8 8 35</rect></_>
    <_>
      <rect>
        8 0 8 8 8</rect></_>
    <_>
      <rect>
        12 4 8 8 15</rect></_>
    <_>
      <rect>
        12 4 8 8 17</rect></_>
    <_>
      <rect>
        12 12 8 8 28</rect></_>
    <_>
      <rect>
        16 4 8 8 31</rect></_>
    <_>
      <rect>
        16 8 8 8 15</rect></_>
    <_>
      <rect>
        16 12 8 8 28</rect></_>
    <_>
      <rect>
        0 0 8 16 11</rect></_>
    <_>
      <rect>
        0 0 8 16 22</rect></_>
    <_>
      <rect>
        0 0 8 16 24</rect></_>
    <_>
      <rect>
        12 0 8 16 15</rect></_>
    <_>
      <rect>
        0 4 16 8 13</rect></_>
    <_>
      <rect>
        0 4 16 8 34</rect></_>
    <_>
      <rect>
        0 0 16 16 1</rect></_>
    <_>
      <rect>
        0 0 16 16 5</rect></_>
    <_>
      <rect>
        0 0 16 16 10</rect></_>
    <_>
      <rect>
        0 0 16 16 24</rect></_>
    <_>
      <rect>
        0 0 16 16 28</rect></_></features></cascade>
</opencv_storage>
