<?xml version="1.0"?>
<opencv_storage>
<!-- Created using Computer Vision System Toolbox(tm) for MATLAB(R) -->
<!-- Version 9.1.0.441655 (R2016b) -->
<!-- Compatible with OpenCV 2.4 -->
<cascade>
  <stageType>BOOST</stageType>
  <featureType>HOG</featureType>
  <height>33</height>
  <width>32</width>
  <stageParams>
    <boostType>GAB</boostType>
    <minHitRate>8.5000002384185791e-01</minHitRate>
    <maxFalseAlarm>3.0000001192092896e-01</maxFalseAlarm>
    <weightTrimRate>9.4999999999999996e-01</weightTrimRate>
    <maxDepth>1</maxDepth>
    <maxWeakCount>100</maxWeakCount></stageParams>
  <featureParams>
    <maxCatCount>0</maxCatCount>
    <featSize>36</featSize></featureParams>
  <stageNum>12</stageNum>
  <stages>
    <!-- stage 0 -->
    <_>
      <maxWeakCount>1</maxWeakCount>
      <stageThreshold>6.5584218502044678e-01</stageThreshold>
      <weakClassifiers>
        <_>
          <internalNodes>
            0 -1 26 1.4293706044554710e-02</internalNodes>
          <leafValues>
            -8.9929252862930298e-01 6.5584218502044678e-01</leafValues></_></weakClassifiers></_>
    <!-- stage 1 -->
    <_>
      <maxWeakCount>1</maxWeakCount>
      <stageThreshold>6.4563584327697754e-01</stageThreshold>
      <weakClassifiers>
        <_>
          <internalNodes>
            0 -1 25 1.8859725445508957e-02</internalNodes>
          <leafValues>
            -7.4838954210281372e-01 6.4563584327697754e-01</leafValues></_></weakClassifiers></_>
    <!-- stage 2 -->
    <_>
      <maxWeakCount>1</maxWeakCount>
      <stageThreshold>5.9394997358322144e-01</stageThreshold>
      <weakClassifiers>
        <_>
          <internalNodes>
            0 -1 2 4.3454501777887344e-02</internalNodes>
          <leafValues>
            5.9394997358322144e-01 -9.0353983640670776e-01</leafValues></_></weakClassifiers></_>
    <!-- stage 3 -->
    <_>
      <maxWeakCount>1</maxWeakCount>
      <stageThreshold>5.4423749446868896e-01</stageThreshold>
      <weakClassifiers>
        <_>
          <internalNodes>
            0 -1 20 3.6119941622018814e-02</internalNodes>
          <leafValues>
            5.4423749446868896e-01 -8.2670205831527710e-01</leafValues></_></weakClassifiers></_>
    <!-- stage 4 -->
    <_>
      <maxWeakCount>3</maxWeakCount>
      <stageThreshold>2.9624646902084351e-01</stageThreshold>
      <weakClassifiers>
        <_>
          <internalNodes>
            0 -1 24 2.7662958949804306e-02</internalNodes>
          <leafValues>
            -5.7199209928512573e-01 6.5512049198150635e-01</leafValues></_>
        <_>
          <internalNodes>
            0 -1 17 1.4896663837134838e-02</internalNodes>
          <leafValues>
            -7.0028591156005859e-01 5.5977070331573486e-01</leafValues></_>
        <_>
          <internalNodes>
            0 -1 15 5.1836326718330383e-02</internalNodes>
          <leafValues>
            3.4141188859939575e-01 -9.2223465442657471e-01</leafValues></_></weakClassifiers></_>
    <!-- stage 5 -->
    <_>
      <maxWeakCount>4</maxWeakCount>
      <stageThreshold>1.4380300045013428e-01</stageThreshold>
      <weakClassifiers>
        <_>
          <internalNodes>
            0 -1 12 3.5204034298658371e-02</internalNodes>
          <leafValues>
            -5.4484760761260986e-01 8.3311140537261963e-01</leafValues></_>
        <_>
          <internalNodes>
            0 -1 11 4.1521213948726654e-02</internalNodes>
          <leafValues>
            5.0418418645858765e-01 -7.1090281009674072e-01</leafValues></_>
        <_>
          <internalNodes>
            0 -1 25 3.8914650678634644e-02</internalNodes>
          <leafValues>
            -3.5166770219802856e-01 8.6572360992431641e-01</leafValues></_>
        <_>
          <internalNodes>
            0 -1 4 1.2350914999842644e-02</internalNodes>
          <leafValues>
            -5.6990045309066772e-01 5.3613412380218506e-01</leafValues></_></weakClassifiers></_>
    <!-- stage 6 -->
    <_>
      <maxWeakCount>5</maxWeakCount>
      <stageThreshold>1.8947508931159973e-01</stageThreshold>
      <weakClassifiers>
        <_>
          <internalNodes>
            0 -1 26 3.8199733942747116e-02</internalNodes>
          <leafValues>
            -4.8684209585189819e-01 6.9158875942230225e-01</leafValues></_>
        <_>
          <internalNodes>
            0 -1 8 1.0994611307978630e-02</internalNodes>
          <leafValues>
            -7.4684804677963257e-01 3.2658988237380981e-01</leafValues></_>
        <_>
          <internalNodes>
            0 -1 13 3.9461232721805573e-02</internalNodes>
          <leafValues>
            2.4834838509559631e-01 -7.9469352960586548e-01</leafValues></_>
        <_>
          <internalNodes>
            0 -1 0 4.8775367438793182e-02</internalNodes>
          <leafValues>
            -3.0378726124763489e-01 6.8405419588088989e-01</leafValues></_>
        <_>
          <internalNodes>
            0 -1 3 1.7930375412106514e-02</internalNodes>
          <leafValues>
            -4.8395150899887085e-01 4.0516620874404907e-01</leafValues></_></weakClassifiers></_>
    <!-- stage 7 -->
    <_>
      <maxWeakCount>4</maxWeakCount>
      <stageThreshold>-8.3002924919128418e-02</stageThreshold>
      <weakClassifiers>
        <_>
          <internalNodes>
            0 -1 16 4.4155538082122803e-02</internalNodes>
          <leafValues>
            -5.0293868780136108e-01 8.4564703702926636e-01</leafValues></_>
        <_>
          <internalNodes>
            0 -1 23 1.8561802804470062e-02</internalNodes>
          <leafValues>
            4.6308371424674988e-01 -4.3593546748161316e-01</leafValues></_>
        <_>
          <internalNodes>
            0 -1 9 4.4337771832942963e-02</internalNodes>
          <leafValues>
            -3.4174707531929016e-01 5.0237613916397095e-01</leafValues></_>
        <_>
          <internalNodes>
            0 -1 1 2.4761613458395004e-02</internalNodes>
          <leafValues>
            2.9859915375709534e-01 -5.7580202817916870e-01</leafValues></_></weakClassifiers></_>
    <!-- stage 8 -->
    <_>
      <maxWeakCount>4</maxWeakCount>
      <stageThreshold>-4.5207656919956207e-02</stageThreshold>
      <weakClassifiers>
        <_>
          <internalNodes>
            0 -1 22 3.7909761071205139e-02</internalNodes>
          <leafValues>
            -6.3128143548965454e-01 7.9952269792556763e-01</leafValues></_>
        <_>
          <internalNodes>
            0 -1 6 2.3768424987792969e-02</internalNodes>
          <leafValues>
            5.5152326822280884e-01 -6.3010740280151367e-01</leafValues></_>
        <_>
          <internalNodes>
            0 -1 14 4.2388062924146652e-02</internalNodes>
          <leafValues>
            -4.1996398568153381e-01 7.1309626102447510e-01</leafValues></_>
        <_>
          <internalNodes>
            0 -1 7 2.8850533068180084e-02</internalNodes>
          <leafValues>
            4.5451447367668152e-01 -6.0601484775543213e-01</leafValues></_></weakClassifiers></_>
    <!-- stage 9 -->
    <_>
      <maxWeakCount>3</maxWeakCount>
      <stageThreshold>1.2323720753192902e-01</stageThreshold>
      <weakClassifiers>
        <_>
          <internalNodes>
            0 -1 19 3.5580091178417206e-02</internalNodes>
          <leafValues>
            -6.6165161132812500e-01 7.3106759786605835e-01</leafValues></_>
        <_>
          <internalNodes>
            0 -1 21 3.6840662360191345e-02</internalNodes>
          <leafValues>
            3.6255136132240295e-01 -8.4032618999481201e-01</leafValues></_>
        <_>
          <internalNodes>
            0 -1 18 1.7314959317445755e-02</internalNodes>
          <leafValues>
            4.2233747243881226e-01 -5.8769404888153076e-01</leafValues></_></weakClassifiers></_>
    <!-- stage 10 -->
    <_>
      <maxWeakCount>1</maxWeakCount>
      <stageThreshold>6.1853951215744019e-01</stageThreshold>
      <weakClassifiers>
        <_>
          <internalNodes>
            0 -1 8 3.8524024188518524e-02</internalNodes>
          <leafValues>
            -6.8729156255722046e-01 6.1853951215744019e-01</leafValues></_></weakClassifiers></_>
    <!-- stage 11 -->
    <_>
      <maxWeakCount>3</maxWeakCount>
      <stageThreshold>5.9314769506454468e-01</stageThreshold>
      <weakClassifiers>
        <_>
          <internalNodes>
            0 -1 0 3.4280784428119659e-02</internalNodes>
          <leafValues>
            -6.9519150257110596e-01 6.1157554388046265e-01</leafValues></_>
        <_>
          <internalNodes>
            0 -1 10 3.9431303739547729e-02</internalNodes>
          <leafValues>
            -6.9798135757446289e-01 5.0900310277938843e-01</leafValues></_>
        <_>
          <internalNodes>
            0 -1 5 6.1643555760383606e-02</internalNodes>
          <leafValues>
            -3.9465349912643433e-01 6.7955344915390015e-01</leafValues></_></weakClassifiers></_></stages>
  <features>
    <_>
      <rect>
        0 0 8 8 19</rect></_>
    <_>
      <rect>
        0 0 8 8 22</rect></_>
    <_>
      <rect>
        0 4 8 8 22</rect></_>
    <_>
      <rect>
        0 4 8 8 25</rect></_>
    <_>
      <rect>
        4 4 8 8 27</rect></_>
    <_>
      <rect>
        4 12 8 8 17</rect></_>
    <_>
      <rect>
        8 0 8 8 8</rect></_>
    <_>
      <rect>
        8 0 8 8 17</rect></_>
    <_>
      <rect>
        12 4 8 8 15</rect></_>
    <_>
      <rect>
        12 8 8 8 26</rect></_>
    <_>
      <rect>
        12 12 8 8 28</rect></_>
    <_>
      <rect>
        12 16 8 8 35</rect></_>
    <_>
      <rect>
        16 0 8 8 33</rect></_>
    <_>
      <rect>
        16 8 8 8 13</rect></_>
    <_>
      <rect>
        16 8 8 8 15</rect></_>
    <_>
      <rect>
        0 0 8 16 22</rect></_>
    <_>
      <rect>
        4 0 8 16 1</rect></_>
    <_>
      <rect>
        4 0 8 16 12</rect></_>
    <_>
      <rect>
        16 0 8 16 10</rect></_>
    <_>
      <rect>
        16 0 8 16 28</rect></_>
    <_>
      <rect>
        16 0 8 16 31</rect></_>
    <_>
      <rect>
        0 16 16 8 4</rect></_>
    <_>
      <rect>
        0 0 16 16 1</rect></_>
    <_>
      <rect>
        0 0 16 16 5</rect></_>
    <_>
      <rect>
        0 0 16 16 15</rect></_>
    <_>
      <rect>
        0 0 16 16 24</rect></_>
    <_>
      <rect>
        0 0 16 16 28</rect></_></features></cascade>
</opencv_storage>
