<?xml version="1.0"?>
<opencv_storage>
<!-- Created using Computer Vision System Toolbox(tm) for MATLAB(R) -->
<!-- Version 9.1.0.441655 (R2016b) -->
<!-- Compatible with OpenCV 2.4 -->
<cascade>
  <stageType>BOOST</stageType>
  <featureType>HOG</featureType>
  <height>33</height>
  <width>32</width>
  <stageParams>
    <boostType>GAB</boostType>
    <minHitRate>9.4999998807907104e-01</minHitRate>
    <maxFalseAlarm>1.0000000149011612e-01</maxFalseAlarm>
    <weightTrimRate>9.4999999999999996e-01</weightTrimRate>
    <maxDepth>1</maxDepth>
    <maxWeakCount>100</maxWeakCount></stageParams>
  <featureParams>
    <maxCatCount>0</maxCatCount>
    <featSize>36</featSize></featureParams>
  <stageNum>9</stageNum>
  <stages>
    <!-- stage 0 -->
    <_>
      <maxWeakCount>4</maxWeakCount>
      <stageThreshold>6.3980489969253540e-01</stageThreshold>
      <weakClassifiers>
        <_>
          <internalNodes>
            0 -1 130 1.4293706044554710e-02</internalNodes>
          <leafValues>
            -8.9786165952682495e-01 6.5330404043197632e-01</leafValues></_>
        <_>
          <internalNodes>
            0 -1 9 3.1282931566238403e-02</internalNodes>
          <leafValues>
            4.6870243549346924e-01 -8.4202718734741211e-01</leafValues></_>
        <_>
          <internalNodes>
            0 -1 129 1.3868168927729130e-02</internalNodes>
          <leafValues>
            -8.0428332090377808e-01 4.8054471611976624e-01</leafValues></_>
        <_>
          <internalNodes>
            0 -1 102 6.8919127807021141e-03</internalNodes>
          <leafValues>
            -8.9661729335784912e-01 3.4798336029052734e-01</leafValues></_></weakClassifiers></_>
    <!-- stage 1 -->
    <_>
      <maxWeakCount>6</maxWeakCount>
      <stageThreshold>-4.8428276181221008e-01</stageThreshold>
      <weakClassifiers>
        <_>
          <internalNodes>
            0 -1 97 3.5156551748514175e-02</internalNodes>
          <leafValues>
            -4.3318894505500793e-01 7.5669384002685547e-01</leafValues></_>
        <_>
          <internalNodes>
            0 -1 105 1.1576442047953606e-02</internalNodes>
          <leafValues>
            -8.1042706966400146e-01 4.1290199756622314e-01</leafValues></_>
        <_>
          <internalNodes>
            0 -1 104 3.7838064134120941e-02</internalNodes>
          <leafValues>
            3.2846125960350037e-01 -8.0025380849838257e-01</leafValues></_>
        <_>
          <internalNodes>
            0 -1 112 1.5271978452801704e-02</internalNodes>
          <leafValues>
            -6.1203169822692871e-01 4.3582823872566223e-01</leafValues></_>
        <_>
          <internalNodes>
            0 -1 92 1.2924051843583584e-02</internalNodes>
          <leafValues>
            -7.2449332475662231e-01 2.9642710089683533e-01</leafValues></_>
        <_>
          <internalNodes>
            0 -1 129 2.0633323118090630e-02</internalNodes>
          <leafValues>
            -5.6495970487594604e-01 4.9303939938545227e-01</leafValues></_></weakClassifiers></_>
    <!-- stage 2 -->
    <_>
      <maxWeakCount>9</maxWeakCount>
      <stageThreshold>9.1070234775543213e-02</stageThreshold>
      <weakClassifiers>
        <_>
          <internalNodes>
            0 -1 14 2.1032983437180519e-02</internalNodes>
          <leafValues>
            5.5507814884185791e-01 -6.5817511081695557e-01</leafValues></_>
        <_>
          <internalNodes>
            0 -1 98 3.5207308828830719e-02</internalNodes>
          <leafValues>
            -4.4260337948799133e-01 5.2239847183227539e-01</leafValues></_>
        <_>
          <internalNodes>
            0 -1 54 1.2780470773577690e-02</internalNodes>
          <leafValues>
            -7.0130556821823120e-01 3.4449380636215210e-01</leafValues></_>
        <_>
          <internalNodes>
            0 -1 76 4.8785001039505005e-02</internalNodes>
          <leafValues>
            3.3776220679283142e-01 -7.5005042552947998e-01</leafValues></_>
        <_>
          <internalNodes>
            0 -1 19 1.7522044479846954e-02</internalNodes>
          <leafValues>
            -6.2096136808395386e-01 4.0117982029914856e-01</leafValues></_>
        <_>
          <internalNodes>
            0 -1 88 4.6174630522727966e-02</internalNodes>
          <leafValues>
            2.7494588494300842e-01 -7.0354592800140381e-01</leafValues></_>
        <_>
          <internalNodes>
            0 -1 3 3.0277125537395477e-02</internalNodes>
          <leafValues>
            3.1475040316581726e-01 -6.1729413270950317e-01</leafValues></_>
        <_>
          <internalNodes>
            0 -1 85 5.6940704584121704e-02</internalNodes>
          <leafValues>
            1.7728433012962341e-01 -8.0429118871688843e-01</leafValues></_>
        <_>
          <internalNodes>
            0 -1 60 1.0548567399382591e-02</internalNodes>
          <leafValues>
            -5.5792021751403809e-01 3.2300776243209839e-01</leafValues></_></weakClassifiers></_>
    <!-- stage 3 -->
    <_>
      <maxWeakCount>11</maxWeakCount>
      <stageThreshold>3.7495795637369156e-02</stageThreshold>
      <weakClassifiers>
        <_>
          <internalNodes>
            0 -1 55 4.1891533881425858e-02</internalNodes>
          <leafValues>
            -4.4939416646957397e-01 6.5917408466339111e-01</leafValues></_>
        <_>
          <internalNodes>
            0 -1 66 2.2040553390979767e-02</internalNodes>
          <leafValues>
            -5.5856394767761230e-01 3.2274472713470459e-01</leafValues></_>
        <_>
          <internalNodes>
            0 -1 95 2.9748762026429176e-02</internalNodes>
          <leafValues>
            -4.0380167961120605e-01 4.4316920638084412e-01</leafValues></_>
        <_>
          <internalNodes>
            0 -1 57 1.5610196627676487e-02</internalNodes>
          <leafValues>
            -4.9240273237228394e-01 4.2942765355110168e-01</leafValues></_>
        <_>
          <internalNodes>
            0 -1 73 1.2610560283064842e-02</internalNodes>
          <leafValues>
            -6.4296454191207886e-01 2.4755221605300903e-01</leafValues></_>
        <_>
          <internalNodes>
            0 -1 14 7.5720744207501411e-03</internalNodes>
          <leafValues>
            5.8616220951080322e-01 -3.2660129666328430e-01</leafValues></_>
        <_>
          <internalNodes>
            0 -1 82 7.2734556160867214e-03</internalNodes>
          <leafValues>
            -6.3992214202880859e-01 2.7834028005599976e-01</leafValues></_>
        <_>
          <internalNodes>
            0 -1 78 2.0597618073225021e-02</internalNodes>
          <leafValues>
            2.9430684447288513e-01 -4.9885571002960205e-01</leafValues></_>
        <_>
          <internalNodes>
            0 -1 99 2.2854693233966827e-02</internalNodes>
          <leafValues>
            2.6682582497596741e-01 -5.8782696723937988e-01</leafValues></_>
        <_>
          <internalNodes>
            0 -1 27 6.3972864300012589e-03</internalNodes>
          <leafValues>
            -7.8283643722534180e-01 1.7205928266048431e-01</leafValues></_>
        <_>
          <internalNodes>
            0 -1 15 5.1169369369745255e-02</internalNodes>
          <leafValues>
            1.3995759189128876e-01 -7.6571065187454224e-01</leafValues></_></weakClassifiers></_>
    <!-- stage 4 -->
    <_>
      <maxWeakCount>22</maxWeakCount>
      <stageThreshold>-1.5832512080669403e-01</stageThreshold>
      <weakClassifiers>
        <_>
          <internalNodes>
            0 -1 125 4.5773856341838837e-02</internalNodes>
          <leafValues>
            -3.2858872413635254e-01 7.6570218801498413e-01</leafValues></_>
        <_>
          <internalNodes>
            0 -1 89 1.3659339398145676e-02</internalNodes>
          <leafValues>
            -5.4364371299743652e-01 2.3622150719165802e-01</leafValues></_>
        <_>
          <internalNodes>
            0 -1 80 1.8654871731996536e-02</internalNodes>
          <leafValues>
            2.3814839124679565e-01 -4.5687454938888550e-01</leafValues></_>
        <_>
          <internalNodes>
            0 -1 71 3.5103715956211090e-02</internalNodes>
          <leafValues>
            2.1676647663116455e-01 -5.5480223894119263e-01</leafValues></_>
        <_>
          <internalNodes>
            0 -1 2 2.3884251713752747e-02</internalNodes>
          <leafValues>
            -4.4059890508651733e-01 2.0307797193527222e-01</leafValues></_>
        <_>
          <internalNodes>
            0 -1 64 6.4827248454093933e-02</internalNodes>
          <leafValues>
            -1.9170291721820831e-01 4.9876540899276733e-01</leafValues></_>
        <_>
          <internalNodes>
            0 -1 88 5.5649645626544952e-02</internalNodes>
          <leafValues>
            1.0314013808965683e-01 -8.3436971902847290e-01</leafValues></_>
        <_>
          <internalNodes>
            0 -1 103 2.0340228453278542e-02</internalNodes>
          <leafValues>
            -4.5323255658149719e-01 1.9068636000156403e-01</leafValues></_>
        <_>
          <internalNodes>
            0 -1 36 3.7121348083019257e-02</internalNodes>
          <leafValues>
            1.0852699726819992e-01 -5.6666755676269531e-01</leafValues></_>
        <_>
          <internalNodes>
            0 -1 75 7.4534870684146881e-02</internalNodes>
          <leafValues>
            9.8596848547458649e-02 -7.3867261409759521e-01</leafValues></_>
        <_>
          <internalNodes>
            0 -1 11 2.9555991291999817e-02</internalNodes>
          <leafValues>
            1.3821175694465637e-01 -5.3189492225646973e-01</leafValues></_>
        <_>
          <internalNodes>
            0 -1 72 1.4648841693997383e-02</internalNodes>
          <leafValues>
            -4.0232869982719421e-01 1.7418751120567322e-01</leafValues></_>
        <_>
          <internalNodes>
            0 -1 129 2.5947220623493195e-02</internalNodes>
          <leafValues>
            -2.5714612007141113e-01 2.9004314541816711e-01</leafValues></_>
        <_>
          <internalNodes>
            0 -1 126 2.7887929230928421e-02</internalNodes>
          <leafValues>
            1.0289908945560455e-01 -6.4271527528762817e-01</leafValues></_>
        <_>
          <internalNodes>
            0 -1 101 9.2423437163233757e-03</internalNodes>
          <leafValues>
            -6.4169466495513916e-01 1.0142975300550461e-01</leafValues></_>
        <_>
          <internalNodes>
            0 -1 117 4.2900249361991882e-02</internalNodes>
          <leafValues>
            1.2140187621116638e-01 -5.4704874753952026e-01</leafValues></_>
        <_>
          <internalNodes>
            0 -1 61 9.8198205232620239e-02</internalNodes>
          <leafValues>
            8.0771535634994507e-02 -7.6859062910079956e-01</leafValues></_>
        <_>
          <internalNodes>
            0 -1 109 1.2313786894083023e-02</internalNodes>
          <leafValues>
            -4.5229372382164001e-01 1.5486210584640503e-01</leafValues></_>
        <_>
          <internalNodes>
            0 -1 124 3.4410797059535980e-02</internalNodes>
          <leafValues>
            1.2016148120164871e-01 -6.9203203916549683e-01</leafValues></_>
        <_>
          <internalNodes>
            0 -1 69 2.3141268640756607e-02</internalNodes>
          <leafValues>
            -3.3449923992156982e-01 2.0756350457668304e-01</leafValues></_>
        <_>
          <internalNodes>
            0 -1 16 6.9269627332687378e-02</internalNodes>
          <leafValues>
            9.2716388404369354e-02 -6.3924002647399902e-01</leafValues></_>
        <_>
          <internalNodes>
            0 -1 31 1.0354420170187950e-02</internalNodes>
          <leafValues>
            -4.3610897660255432e-01 1.2017032504081726e-01</leafValues></_></weakClassifiers></_>
    <!-- stage 5 -->
    <_>
      <maxWeakCount>23</maxWeakCount>
      <stageThreshold>-2.4744425714015961e-01</stageThreshold>
      <weakClassifiers>
        <_>
          <internalNodes>
            0 -1 4 5.0654239952564240e-02</internalNodes>
          <leafValues>
            -3.7938460707664490e-01 8.3934646844863892e-01</leafValues></_>
        <_>
          <internalNodes>
            0 -1 102 4.4649157673120499e-02</internalNodes>
          <leafValues>
            -1.7491324245929718e-01 6.8714785575866699e-01</leafValues></_>
        <_>
          <internalNodes>
            0 -1 43 2.2361453622579575e-02</internalNodes>
          <leafValues>
            2.9195234179496765e-01 -5.3084838390350342e-01</leafValues></_>
        <_>
          <internalNodes>
            0 -1 41 1.3506920076906681e-02</internalNodes>
          <leafValues>
            3.1275823712348938e-01 -3.6306482553482056e-01</leafValues></_>
        <_>
          <internalNodes>
            0 -1 115 4.1804779320955276e-02</internalNodes>
          <leafValues>
            -2.8559648990631104e-01 3.3964738249778748e-01</leafValues></_>
        <_>
          <internalNodes>
            0 -1 52 4.5459456741809845e-02</internalNodes>
          <leafValues>
            -1.6992077231407166e-01 5.0566786527633667e-01</leafValues></_>
        <_>
          <internalNodes>
            0 -1 20 8.0549135804176331e-02</internalNodes>
          <leafValues>
            -6.2714315950870514e-02 7.6024782657623291e-01</leafValues></_>
        <_>
          <internalNodes>
            0 -1 119 3.3405814319849014e-02</internalNodes>
          <leafValues>
            -3.4034714102745056e-01 2.7503368258476257e-01</leafValues></_>
        <_>
          <internalNodes>
            0 -1 44 4.1918225586414337e-02</internalNodes>
          <leafValues>
            -1.9919617474079132e-01 4.9807584285736084e-01</leafValues></_>
        <_>
          <internalNodes>
            0 -1 18 7.0996969938278198e-02</internalNodes>
          <leafValues>
            -6.1231285333633423e-02 7.9590171575546265e-01</leafValues></_>
        <_>
          <internalNodes>
            0 -1 28 1.5985328704118729e-02</internalNodes>
          <leafValues>
            -4.5400747656822205e-01 1.8373291194438934e-01</leafValues></_>
        <_>
          <internalNodes>
            0 -1 120 7.1151480078697205e-02</internalNodes>
          <leafValues>
            -1.1282649636268616e-01 7.1176731586456299e-01</leafValues></_>
        <_>
          <internalNodes>
            0 -1 32 3.4060314297676086e-02</internalNodes>
          <leafValues>
            -1.7497879266738892e-01 3.3934801816940308e-01</leafValues></_>
        <_>
          <internalNodes>
            0 -1 21 2.6912845671176910e-02</internalNodes>
          <leafValues>
            1.2555639445781708e-01 -5.2119785547256470e-01</leafValues></_>
        <_>
          <internalNodes>
            0 -1 128 3.5124816000461578e-02</internalNodes>
          <leafValues>
            -1.7254094779491425e-01 3.7754315137863159e-01</leafValues></_>
        <_>
          <internalNodes>
            0 -1 0 5.9833675622940063e-03</internalNodes>
          <leafValues>
            -5.1773279905319214e-01 1.2928074598312378e-01</leafValues></_>
        <_>
          <internalNodes>
            0 -1 90 2.5820374488830566e-02</internalNodes>
          <leafValues>
            -2.7526307106018066e-01 2.4841828644275665e-01</leafValues></_>
        <_>
          <internalNodes>
            0 -1 111 4.6505779027938843e-02</internalNodes>
          <leafValues>
            1.4288440346717834e-01 -4.3272608518600464e-01</leafValues></_>
        <_>
          <internalNodes>
            0 -1 30 3.6574609577655792e-02</internalNodes>
          <leafValues>
            -2.3417346179485321e-01 2.8798249363899231e-01</leafValues></_>
        <_>
          <internalNodes>
            0 -1 8 6.2715932726860046e-02</internalNodes>
          <leafValues>
            -9.5314159989356995e-02 5.6420844793319702e-01</leafValues></_>
        <_>
          <internalNodes>
            0 -1 118 8.8459961116313934e-03</internalNodes>
          <leafValues>
            -5.8698350191116333e-01 1.1024669557809830e-01</leafValues></_>
        <_>
          <internalNodes>
            0 -1 24 2.9206197708845139e-02</internalNodes>
          <leafValues>
            1.1399425566196442e-01 -4.3363139033317566e-01</leafValues></_>
        <_>
          <internalNodes>
            0 -1 122 1.1352307163178921e-02</internalNodes>
          <leafValues>
            -5.7074993848800659e-01 8.6543656885623932e-02</leafValues></_></weakClassifiers></_>
    <!-- stage 6 -->
    <_>
      <maxWeakCount>18</maxWeakCount>
      <stageThreshold>-1.5295547246932983e-01</stageThreshold>
      <weakClassifiers>
        <_>
          <internalNodes>
            0 -1 10 2.4366417899727821e-02</internalNodes>
          <leafValues>
            4.5030018687248230e-01 -7.8442764282226563e-01</leafValues></_>
        <_>
          <internalNodes>
            0 -1 129 4.1164979338645935e-02</internalNodes>
          <leafValues>
            -3.6798173189163208e-01 6.5919351577758789e-01</leafValues></_>
        <_>
          <internalNodes>
            0 -1 96 3.6931335926055908e-02</internalNodes>
          <leafValues>
            2.2484181821346283e-01 -8.2461494207382202e-01</leafValues></_>
        <_>
          <internalNodes>
            0 -1 33 5.3492844104766846e-02</internalNodes>
          <leafValues>
            -3.0545750260353088e-01 4.7206217050552368e-01</leafValues></_>
        <_>
          <internalNodes>
            0 -1 106 1.4773584902286530e-02</internalNodes>
          <leafValues>
            -6.1908608675003052e-01 2.4970613420009613e-01</leafValues></_>
        <_>
          <internalNodes>
            0 -1 39 6.0485731810331345e-02</internalNodes>
          <leafValues>
            -3.5220304131507874e-01 4.1713348031044006e-01</leafValues></_>
        <_>
          <internalNodes>
            0 -1 130 3.0061736702919006e-02</internalNodes>
          <leafValues>
            -2.9604452848434448e-01 4.2539390921592712e-01</leafValues></_>
        <_>
          <internalNodes>
            0 -1 115 1.1596914380788803e-02</internalNodes>
          <leafValues>
            -7.5557148456573486e-01 8.7954327464103699e-02</leafValues></_>
        <_>
          <internalNodes>
            0 -1 77 5.5269841104745865e-02</internalNodes>
          <leafValues>
            -1.6347481310367584e-01 5.8534532785415649e-01</leafValues></_>
        <_>
          <internalNodes>
            0 -1 22 2.0357003435492516e-02</internalNodes>
          <leafValues>
            2.6713159680366516e-01 -3.9872255921363831e-01</leafValues></_>
        <_>
          <internalNodes>
            0 -1 48 3.0822241678833961e-02</internalNodes>
          <leafValues>
            1.8716517090797424e-01 -4.5758366584777832e-01</leafValues></_>
        <_>
          <internalNodes>
            0 -1 34 5.1237590610980988e-02</internalNodes>
          <leafValues>
            3.9868500083684921e-02 -7.9580032825469971e-01</leafValues></_>
        <_>
          <internalNodes>
            0 -1 80 6.8651605397462845e-03</internalNodes>
          <leafValues>
            4.2980566620826721e-01 -1.8378035724163055e-01</leafValues></_>
        <_>
          <internalNodes>
            0 -1 51 4.1887075640261173e-03</internalNodes>
          <leafValues>
            -8.3679133653640747e-01 9.4168424606323242e-02</leafValues></_>
        <_>
          <internalNodes>
            0 -1 13 2.2888686507940292e-02</internalNodes>
          <leafValues>
            1.4252157509326935e-01 -4.7732582688331604e-01</leafValues></_>
        <_>
          <internalNodes>
            0 -1 87 4.7679901123046875e-02</internalNodes>
          <leafValues>
            5.2825279533863068e-02 -8.8020366430282593e-01</leafValues></_>
        <_>
          <internalNodes>
            0 -1 83 3.3402331173419952e-02</internalNodes>
          <leafValues>
            8.7301366031169891e-02 -6.6251641511917114e-01</leafValues></_>
        <_>
          <internalNodes>
            0 -1 25 1.1506816372275352e-02</internalNodes>
          <leafValues>
            -4.5778280496597290e-01 1.4549158513545990e-01</leafValues></_></weakClassifiers></_>
    <!-- stage 7 -->
    <_>
      <maxWeakCount>35</maxWeakCount>
      <stageThreshold>-2.4927312135696411e-01</stageThreshold>
      <weakClassifiers>
        <_>
          <internalNodes>
            0 -1 55 5.0222452729940414e-02</internalNodes>
          <leafValues>
            -3.7615764141082764e-01 5.7746475934982300e-01</leafValues></_>
        <_>
          <internalNodes>
            0 -1 130 5.5150616914033890e-02</internalNodes>
          <leafValues>
            -1.5479564666748047e-01 6.3518071174621582e-01</leafValues></_>
        <_>
          <internalNodes>
            0 -1 115 5.6190688163042068e-02</internalNodes>
          <leafValues>
            -1.8933676183223724e-01 4.1065022349357605e-01</leafValues></_>
        <_>
          <internalNodes>
            0 -1 50 1.6929324716329575e-02</internalNodes>
          <leafValues>
            2.4561671912670135e-01 -3.2811257243156433e-01</leafValues></_>
        <_>
          <internalNodes>
            0 -1 27 5.3421534597873688e-02</internalNodes>
          <leafValues>
            -1.8925604224205017e-01 3.9403936266899109e-01</leafValues></_>
        <_>
          <internalNodes>
            0 -1 44 6.1557099223136902e-02</internalNodes>
          <leafValues>
            -1.4338526129722595e-01 5.5188465118408203e-01</leafValues></_>
        <_>
          <internalNodes>
            0 -1 59 7.1708662435412407e-03</internalNodes>
          <leafValues>
            4.4065502285957336e-01 -1.3451001048088074e-01</leafValues></_>
        <_>
          <internalNodes>
            0 -1 113 5.1873747259378433e-02</internalNodes>
          <leafValues>
            -1.9383178651332855e-01 3.0418917536735535e-01</leafValues></_>
        <_>
          <internalNodes>
            0 -1 105 1.4782678335905075e-02</internalNodes>
          <leafValues>
            -5.6324386596679688e-01 1.2271557003259659e-01</leafValues></_>
        <_>
          <internalNodes>
            0 -1 5 4.0733993053436279e-02</internalNodes>
          <leafValues>
            1.1533786356449127e-01 -4.1623151302337646e-01</leafValues></_>
        <_>
          <internalNodes>
            0 -1 29 4.8138961195945740e-02</internalNodes>
          <leafValues>
            1.2473109364509583e-01 -5.0015407800674438e-01</leafValues></_>
        <_>
          <internalNodes>
            0 -1 127 3.1725428998470306e-02</internalNodes>
          <leafValues>
            6.9585360586643219e-02 -6.3488090038299561e-01</leafValues></_>
        <_>
          <internalNodes>
            0 -1 23 7.8839302062988281e-02</internalNodes>
          <leafValues>
            -1.2586732208728790e-01 4.0950208902359009e-01</leafValues></_>
        <_>
          <internalNodes>
            0 -1 26 2.2371355444192886e-02</internalNodes>
          <leafValues>
            1.3532288372516632e-01 -3.7687936425209045e-01</leafValues></_>
        <_>
          <internalNodes>
            0 -1 37 7.8546749427914619e-03</internalNodes>
          <leafValues>
            -4.5166721940040588e-01 1.1629295349121094e-01</leafValues></_>
        <_>
          <internalNodes>
            0 -1 80 1.4379613101482391e-02</internalNodes>
          <leafValues>
            1.7453171312808990e-01 -2.7472528815269470e-01</leafValues></_>
        <_>
          <internalNodes>
            0 -1 45 3.0348956584930420e-02</internalNodes>
          <leafValues>
            1.6079346835613251e-01 -3.1488034129142761e-01</leafValues></_>
        <_>
          <internalNodes>
            0 -1 123 1.1109175160527229e-02</internalNodes>
          <leafValues>
            -5.2059847116470337e-01 9.3772977590560913e-02</leafValues></_>
        <_>
          <internalNodes>
            0 -1 17 4.6502754092216492e-02</internalNodes>
          <leafValues>
            -1.5435600280761719e-01 3.6471369862556458e-01</leafValues></_>
        <_>
          <internalNodes>
            0 -1 79 3.7306841462850571e-02</internalNodes>
          <leafValues>
            8.2676284015178680e-02 -5.9468877315521240e-01</leafValues></_>
        <_>
          <internalNodes>
            0 -1 53 4.5179270207881927e-02</internalNodes>
          <leafValues>
            8.6903780698776245e-02 -4.7788712382316589e-01</leafValues></_>
        <_>
          <internalNodes>
            0 -1 84 1.1306945234537125e-02</internalNodes>
          <leafValues>
            -4.6493655443191528e-01 9.3808919191360474e-02</leafValues></_>
        <_>
          <internalNodes>
            0 -1 56 3.7407070398330688e-02</internalNodes>
          <leafValues>
            9.4599932432174683e-02 -5.1378536224365234e-01</leafValues></_>
        <_>
          <internalNodes>
            0 -1 107 1.0717529803514481e-02</internalNodes>
          <leafValues>
            -5.0019550323486328e-01 9.5984421670436859e-02</leafValues></_>
        <_>
          <internalNodes>
            0 -1 86 2.2719092667102814e-02</internalNodes>
          <leafValues>
            1.1353500187397003e-01 -4.4140201807022095e-01</leafValues></_>
        <_>
          <internalNodes>
            0 -1 6 2.7629122138023376e-02</internalNodes>
          <leafValues>
            -1.5825685858726501e-01 3.5847678780555725e-01</leafValues></_>
        <_>
          <internalNodes>
            0 -1 47 2.4629224091768265e-02</internalNodes>
          <leafValues>
            1.2519623339176178e-01 -4.0383642911911011e-01</leafValues></_>
        <_>
          <internalNodes>
            0 -1 38 8.1960648298263550e-02</internalNodes>
          <leafValues>
            -7.5752340257167816e-02 6.8559235334396362e-01</leafValues></_>
        <_>
          <internalNodes>
            0 -1 67 1.3341396115720272e-02</internalNodes>
          <leafValues>
            -3.5236740112304688e-01 1.3966645300388336e-01</leafValues></_>
        <_>
          <internalNodes>
            0 -1 40 1.3317224569618702e-02</internalNodes>
          <leafValues>
            1.7565813660621643e-01 -2.6051464676856995e-01</leafValues></_>
        <_>
          <internalNodes>
            0 -1 65 5.5476546287536621e-02</internalNodes>
          <leafValues>
            -1.3197062909603119e-01 3.9506655931472778e-01</leafValues></_>
        <_>
          <internalNodes>
            0 -1 49 2.8397627174854279e-02</internalNodes>
          <leafValues>
            1.0439030081033707e-01 -4.8513463139533997e-01</leafValues></_>
        <_>
          <internalNodes>
            0 -1 68 2.3795913904905319e-02</internalNodes>
          <leafValues>
            -3.0274817347526550e-01 1.7159806191921234e-01</leafValues></_>
        <_>
          <internalNodes>
            0 -1 20 1.0088275372982025e-01</internalNodes>
          <leafValues>
            -7.7729910612106323e-02 5.8896541595458984e-01</leafValues></_>
        <_>
          <internalNodes>
            0 -1 100 2.0192483440041542e-02</internalNodes>
          <leafValues>
            -3.5061961412429810e-01 1.3808843493461609e-01</leafValues></_></weakClassifiers></_>
    <!-- stage 8 -->
    <_>
      <maxWeakCount>26</maxWeakCount>
      <stageThreshold>6.0084331035614014e-01</stageThreshold>
      <weakClassifiers>
        <_>
          <internalNodes>
            0 -1 121 2.8371863067150116e-02</internalNodes>
          <leafValues>
            4.0080970525741577e-01 8.5247629880905151e-01</leafValues></_>
        <_>
          <internalNodes>
            0 -1 108 5.8709319680929184e-02</internalNodes>
          <leafValues>
            1.7732104286551476e-02 7.2194379568099976e-01</leafValues></_>
        <_>
          <internalNodes>
            0 -1 55 7.3461912572383881e-02</internalNodes>
          <leafValues>
            -1.4154264330863953e-01 5.1025295257568359e-01</leafValues></_>
        <_>
          <internalNodes>
            0 -1 7 5.7762287557125092e-02</internalNodes>
          <leafValues>
            -1.0961763560771942e-01 6.4140576124191284e-01</leafValues></_>
        <_>
          <internalNodes>
            0 -1 70 9.4433911144733429e-03</internalNodes>
          <leafValues>
            2.7104133367538452e-01 -2.7791616320610046e-01</leafValues></_>
        <_>
          <internalNodes>
            0 -1 94 4.4094897806644440e-02</internalNodes>
          <leafValues>
            9.2719539999961853e-02 -6.0278671979904175e-01</leafValues></_>
        <_>
          <internalNodes>
            0 -1 93 4.5878529548645020e-02</internalNodes>
          <leafValues>
            1.3404655456542969e-01 -5.7191801071166992e-01</leafValues></_>
        <_>
          <internalNodes>
            0 -1 98 2.6645345613360405e-02</internalNodes>
          <leafValues>
            -3.7453594803810120e-01 1.7206113040447235e-01</leafValues></_>
        <_>
          <internalNodes>
            0 -1 110 2.6699949055910110e-02</internalNodes>
          <leafValues>
            -3.5157558321952820e-01 1.8652060627937317e-01</leafValues></_>
        <_>
          <internalNodes>
            0 -1 91 2.7334127575159073e-02</internalNodes>
          <leafValues>
            1.9369499385356903e-01 -4.3645307421684265e-01</leafValues></_>
        <_>
          <internalNodes>
            0 -1 35 4.6068347990512848e-02</internalNodes>
          <leafValues>
            1.0866057127714157e-01 -6.3777834177017212e-01</leafValues></_>
        <_>
          <internalNodes>
            0 -1 74 9.9536241032183170e-04</internalNodes>
          <leafValues>
            -6.1390602588653564e-01 7.1151219308376312e-02</leafValues></_>
        <_>
          <internalNodes>
            0 -1 46 1.0775585472583771e-01</internalNodes>
          <leafValues>
            -8.1823140382766724e-02 7.5332343578338623e-01</leafValues></_>
        <_>
          <internalNodes>
            0 -1 62 1.3244096189737320e-02</internalNodes>
          <leafValues>
            -3.4478682279586792e-01 1.7997510731220245e-01</leafValues></_>
        <_>
          <internalNodes>
            0 -1 41 2.1792580373585224e-03</internalNodes>
          <leafValues>
            5.8927839994430542e-01 -1.0941444337368011e-01</leafValues></_>
        <_>
          <internalNodes>
            0 -1 28 2.1667052060365677e-02</internalNodes>
          <leafValues>
            -3.2944741845130920e-01 1.8572767078876495e-01</leafValues></_>
        <_>
          <internalNodes>
            0 -1 1 4.2014038190245628e-03</internalNodes>
          <leafValues>
            -4.1168072819709778e-01 1.5439437329769135e-01</leafValues></_>
        <_>
          <internalNodes>
            0 -1 17 1.0600082576274872e-01</internalNodes>
          <leafValues>
            -7.0896886289119720e-02 9.0951597690582275e-01</leafValues></_>
        <_>
          <internalNodes>
            0 -1 116 5.0194032490253448e-02</internalNodes>
          <leafValues>
            1.1348500102758408e-01 -5.9797531366348267e-01</leafValues></_>
        <_>
          <internalNodes>
            0 -1 104 4.1727520525455475e-02</internalNodes>
          <leafValues>
            6.9556079804897308e-02 -7.2155267000198364e-01</leafValues></_>
        <_>
          <internalNodes>
            0 -1 12 9.0582333505153656e-03</internalNodes>
          <leafValues>
            -6.2244379520416260e-01 7.9180754721164703e-02</leafValues></_>
        <_>
          <internalNodes>
            0 -1 58 3.5867297556251287e-03</internalNodes>
          <leafValues>
            5.1053756475448608e-01 -1.2481999397277832e-01</leafValues></_>
        <_>
          <internalNodes>
            0 -1 63 4.2531684041023254e-02</internalNodes>
          <leafValues>
            1.6626487672328949e-01 -4.6675422787666321e-01</leafValues></_>
        <_>
          <internalNodes>
            0 -1 42 2.2048994898796082e-02</internalNodes>
          <leafValues>
            1.4161629974842072e-01 -4.4041323661804199e-01</leafValues></_>
        <_>
          <internalNodes>
            0 -1 114 4.3321810662746429e-02</internalNodes>
          <leafValues>
            7.5699701905250549e-02 -6.8992936611175537e-01</leafValues></_>
        <_>
          <internalNodes>
            0 -1 81 2.0953498780727386e-02</internalNodes>
          <leafValues>
            -2.4879345297813416e-01 2.3163640499114990e-01</leafValues></_></weakClassifiers></_></stages>
  <features>
    <_>
      <rect>
        0 0 8 8 0</rect></_>
    <_>
      <rect>
        0 0 8 8 7</rect></_>
    <_>
      <rect>
        0 0 8 8 12</rect></_>
    <_>
      <rect>
        0 0 8 8 17</rect></_>
    <_>
      <rect>
        0 0 8 8 19</rect></_>
    <_>
      <rect>
        0 4 8 8 2</rect></_>
    <_>
      <rect>
        0 4 8 8 7</rect></_>
    <_>
      <rect>
        0 4 8 8 8</rect></_>
    <_>
      <rect>
        0 4 8 8 10</rect></_>
    <_>
      <rect>
        0 4 8 8 22</rect></_>
    <_>
      <rect>
        0 8 8 8 20</rect></_>
    <_>
      <rect>
        0 8 8 8 22</rect></_>
    <_>
      <rect>
        0 8 8 8 25</rect></_>
    <_>
      <rect>
        0 12 8 8 3</rect></_>
    <_>
      <rect>
        0 12 8 8 4</rect></_>
    <_>
      <rect>
        0 12 8 8 22</rect></_>
    <_>
      <rect>
        0 12 8 8 31</rect></_>
    <_>
      <rect>
        0 16 8 8 6</rect></_>
    <_>
      <rect>
        0 16 8 8 9</rect></_>
    <_>
      <rect>
        0 16 8 8 32</rect></_>
    <_>
      <rect>
        0 16 8 8 33</rect></_>
    <_>
      <rect>
        4 0 8 8 6</rect></_>
    <_>
      <rect>
        4 0 8 8 8</rect></_>
    <_>
      <rect>
        4 0 8 8 12</rect></_>
    <_>
      <rect>
        4 0 8 8 17</rect></_>
    <_>
      <rect>
        4 0 8 8 20</rect></_>
    <_>
      <rect>
        4 0 8 8 23</rect></_>
    <_>
      <rect>
        4 4 8 8 1</rect></_>
    <_>
      <rect>
        4 4 8 8 2</rect></_>
    <_>
      <rect>
        4 8 8 8 8</rect></_>
    <_>
      <rect>
        4 8 8 8 13</rect></_>
    <_>
      <rect>
        4 8 8 8 14</rect></_>
    <_>
      <rect>
        4 8 8 8 34</rect></_>
    <_>
      <rect>
        4 8 8 8 35</rect></_>
    <_>
      <rect>
        4 12 8 8 29</rect></_>
    <_>
      <rect>
        4 12 8 8 32</rect></_>
    <_>
      <rect>
        4 16 8 8 0</rect></_>
    <_>
      <rect>
        4 16 8 8 5</rect></_>
    <_>
      <rect>
        4 16 8 8 9</rect></_>
    <_>
      <rect>
        8 0 8 8 3</rect></_>
    <_>
      <rect>
        8 0 8 8 10</rect></_>
    <_>
      <rect>
        8 0 8 8 17</rect></_>
    <_>
      <rect>
        8 4 8 8 6</rect></_>
    <_>
      <rect>
        8 4 8 8 7</rect></_>
    <_>
      <rect>
        8 4 8 8 30</rect></_>
    <_>
      <rect>
        8 8 8 8 28</rect></_>
    <_>
      <rect>
        8 12 8 8 8</rect></_>
    <_>
      <rect>
        8 16 8 8 18</rect></_>
    <_>
      <rect>
        8 16 8 8 26</rect></_>
    <_>
      <rect>
        8 16 8 8 34</rect></_>
    <_>
      <rect>
        8 16 8 8 35</rect></_>
    <_>
      <rect>
        12 0 8 8 3</rect></_>
    <_>
      <rect>
        12 0 8 8 12</rect></_>
    <_>
      <rect>
        12 4 8 8 2</rect></_>
    <_>
      <rect>
        12 4 8 8 14</rect></_>
    <_>
      <rect>
        12 4 8 8 15</rect></_>
    <_>
      <rect>
        12 4 8 8 17</rect></_>
    <_>
      <rect>
        12 4 8 8 18</rect></_>
    <_>
      <rect>
        12 4 8 8 30</rect></_>
    <_>
      <rect>
        12 4 8 8 31</rect></_>
    <_>
      <rect>
        12 4 8 8 34</rect></_>
    <_>
      <rect>
        12 4 8 8 35</rect></_>
    <_>
      <rect>
        12 8 8 8 5</rect></_>
    <_>
      <rect>
        12 8 8 8 17</rect></_>
    <_>
      <rect>
        12 12 8 8 8</rect></_>
    <_>
      <rect>
        12 12 8 8 26</rect></_>
    <_>
      <rect>
        12 12 8 8 28</rect></_>
    <_>
      <rect>
        12 16 8 8 6</rect></_>
    <_>
      <rect>
        12 16 8 8 28</rect></_>
    <_>
      <rect>
        12 16 8 8 29</rect></_>
    <_>
      <rect>
        12 16 8 8 33</rect></_>
    <_>
      <rect>
        12 16 8 8 35</rect></_>
    <_>
      <rect>
        16 0 8 8 3</rect></_>
    <_>
      <rect>
        16 4 8 8 5</rect></_>
    <_>
      <rect>
        16 4 8 8 12</rect></_>
    <_>
      <rect>
        16 4 8 8 13</rect></_>
    <_>
      <rect>
        16 8 8 8 13</rect></_>
    <_>
      <rect>
        16 8 8 8 15</rect></_>
    <_>
      <rect>
        16 8 8 8 31</rect></_>
    <_>
      <rect>
        16 12 8 8 13</rect></_>
    <_>
      <rect>
        16 12 8 8 31</rect></_>
    <_>
      <rect>
        16 16 8 8 4</rect></_>
    <_>
      <rect>
        16 16 8 8 29</rect></_>
    <_>
      <rect>
        16 16 8 8 33</rect></_>
    <_>
      <rect>
        0 0 8 16 2</rect></_>
    <_>
      <rect>
        0 0 8 16 4</rect></_>
    <_>
      <rect>
        0 0 8 16 5</rect></_>
    <_>
      <rect>
        0 0 8 16 19</rect></_>
    <_>
      <rect>
        0 0 8 16 22</rect></_>
    <_>
      <rect>
        0 0 8 16 24</rect></_>
    <_>
      <rect>
        4 0 8 16 3</rect></_>
    <_>
      <rect>
        4 0 8 16 8</rect></_>
    <_>
      <rect>
        4 0 8 16 12</rect></_>
    <_>
      <rect>
        4 0 8 16 25</rect></_>
    <_>
      <rect>
        8 0 8 16 29</rect></_>
    <_>
      <rect>
        12 0 8 16 3</rect></_>
    <_>
      <rect>
        12 0 8 16 10</rect></_>
    <_>
      <rect>
        12 0 8 16 15</rect></_>
    <_>
      <rect>
        12 0 8 16 28</rect></_>
    <_>
      <rect>
        16 0 8 16 1</rect></_>
    <_>
      <rect>
        16 0 8 16 3</rect></_>
    <_>
      <rect>
        16 0 8 16 14</rect></_>
    <_>
      <rect>
        16 0 8 16 15</rect></_>
    <_>
      <rect>
        16 0 8 16 28</rect></_>
    <_>
      <rect>
        16 0 8 16 31</rect></_>
    <_>
      <rect>
        0 0 16 8 2</rect></_>
    <_>
      <rect>
        0 0 16 8 14</rect></_>
    <_>
      <rect>
        0 0 16 8 15</rect></_>
    <_>
      <rect>
        0 0 16 8 19</rect></_>
    <_>
      <rect>
        0 0 16 8 25</rect></_>
    <_>
      <rect>
        0 0 16 8 26</rect></_>
    <_>
      <rect>
        0 4 16 8 4</rect></_>
    <_>
      <rect>
        0 4 16 8 25</rect></_>
    <_>
      <rect>
        0 4 16 8 26</rect></_>
    <_>
      <rect>
        0 4 16 8 32</rect></_>
    <_>
      <rect>
        0 4 16 8 35</rect></_>
    <_>
      <rect>
        0 8 16 8 2</rect></_>
    <_>
      <rect>
        0 12 16 8 13</rect></_>
    <_>
      <rect>
        0 16 16 8 5</rect></_>
    <_>
      <rect>
        0 16 16 8 8</rect></_>
    <_>
      <rect>
        0 16 16 8 10</rect></_>
    <_>
      <rect>
        0 16 16 8 24</rect></_>
    <_>
      <rect>
        0 16 16 8 25</rect></_>
    <_>
      <rect>
        0 16 16 8 30</rect></_>
    <_>
      <rect>
        0 16 16 8 32</rect></_>
    <_>
      <rect>
        0 0 16 16 1</rect></_>
    <_>
      <rect>
        0 0 16 16 5</rect></_>
    <_>
      <rect>
        0 0 16 16 11</rect></_>
    <_>
      <rect>
        0 0 16 16 15</rect></_>
    <_>
      <rect>
        0 0 16 16 24</rect></_>
    <_>
      <rect>
        0 0 16 16 28</rect></_></features></cascade>
</opencv_storage>
