<?xml version="1.0"?>
<opencv_storage>
<!-- Created using Computer Vision System Toolbox(tm) for MATLAB(R) -->
<!-- Version 9.2.0.556344 (R2017a) -->
<!-- Compatible with OpenCV 3.1 -->
<cascade>
  <stageType>BOOST</stageType>
  <featureType>HOG</featureType>
  <height>38</height>
  <width>32</width>
  <stageParams>
    <boostType>GAB</boostType>
    <minHitRate>8.0000001192092896e-01</minHitRate>
    <maxFalseAlarm>1.0000000149011612e-01</maxFalseAlarm>
    <weightTrimRate>9.4999999999999996e-01</weightTrimRate>
    <maxDepth>1</maxDepth>
    <maxWeakCount>100</maxWeakCount></stageParams>
  <featureParams>
    <maxCatCount>0</maxCatCount>
    <featSize>36</featSize></featureParams>
  <stageNum>6</stageNum>
  <stages>
    <!-- stage 0 -->
    <_>
      <maxWeakCount>2</maxWeakCount>
      <stageThreshold>1.4025244712829590e+00</stageThreshold>
      <weakClassifiers>
        <_>
          <internalNodes>
            0 -1 9 3.3763654530048370e-02</internalNodes>
          <leafValues>
            -9.0681004524230957e-01 7.6204818487167358e-01</leafValues></_>
        <_>
          <internalNodes>
            0 -1 12 1.7537157982587814e-02</internalNodes>
          <leafValues>
            -9.0368258953094482e-01 6.4047628641128540e-01</leafValues></_></weakClassifiers></_>
    <!-- stage 1 -->
    <_>
      <maxWeakCount>2</maxWeakCount>
      <stageThreshold>1.6056816577911377e+00</stageThreshold>
      <weakClassifiers>
        <_>
          <internalNodes>
            0 -1 10 2.5155894458293915e-02</internalNodes>
          <leafValues>
            -9.1243433952331543e-01 8.0030721426010132e-01</leafValues></_>
        <_>
          <internalNodes>
            0 -1 5 2.4484016001224518e-02</internalNodes>
          <leafValues>
            -9.3789452314376831e-01 8.0537444353103638e-01</leafValues></_></weakClassifiers></_>
    <!-- stage 2 -->
    <_>
      <maxWeakCount>1</maxWeakCount>
      <stageThreshold>8.5874801874160767e-01</stageThreshold>
      <weakClassifiers>
        <_>
          <internalNodes>
            0 -1 1 2.5782980024814606e-02</internalNodes>
          <leafValues>
            -8.9315527677536011e-01 8.5874801874160767e-01</leafValues></_></weakClassifiers></_>
    <!-- stage 3 -->
    <_>
      <maxWeakCount>2</maxWeakCount>
      <stageThreshold>1.3742018938064575e+00</stageThreshold>
      <weakClassifiers>
        <_>
          <internalNodes>
            0 -1 0 3.9606913924217224e-02</internalNodes>
          <leafValues>
            -8.5865724086761475e-01 7.4085366725921631e-01</leafValues></_>
        <_>
          <internalNodes>
            0 -1 11 2.0276602357625961e-02</internalNodes>
          <leafValues>
            -8.8908213376998901e-01 6.3334822654724121e-01</leafValues></_></weakClassifiers></_>
    <!-- stage 4 -->
    <_>
      <maxWeakCount>2</maxWeakCount>
      <stageThreshold>1.2845633029937744e+00</stageThreshold>
      <weakClassifiers>
        <_>
          <internalNodes>
            0 -1 2 2.4214506149291992e-02</internalNodes>
          <leafValues>
            -7.6767677068710327e-01 7.2611463069915771e-01</leafValues></_>
        <_>
          <internalNodes>
            0 -1 4 3.2552644610404968e-02</internalNodes>
          <leafValues>
            -9.0342319011688232e-01 5.5844867229461670e-01</leafValues></_></weakClassifiers></_>
    <!-- stage 5 -->
    <_>
      <maxWeakCount>4</maxWeakCount>
      <stageThreshold>7.4360561370849609e-01</stageThreshold>
      <weakClassifiers>
        <_>
          <internalNodes>
            0 -1 7 2.2829685360193253e-02</internalNodes>
          <leafValues>
            5.7201647758483887e-01 -8.4552848339080811e-01</leafValues></_>
        <_>
          <internalNodes>
            0 -1 6 2.4753525853157043e-02</internalNodes>
          <leafValues>
            -6.6136687994003296e-01 7.0069003105163574e-01</leafValues></_>
        <_>
          <internalNodes>
            0 -1 3 2.0595021545886993e-02</internalNodes>
          <leafValues>
            -8.7892335653305054e-01 4.6652877330780029e-01</leafValues></_>
        <_>
          <internalNodes>
            0 -1 8 2.3515488952398300e-02</internalNodes>
          <leafValues>
            3.6642724275588989e-01 -9.3977272510528564e-01</leafValues></_></weakClassifiers></_></stages>
  <features>
    <_>
      <rect>
        0 4 8 8 26</rect></_>
    <_>
      <rect>
        0 20 8 8 30</rect></_>
    <_>
      <rect>
        4 12 8 8 33</rect></_>
    <_>
      <rect>
        8 8 8 8 23</rect></_>
    <_>
      <rect>
        12 0 8 8 12</rect></_>
    <_>
      <rect>
        16 16 8 8 3</rect></_>
    <_>
      <rect>
        16 20 8 8 28</rect></_>
    <_>
      <rect>
        0 0 8 16 22</rect></_>
    <_>
      <rect>
        16 0 8 16 30</rect></_>
    <_>
      <rect>
        16 0 8 16 35</rect></_>
    <_>
      <rect>
        0 0 16 8 3</rect></_>
    <_>
      <rect>
        0 0 16 8 35</rect></_>
    <_>
      <rect>
        0 16 16 8 18</rect></_></features></cascade>
</opencv_storage>
