<?xml version="1.0"?>
<opencv_storage>
<!-- Created using Computer Vision System Toolbox(tm) for MATLAB(R) -->
<!-- Version 9.2.0.556344 (R2017a) -->
<!-- Compatible with OpenCV 3.1 -->
<cascade>
  <stageType>BOOST</stageType>
  <featureType>LBP</featureType>
  <height>38</height>
  <width>32</width>
  <stageParams>
    <boostType>GAB</boostType>
    <minHitRate>9.4999998807907104e-01</minHitRate>
    <maxFalseAlarm>3.0000001192092896e-01</maxFalseAlarm>
    <weightTrimRate>9.4999999999999996e-01</weightTrimRate>
    <maxDepth>1</maxDepth>
    <maxWeakCount>100</maxWeakCount></stageParams>
  <featureParams>
    <maxCatCount>256</maxCatCount>
    <featSize>1</featSize></featureParams>
  <stageNum>9</stageNum>
  <stages>
    <!-- stage 0 -->
    <_>
      <maxWeakCount>1</maxWeakCount>
      <stageThreshold>9.0249431133270264e-01</stageThreshold>
      <weakClassifiers>
        <_>
          <internalNodes>
            0 -1 9 -573582642 -247234430 -2147418111 -654065526
            -1006468990 -402587638 -760642646 -69212469</internalNodes>
          <leafValues>
            -9.4312798976898193e-01 9.0249431133270264e-01</leafValues></_></weakClassifiers></_>
    <!-- stage 1 -->
    <_>
      <maxWeakCount>1</maxWeakCount>
      <stageThreshold>9.8108744621276855e-01</stageThreshold>
      <weakClassifiers>
        <_>
          <internalNodes>
            0 -1 3 -1056769 -1 -1 -1 -17 -1 -786433 838817023</internalNodes>
          <leafValues>
            -9.4318181276321411e-01 9.8108744621276855e-01</leafValues></_></weakClassifiers></_>
    <!-- stage 2 -->
    <_>
      <maxWeakCount>1</maxWeakCount>
      <stageThreshold>9.8117649555206299e-01</stageThreshold>
      <weakClassifiers>
        <_>
          <internalNodes>
            0 -1 1 -805132150 -1073708926 0 1073774720 1073777154 32768
            32768 -1039933429</internalNodes>
          <leafValues>
            -9.5205479860305786e-01 9.8117649555206299e-01</leafValues></_></weakClassifiers></_>
    <!-- stage 3 -->
    <_>
      <maxWeakCount>1</maxWeakCount>
      <stageThreshold>9.6230858564376831e-01</stageThreshold>
      <weakClassifiers>
        <_>
          <internalNodes>
            0 -1 10 -857932610 -587399169 1560084220 -838991873
            -50529028 -2080178177 16850947 -574361465</internalNodes>
          <leafValues>
            -9.3158495426177979e-01 9.6230858564376831e-01</leafValues></_></weakClassifiers></_>
    <!-- stage 4 -->
    <_>
      <maxWeakCount>1</maxWeakCount>
      <stageThreshold>9.2488265037536621e-01</stageThreshold>
      <weakClassifiers>
        <_>
          <internalNodes>
            0 -1 8 -37 -1275199489 -32769 -67387393 -1883242501
            -1162084354 -1686126661 1055637439</internalNodes>
          <leafValues>
            -9.0160185098648071e-01 9.2488265037536621e-01</leafValues></_></weakClassifiers></_>
    <!-- stage 5 -->
    <_>
      <maxWeakCount>2</maxWeakCount>
      <stageThreshold>-8.3400659263134003e-02</stageThreshold>
      <weakClassifiers>
        <_>
          <internalNodes>
            0 -1 5 -1417716929 -15523277 1360199707 -1191116525
            -1702221617 -502791637 -2113699137 -12469341</internalNodes>
          <leafValues>
            -8.8787186145782471e-01 9.1079813241958618e-01</leafValues></_>
        <_>
          <internalNodes>
            0 -1 0 -666175006 -494436336 -805236643 1350762513
            -2134293824 -930381816 -2146819889 -100667201</internalNodes>
          <leafValues>
            -9.3562817573547363e-01 8.0447119474411011e-01</leafValues></_></weakClassifiers></_>
    <!-- stage 6 -->
    <_>
      <maxWeakCount>2</maxWeakCount>
      <stageThreshold>1.2374021112918854e-02</stageThreshold>
      <weakClassifiers>
        <_>
          <internalNodes>
            0 -1 7 1941168179 -1424510127 -1876885241 -474892007
            842312373 -1423138206 -1296322369 -1155927045</internalNodes>
          <leafValues>
            -8.5649204254150391e-01 8.8679248094558716e-01</leafValues></_>
        <_>
          <internalNodes>
            0 -1 2 -481299473 -1064648445 1073741828 -1073168381
            1342636227 1073807360 -1069301629 -119538737</internalNodes>
          <leafValues>
            -8.2202780246734619e-01 8.6886602640151978e-01</leafValues></_></weakClassifiers></_>
    <!-- stage 7 -->
    <_>
      <maxWeakCount>2</maxWeakCount>
      <stageThreshold>7.7079430222511292e-02</stageThreshold>
      <weakClassifiers>
        <_>
          <internalNodes>
            0 -1 6 -1051339339 -791740345 303256415 -1845546875
            -1836874561 -2101116862 -2138076517 -822099297</internalNodes>
          <leafValues>
            -7.8713971376419067e-01 8.9616811275482178e-01</leafValues></_>
        <_>
          <internalNodes>
            0 -1 11 -703597801 1095975954 327680 -805133821 34668546
            1342310401 -1071120381 -744230317</internalNodes>
          <leafValues>
            -7.9745227098464966e-01 8.6421912908554077e-01</leafValues></_></weakClassifiers></_>
    <!-- stage 8 -->
    <_>
      <maxWeakCount>1</maxWeakCount>
      <stageThreshold>9.4359576702117920e-01</stageThreshold>
      <weakClassifiers>
        <_>
          <internalNodes>
            0 -1 4 -67497 -1 1073741821 -3140857 -1 -8 25314699
            -11820288</internalNodes>
          <leafValues>
            -7.8698223829269409e-01 9.4359576702117920e-01</leafValues></_></weakClassifiers></_></stages>
  <features>
    <_>
      <rect>
        0 4 5 7</rect></_>
    <_>
      <rect>
        2 12 2 8</rect></_>
    <_>
      <rect>
        2 16 1 5</rect></_>
    <_>
      <rect>
        3 15 6 6</rect></_>
    <_>
      <rect>
        4 18 7 3</rect></_>
    <_>
      <rect>
        7 8 6 6</rect></_>
    <_>
      <rect>
        8 7 5 4</rect></_>
    <_>
      <rect>
        9 8 5 6</rect></_>
    <_>
      <rect>
        11 12 6 3</rect></_>
    <_>
      <rect>
        12 13 3 6</rect></_>
    <_>
      <rect>
        20 5 3 7</rect></_>
    <_>
      <rect>
        29 6 1 7</rect></_></features></cascade>
</opencv_storage>
