<?xml version="1.0"?>
<opencv_storage>
<!-- Created using Computer Vision System Toolbox(tm) for MATLAB(R) -->
<!-- Version 9.1.0.441655 (R2016b) -->
<!-- Compatible with OpenCV 2.4 -->
<cascade>
  <stageType>BOOST</stageType>
  <featureType>HOG</featureType>
  <height>33</height>
  <width>32</width>
  <stageParams>
    <boostType>GAB</boostType>
    <minHitRate>8.9999997615814209e-01</minHitRate>
    <maxFalseAlarm>1.0000000149011612e-01</maxFalseAlarm>
    <weightTrimRate>9.4999999999999996e-01</weightTrimRate>
    <maxDepth>1</maxDepth>
    <maxWeakCount>100</maxWeakCount></stageParams>
  <featureParams>
    <maxCatCount>0</maxCatCount>
    <featSize>36</featSize></featureParams>
  <stageNum>8</stageNum>
  <stages>
    <!-- stage 0 -->
    <_>
      <maxWeakCount>3</maxWeakCount>
      <stageThreshold>3.1367161870002747e-01</stageThreshold>
      <weakClassifiers>
        <_>
          <internalNodes>
            0 -1 56 1.4293706044554710e-02</internalNodes>
          <leafValues>
            -9.1064572334289551e-01 6.5241312980651855e-01</leafValues></_>
        <_>
          <internalNodes>
            0 -1 2 3.0862899497151375e-02</internalNodes>
          <leafValues>
            4.6395051479339600e-01 -8.2707536220550537e-01</leafValues></_>
        <_>
          <internalNodes>
            0 -1 55 1.3852685689926147e-02</internalNodes>
          <leafValues>
            -8.2523196935653687e-01 4.8833388090133667e-01</leafValues></_></weakClassifiers></_>
    <!-- stage 1 -->
    <_>
      <maxWeakCount>5</maxWeakCount>
      <stageThreshold>6.1224609613418579e-01</stageThreshold>
      <weakClassifiers>
        <_>
          <internalNodes>
            0 -1 2 3.5875670611858368e-02</internalNodes>
          <leafValues>
            5.9428852796554565e-01 -8.6152750253677368e-01</leafValues></_>
        <_>
          <internalNodes>
            0 -1 36 3.4486711025238037e-02</internalNodes>
          <leafValues>
            -5.2600371837615967e-01 8.7323445081710815e-01</leafValues></_>
        <_>
          <internalNodes>
            0 -1 33 1.1056581512093544e-02</internalNodes>
          <leafValues>
            -7.9884332418441772e-01 5.1755440235137939e-01</leafValues></_>
        <_>
          <internalNodes>
            0 -1 25 2.5122050195932388e-02</internalNodes>
          <leafValues>
            -5.4062038660049438e-01 7.3905795812606812e-01</leafValues></_>
        <_>
          <internalNodes>
            0 -1 30 3.5224858671426773e-02</internalNodes>
          <leafValues>
            5.6702733039855957e-01 -6.9918489456176758e-01</leafValues></_></weakClassifiers></_>
    <!-- stage 2 -->
    <_>
      <maxWeakCount>5</maxWeakCount>
      <stageThreshold>2.7226892113685608e-01</stageThreshold>
      <weakClassifiers>
        <_>
          <internalNodes>
            0 -1 4 4.5722849667072296e-02</internalNodes>
          <leafValues>
            -3.6513996124267578e-01 8.0167597532272339e-01</leafValues></_>
        <_>
          <internalNodes>
            0 -1 28 4.0718637406826019e-02</internalNodes>
          <leafValues>
            4.3520793318748474e-01 -7.9560941457748413e-01</leafValues></_>
        <_>
          <internalNodes>
            0 -1 10 9.3738082796335220e-03</internalNodes>
          <leafValues>
            -6.4480882883071899e-01 3.3342379331588745e-01</leafValues></_>
        <_>
          <internalNodes>
            0 -1 2 1.3055762276053429e-02</internalNodes>
          <leafValues>
            5.8000487089157104e-01 -4.5096045732498169e-01</leafValues></_>
        <_>
          <internalNodes>
            0 -1 42 1.3487065210938454e-02</internalNodes>
          <leafValues>
            -7.1122771501541138e-01 3.9379248023033142e-01</leafValues></_></weakClassifiers></_>
    <!-- stage 3 -->
    <_>
      <maxWeakCount>7</maxWeakCount>
      <stageThreshold>1.0710789263248444e-01</stageThreshold>
      <weakClassifiers>
        <_>
          <internalNodes>
            0 -1 37 4.2433902621269226e-02</internalNodes>
          <leafValues>
            -4.2527717351913452e-01 8.1478333473205566e-01</leafValues></_>
        <_>
          <internalNodes>
            0 -1 7 1.3544207438826561e-02</internalNodes>
          <leafValues>
            -6.6507315635681152e-01 4.2387118935585022e-01</leafValues></_>
        <_>
          <internalNodes>
            0 -1 26 1.3919146731495857e-02</internalNodes>
          <leafValues>
            -5.6252646446228027e-01 3.6090284585952759e-01</leafValues></_>
        <_>
          <internalNodes>
            0 -1 40 4.1916005313396454e-02</internalNodes>
          <leafValues>
            2.5081872940063477e-01 -8.3730250597000122e-01</leafValues></_>
        <_>
          <internalNodes>
            0 -1 50 3.7903532385826111e-02</internalNodes>
          <leafValues>
            -3.5175260901451111e-01 7.6037782430648804e-01</leafValues></_>
        <_>
          <internalNodes>
            0 -1 46 3.6374881863594055e-02</internalNodes>
          <leafValues>
            -4.7265475988388062e-01 4.7676888108253479e-01</leafValues></_>
        <_>
          <internalNodes>
            0 -1 51 7.6909251511096954e-03</internalNodes>
          <leafValues>
            -7.9566586017608643e-01 2.9801362752914429e-01</leafValues></_></weakClassifiers></_>
    <!-- stage 4 -->
    <_>
      <maxWeakCount>9</maxWeakCount>
      <stageThreshold>-7.6174385845661163e-02</stageThreshold>
      <weakClassifiers>
        <_>
          <internalNodes>
            0 -1 27 4.7623403370380402e-02</internalNodes>
          <leafValues>
            -4.4624745845794678e-01 6.0273975133895874e-01</leafValues></_>
        <_>
          <internalNodes>
            0 -1 49 3.7931263446807861e-02</internalNodes>
          <leafValues>
            3.5365119576454163e-01 -7.0769935846328735e-01</leafValues></_>
        <_>
          <internalNodes>
            0 -1 53 5.1613934338092804e-02</internalNodes>
          <leafValues>
            -2.3780363798141479e-01 7.2099447250366211e-01</leafValues></_>
        <_>
          <internalNodes>
            0 -1 35 3.0594117939472198e-02</internalNodes>
          <leafValues>
            -3.6721900105476379e-01 4.2925256490707397e-01</leafValues></_>
        <_>
          <internalNodes>
            0 -1 47 2.6710946112871170e-02</internalNodes>
          <leafValues>
            -5.5463665723800659e-01 3.4659013152122498e-01</leafValues></_>
        <_>
          <internalNodes>
            0 -1 43 9.3905664980411530e-03</internalNodes>
          <leafValues>
            -6.6424250602722168e-01 1.5577420592308044e-01</leafValues></_>
        <_>
          <internalNodes>
            0 -1 17 4.5798242092132568e-02</internalNodes>
          <leafValues>
            1.5562409162521362e-01 -7.7735471725463867e-01</leafValues></_>
        <_>
          <internalNodes>
            0 -1 39 2.2372018545866013e-02</internalNodes>
          <leafValues>
            -5.1293158531188965e-01 2.3016236722469330e-01</leafValues></_>
        <_>
          <internalNodes>
            0 -1 21 1.3366017490625381e-02</internalNodes>
          <leafValues>
            -5.5324810743331909e-01 1.7549772560596466e-01</leafValues></_></weakClassifiers></_>
    <!-- stage 5 -->
    <_>
      <maxWeakCount>10</maxWeakCount>
      <stageThreshold>8.7203539907932281e-02</stageThreshold>
      <weakClassifiers>
        <_>
          <internalNodes>
            0 -1 16 4.9782201647758484e-02</internalNodes>
          <leafValues>
            -5.3481334447860718e-01 7.3103445768356323e-01</leafValues></_>
        <_>
          <internalNodes>
            0 -1 0 4.3733403086662292e-02</internalNodes>
          <leafValues>
            -3.1485751271247864e-01 6.9957548379898071e-01</leafValues></_>
        <_>
          <internalNodes>
            0 -1 13 2.9685543850064278e-02</internalNodes>
          <leafValues>
            3.4450367093086243e-01 -6.6404956579208374e-01</leafValues></_>
        <_>
          <internalNodes>
            0 -1 32 1.1957623064517975e-02</internalNodes>
          <leafValues>
            3.3770054578781128e-01 -3.8463369011878967e-01</leafValues></_>
        <_>
          <internalNodes>
            0 -1 6 5.7612486183643341e-02</internalNodes>
          <leafValues>
            -2.3936492204666138e-01 5.8814054727554321e-01</leafValues></_>
        <_>
          <internalNodes>
            0 -1 5 8.7838426232337952e-02</internalNodes>
          <leafValues>
            -5.5750187486410141e-02 9.0509819984436035e-01</leafValues></_>
        <_>
          <internalNodes>
            0 -1 23 2.8695337474346161e-02</internalNodes>
          <leafValues>
            2.5359126925468445e-01 -4.9035671353340149e-01</leafValues></_>
        <_>
          <internalNodes>
            0 -1 41 1.9660085439682007e-02</internalNodes>
          <leafValues>
            -4.7697010636329651e-01 1.9185510277748108e-01</leafValues></_>
        <_>
          <internalNodes>
            0 -1 54 2.8813300654292107e-02</internalNodes>
          <leafValues>
            1.3193659484386444e-01 -6.7386633157730103e-01</leafValues></_>
        <_>
          <internalNodes>
            0 -1 15 8.6743216961622238e-03</internalNodes>
          <leafValues>
            -6.5317958593368530e-01 1.3222828507423401e-01</leafValues></_></weakClassifiers></_>
    <!-- stage 6 -->
    <_>
      <maxWeakCount>12</maxWeakCount>
      <stageThreshold>2.4422433227300644e-02</stageThreshold>
      <weakClassifiers>
        <_>
          <internalNodes>
            0 -1 31 6.3224777579307556e-02</internalNodes>
          <leafValues>
            -4.1840037703514099e-01 7.1315997838973999e-01</leafValues></_>
        <_>
          <internalNodes>
            0 -1 9 6.3958317041397095e-02</internalNodes>
          <leafValues>
            -2.5798767805099487e-01 7.0883727073669434e-01</leafValues></_>
        <_>
          <internalNodes>
            0 -1 38 1.7769973725080490e-02</internalNodes>
          <leafValues>
            3.3770757913589478e-01 -5.5050313472747803e-01</leafValues></_>
        <_>
          <internalNodes>
            0 -1 3 1.8912026658654213e-02</internalNodes>
          <leafValues>
            1.7121458053588867e-01 -5.6352812051773071e-01</leafValues></_>
        <_>
          <internalNodes>
            0 -1 12 2.1644920110702515e-02</internalNodes>
          <leafValues>
            1.7541033029556274e-01 -6.6442584991455078e-01</leafValues></_>
        <_>
          <internalNodes>
            0 -1 1 2.7095977216959000e-02</internalNodes>
          <leafValues>
            1.3745169341564178e-01 -7.2731232643127441e-01</leafValues></_>
        <_>
          <internalNodes>
            0 -1 18 7.8063253313302994e-03</internalNodes>
          <leafValues>
            4.9825602769851685e-01 -1.9682103395462036e-01</leafValues></_>
        <_>
          <internalNodes>
            0 -1 24 2.1970707923173904e-02</internalNodes>
          <leafValues>
            2.0024016499519348e-01 -5.1281350851058960e-01</leafValues></_>
        <_>
          <internalNodes>
            0 -1 52 2.8029467910528183e-02</internalNodes>
          <leafValues>
            1.3846948742866516e-01 -6.6323775053024292e-01</leafValues></_>
        <_>
          <internalNodes>
            0 -1 29 2.9742009937763214e-02</internalNodes>
          <leafValues>
            1.2746159732341766e-01 -6.6040438413619995e-01</leafValues></_>
        <_>
          <internalNodes>
            0 -1 14 1.7180310562252998e-02</internalNodes>
          <leafValues>
            -4.3949371576309204e-01 1.7751623690128326e-01</leafValues></_>
        <_>
          <internalNodes>
            0 -1 44 5.1585394889116287e-02</internalNodes>
          <leafValues>
            1.4521349966526031e-01 -7.4290090799331665e-01</leafValues></_></weakClassifiers></_>
    <!-- stage 7 -->
    <_>
      <maxWeakCount>10</maxWeakCount>
      <stageThreshold>6.0510963201522827e-01</stageThreshold>
      <weakClassifiers>
        <_>
          <internalNodes>
            0 -1 34 2.9710752889513969e-02</internalNodes>
          <leafValues>
            -4.2372882366180420e-02 8.5323464870452881e-01</leafValues></_>
        <_>
          <internalNodes>
            0 -1 20 2.0615518093109131e-02</internalNodes>
          <leafValues>
            -6.4239895343780518e-01 4.7504112124443054e-01</leafValues></_>
        <_>
          <internalNodes>
            0 -1 55 3.8276396691799164e-02</internalNodes>
          <leafValues>
            -3.3809828758239746e-01 4.4561684131622314e-01</leafValues></_>
        <_>
          <internalNodes>
            0 -1 19 1.2392095290124416e-02</internalNodes>
          <leafValues>
            -3.7357297539710999e-01 3.1643736362457275e-01</leafValues></_>
        <_>
          <internalNodes>
            0 -1 45 5.1723442971706390e-02</internalNodes>
          <leafValues>
            1.9131046533584595e-01 -6.9889324903488159e-01</leafValues></_>
        <_>
          <internalNodes>
            0 -1 11 1.0515591502189636e-01</internalNodes>
          <leafValues>
            -1.7235650122165680e-01 8.5102891921997070e-01</leafValues></_>
        <_>
          <internalNodes>
            0 -1 22 2.9625253751873970e-02</internalNodes>
          <leafValues>
            -2.8088364005088806e-01 5.4907381534576416e-01</leafValues></_>
        <_>
          <internalNodes>
            0 -1 48 2.9825251549482346e-02</internalNodes>
          <leafValues>
            2.3257383704185486e-01 -5.8647400140762329e-01</leafValues></_>
        <_>
          <internalNodes>
            0 -1 8 5.3031649440526962e-03</internalNodes>
          <leafValues>
            -6.2445724010467529e-01 1.4821283519268036e-01</leafValues></_>
        <_>
          <internalNodes>
            0 -1 0 1.1974391341209412e-01</internalNodes>
          <leafValues>
            -1.4139689505100250e-01 9.0531170368194580e-01</leafValues></_></weakClassifiers></_></stages>
  <features>
    <_>
      <rect>
        0 0 8 8 19</rect></_>
    <_>
      <rect>
        0 0 8 8 23</rect></_>
    <_>
      <rect>
        0 4 8 8 22</rect></_>
    <_>
      <rect>
        0 16 8 8 2</rect></_>
    <_>
      <rect>
        0 16 8 8 6</rect></_>
    <_>
      <rect>
        0 16 8 8 33</rect></_>
    <_>
      <rect>
        4 0 8 8 3</rect></_>
    <_>
      <rect>
        4 4 8 8 2</rect></_>
    <_>
      <rect>
        4 12 8 8 2</rect></_>
    <_>
      <rect>
        4 12 8 8 17</rect></_>
    <_>
      <rect>
        4 16 8 8 5</rect></_>
    <_>
      <rect>
        4 16 8 8 17</rect></_>
    <_>
      <rect>
        8 0 8 8 6</rect></_>
    <_>
      <rect>
        8 0 8 8 8</rect></_>
    <_>
      <rect>
        8 0 8 8 12</rect></_>
    <_>
      <rect>
        12 0 8 8 32</rect></_>
    <_>
      <rect>
        12 4 8 8 15</rect></_>
    <_>
      <rect>
        12 4 8 8 17</rect></_>
    <_>
      <rect>
        12 4 8 8 31</rect></_>
    <_>
      <rect>
        12 12 8 8 5</rect></_>
    <_>
      <rect>
        12 12 8 8 28</rect></_>
    <_>
      <rect>
        12 16 8 8 0</rect></_>
    <_>
      <rect>
        12 16 8 8 30</rect></_>
    <_>
      <rect>
        12 16 8 8 35</rect></_>
    <_>
      <rect>
        16 0 8 8 1</rect></_>
    <_>
      <rect>
        16 0 8 8 3</rect></_>
    <_>
      <rect>
        16 0 8 8 23</rect></_>
    <_>
      <rect>
        16 0 8 8 33</rect></_>
    <_>
      <rect>
        16 8 8 8 13</rect></_>
    <_>
      <rect>
        16 8 8 8 30</rect></_>
    <_>
      <rect>
        16 8 8 8 31</rect></_>
    <_>
      <rect>
        16 12 8 8 28</rect></_>
    <_>
      <rect>
        16 12 8 8 31</rect></_>
    <_>
      <rect>
        0 0 8 16 11</rect></_>
    <_>
      <rect>
        4 0 8 16 1</rect></_>
    <_>
      <rect>
        4 0 8 16 12</rect></_>
    <_>
      <rect>
        12 0 8 16 15</rect></_>
    <_>
      <rect>
        12 0 8 16 28</rect></_>
    <_>
      <rect>
        16 0 8 16 10</rect></_>
    <_>
      <rect>
        16 0 8 16 28</rect></_>
    <_>
      <rect>
        16 0 8 16 31</rect></_>
    <_>
      <rect>
        0 0 16 8 2</rect></_>
    <_>
      <rect>
        0 0 16 8 15</rect></_>
    <_>
      <rect>
        0 0 16 8 25</rect></_>
    <_>
      <rect>
        0 4 16 8 4</rect></_>
    <_>
      <rect>
        0 4 16 8 13</rect></_>
    <_>
      <rect>
        0 4 16 8 26</rect></_>
    <_>
      <rect>
        0 4 16 8 35</rect></_>
    <_>
      <rect>
        0 12 16 8 21</rect></_>
    <_>
      <rect>
        0 12 16 8 22</rect></_>
    <_>
      <rect>
        0 16 16 8 24</rect></_>
    <_>
      <rect>
        0 16 16 8 30</rect></_>
    <_>
      <rect>
        0 16 16 8 33</rect></_>
    <_>
      <rect>
        0 0 16 16 1</rect></_>
    <_>
      <rect>
        0 0 16 16 5</rect></_>
    <_>
      <rect>
        0 0 16 16 24</rect></_>
    <_>
      <rect>
        0 0 16 16 28</rect></_></features></cascade>
</opencv_storage>
