<?xml version="1.0"?>
<opencv_storage>
<!-- Created using Computer Vision System Toolbox(tm) for MATLAB(R) -->
<!-- Version 9.1.0.441655 (R2016b) -->
<!-- Compatible with OpenCV 2.4 -->
<cascade>
  <stageType>BOOST</stageType>
  <featureType>HOG</featureType>
  <height>33</height>
  <width>32</width>
  <stageParams>
    <boostType>GAB</boostType>
    <minHitRate>9.4999998807907104e-01</minHitRate>
    <maxFalseAlarm>2.0000000298023224e-01</maxFalseAlarm>
    <weightTrimRate>9.4999999999999996e-01</weightTrimRate>
    <maxDepth>1</maxDepth>
    <maxWeakCount>100</maxWeakCount></stageParams>
  <featureParams>
    <maxCatCount>0</maxCatCount>
    <featSize>36</featSize></featureParams>
  <stageNum>11</stageNum>
  <stages>
    <!-- stage 0 -->
    <_>
      <maxWeakCount>3</maxWeakCount>
      <stageThreshold>2.9182156920433044e-01</stageThreshold>
      <weakClassifiers>
        <_>
          <internalNodes>
            0 -1 96 1.4293706044554710e-02</internalNodes>
          <leafValues>
            -8.9786165952682495e-01 6.5330404043197632e-01</leafValues></_>
        <_>
          <internalNodes>
            0 -1 6 3.1282931566238403e-02</internalNodes>
          <leafValues>
            4.6870243549346924e-01 -8.4202718734741211e-01</leafValues></_>
        <_>
          <internalNodes>
            0 -1 95 1.3868168927729130e-02</internalNodes>
          <leafValues>
            -8.0428332090377808e-01 4.8054471611976624e-01</leafValues></_></weakClassifiers></_>
    <!-- stage 1 -->
    <_>
      <maxWeakCount>5</maxWeakCount>
      <stageThreshold>2.6192426681518555e-02</stageThreshold>
      <weakClassifiers>
        <_>
          <internalNodes>
            0 -1 94 3.1749837100505829e-02</internalNodes>
          <leafValues>
            -4.6807131171226501e-01 8.8372093439102173e-01</leafValues></_>
        <_>
          <internalNodes>
            0 -1 70 1.1450171470642090e-02</internalNodes>
          <leafValues>
            -8.0509090423583984e-01 4.5514944195747375e-01</leafValues></_>
        <_>
          <internalNodes>
            0 -1 79 1.4847023412585258e-02</internalNodes>
          <leafValues>
            -6.4870506525039673e-01 4.2250224947929382e-01</leafValues></_>
        <_>
          <internalNodes>
            0 -1 66 9.7426334396004677e-03</internalNodes>
          <leafValues>
            -7.3069363832473755e-01 3.9999791979789734e-01</leafValues></_>
        <_>
          <internalNodes>
            0 -1 50 4.3029289692640305e-02</internalNodes>
          <leafValues>
            3.4730571508407593e-01 -8.6054933071136475e-01</leafValues></_></weakClassifiers></_>
    <!-- stage 2 -->
    <_>
      <maxWeakCount>5</maxWeakCount>
      <stageThreshold>6.0193479061126709e-02</stageThreshold>
      <weakClassifiers>
        <_>
          <internalNodes>
            0 -1 95 3.7323400378227234e-02</internalNodes>
          <leafValues>
            -3.8679099082946777e-01 8.2883781194686890e-01</leafValues></_>
        <_>
          <internalNodes>
            0 -1 53 2.8459861874580383e-02</internalNodes>
          <leafValues>
            4.4013524055480957e-01 -6.6474354267120361e-01</leafValues></_>
        <_>
          <internalNodes>
            0 -1 29 1.2354405596852303e-02</internalNodes>
          <leafValues>
            -7.3513120412826538e-01 3.3333203196525574e-01</leafValues></_>
        <_>
          <internalNodes>
            0 -1 3 4.4333398342132568e-02</internalNodes>
          <leafValues>
            3.2321354746818542e-01 -7.4484199285507202e-01</leafValues></_>
        <_>
          <internalNodes>
            0 -1 42 1.5858285129070282e-02</internalNodes>
          <leafValues>
            -5.0210231542587280e-01 4.5518243312835693e-01</leafValues></_></weakClassifiers></_>
    <!-- stage 3 -->
    <_>
      <maxWeakCount>6</maxWeakCount>
      <stageThreshold>-4.1004633903503418e-01</stageThreshold>
      <weakClassifiers>
        <_>
          <internalNodes>
            0 -1 35 3.1128171831369400e-02</internalNodes>
          <leafValues>
            -5.6605035066604614e-01 5.1343703269958496e-01</leafValues></_>
        <_>
          <internalNodes>
            0 -1 9 3.3650927245616913e-02</internalNodes>
          <leafValues>
            3.1078955531120300e-01 -8.1579679250717163e-01</leafValues></_>
        <_>
          <internalNodes>
            0 -1 59 1.3564696535468102e-02</internalNodes>
          <leafValues>
            -7.0024967193603516e-01 3.2684943079948425e-01</leafValues></_>
        <_>
          <internalNodes>
            0 -1 61 1.9811308011412621e-02</internalNodes>
          <leafValues>
            -5.0326311588287354e-01 4.4633671641349792e-01</leafValues></_>
        <_>
          <internalNodes>
            0 -1 94 4.1298918426036835e-02</internalNodes>
          <leafValues>
            -3.5157060623168945e-01 6.9943684339523315e-01</leafValues></_>
        <_>
          <internalNodes>
            0 -1 78 1.6602788120508194e-02</internalNodes>
          <leafValues>
            -5.2930217981338501e-01 3.2466527819633484e-01</leafValues></_></weakClassifiers></_>
    <!-- stage 4 -->
    <_>
      <maxWeakCount>6</maxWeakCount>
      <stageThreshold>-2.0498074591159821e-02</stageThreshold>
      <weakClassifiers>
        <_>
          <internalNodes>
            0 -1 95 2.5858581066131592e-02</internalNodes>
          <leafValues>
            -5.3892946243286133e-01 5.8988016843795776e-01</leafValues></_>
        <_>
          <internalNodes>
            0 -1 39 3.6453530192375183e-02</internalNodes>
          <leafValues>
            2.9194727540016174e-01 -6.8990868330001831e-01</leafValues></_>
        <_>
          <internalNodes>
            0 -1 57 3.5550691187381744e-02</internalNodes>
          <leafValues>
            3.0425921082496643e-01 -6.5338963270187378e-01</leafValues></_>
        <_>
          <internalNodes>
            0 -1 85 1.2687861919403076e-02</internalNodes>
          <leafValues>
            -7.6021528244018555e-01 3.9846560359001160e-01</leafValues></_>
        <_>
          <internalNodes>
            0 -1 81 2.7275230735540390e-02</internalNodes>
          <leafValues>
            -5.3579509258270264e-01 3.9745974540710449e-01</leafValues></_>
        <_>
          <internalNodes>
            0 -1 68 2.9152367264032364e-02</internalNodes>
          <leafValues>
            2.8498044610023499e-01 -6.3091260194778442e-01</leafValues></_></weakClassifiers></_>
    <!-- stage 5 -->
    <_>
      <maxWeakCount>15</maxWeakCount>
      <stageThreshold>-3.3876433968544006e-01</stageThreshold>
      <weakClassifiers>
        <_>
          <internalNodes>
            0 -1 2 4.7579854726791382e-02</internalNodes>
          <leafValues>
            -3.6263373494148254e-01 6.5506988763809204e-01</leafValues></_>
        <_>
          <internalNodes>
            0 -1 82 4.9551412463188171e-02</internalNodes>
          <leafValues>
            1.9671580195426941e-01 -7.4824720621109009e-01</leafValues></_>
        <_>
          <internalNodes>
            0 -1 10 3.8378562778234482e-02</internalNodes>
          <leafValues>
            -2.5185805559158325e-01 4.7244104743003845e-01</leafValues></_>
        <_>
          <internalNodes>
            0 -1 41 3.4255981445312500e-02</internalNodes>
          <leafValues>
            -2.3703086376190186e-01 3.8988959789276123e-01</leafValues></_>
        <_>
          <internalNodes>
            0 -1 44 4.7166638076305389e-02</internalNodes>
          <leafValues>
            1.5803441405296326e-01 -5.8509010076522827e-01</leafValues></_>
        <_>
          <internalNodes>
            0 -1 92 2.9792189598083496e-02</internalNodes>
          <leafValues>
            1.5078520774841309e-01 -6.5752524137496948e-01</leafValues></_>
        <_>
          <internalNodes>
            0 -1 65 1.0434688068926334e-02</internalNodes>
          <leafValues>
            -6.5424954891204834e-01 1.1553859710693359e-01</leafValues></_>
        <_>
          <internalNodes>
            0 -1 80 2.7427520602941513e-02</internalNodes>
          <leafValues>
            -4.4884434342384338e-01 2.0018137991428375e-01</leafValues></_>
        <_>
          <internalNodes>
            0 -1 53 2.1256480365991592e-02</internalNodes>
          <leafValues>
            1.7918570339679718e-01 -4.6537789702415466e-01</leafValues></_>
        <_>
          <internalNodes>
            0 -1 25 4.7950576990842819e-02</internalNodes>
          <leafValues>
            -2.0588974654674530e-01 4.6551212668418884e-01</leafValues></_>
        <_>
          <internalNodes>
            0 -1 93 1.4427002519369125e-02</internalNodes>
          <leafValues>
            -4.7226899862289429e-01 2.0829582214355469e-01</leafValues></_>
        <_>
          <internalNodes>
            0 -1 88 1.3958842493593693e-02</internalNodes>
          <leafValues>
            -5.7526898384094238e-01 1.4307871460914612e-01</leafValues></_>
        <_>
          <internalNodes>
            0 -1 48 4.7925844788551331e-02</internalNodes>
          <leafValues>
            -1.5730182826519012e-01 5.5848717689514160e-01</leafValues></_>
        <_>
          <internalNodes>
            0 -1 58 1.2209868058562279e-02</internalNodes>
          <leafValues>
            -4.6257060766220093e-01 1.7250621318817139e-01</leafValues></_>
        <_>
          <internalNodes>
            0 -1 1 2.4086330085992813e-02</internalNodes>
          <leafValues>
            -4.3652650713920593e-01 1.5993848443031311e-01</leafValues></_></weakClassifiers></_>
    <!-- stage 6 -->
    <_>
      <maxWeakCount>13</maxWeakCount>
      <stageThreshold>-3.5708808898925781e-01</stageThreshold>
      <weakClassifiers>
        <_>
          <internalNodes>
            0 -1 13 5.0791043788194656e-02</internalNodes>
          <leafValues>
            -4.1010165214538574e-01 8.2176959514617920e-01</leafValues></_>
        <_>
          <internalNodes>
            0 -1 90 2.3110594600439072e-02</internalNodes>
          <leafValues>
            3.2151034474372864e-01 -5.7681602239608765e-01</leafValues></_>
        <_>
          <internalNodes>
            0 -1 43 6.3398972153663635e-02</internalNodes>
          <leafValues>
            -2.2592145204544067e-01 7.8491097688674927e-01</leafValues></_>
        <_>
          <internalNodes>
            0 -1 30 2.2107396274805069e-02</internalNodes>
          <leafValues>
            3.1866168975830078e-01 -4.5212298631668091e-01</leafValues></_>
        <_>
          <internalNodes>
            0 -1 84 3.8283146917819977e-02</internalNodes>
          <leafValues>
            -3.5411512851715088e-01 3.4739911556243896e-01</leafValues></_>
        <_>
          <internalNodes>
            0 -1 22 2.7837689965963364e-02</internalNodes>
          <leafValues>
            1.8483866751194000e-01 -6.2109202146530151e-01</leafValues></_>
        <_>
          <internalNodes>
            0 -1 50 3.2172601670026779e-02</internalNodes>
          <leafValues>
            1.1471668630838394e-01 -6.2532913684844971e-01</leafValues></_>
        <_>
          <internalNodes>
            0 -1 40 2.2316239774227142e-02</internalNodes>
          <leafValues>
            1.4655780792236328e-01 -4.8615679144859314e-01</leafValues></_>
        <_>
          <internalNodes>
            0 -1 31 1.1204136535525322e-02</internalNodes>
          <leafValues>
            -4.3767270445823669e-01 2.0726333558559418e-01</leafValues></_>
        <_>
          <internalNodes>
            0 -1 14 2.5445390492677689e-02</internalNodes>
          <leafValues>
            -3.0977347493171692e-01 2.5106245279312134e-01</leafValues></_>
        <_>
          <internalNodes>
            0 -1 7 1.6037024557590485e-02</internalNodes>
          <leafValues>
            2.9268762469291687e-01 -2.7499455213546753e-01</leafValues></_>
        <_>
          <internalNodes>
            0 -1 83 8.3123808726668358e-03</internalNodes>
          <leafValues>
            -6.7425203323364258e-01 1.0224671661853790e-01</leafValues></_>
        <_>
          <internalNodes>
            0 -1 87 1.5586163848638535e-02</internalNodes>
          <leafValues>
            -5.8090269565582275e-01 1.0922556370496750e-01</leafValues></_></weakClassifiers></_>
    <!-- stage 7 -->
    <_>
      <maxWeakCount>10</maxWeakCount>
      <stageThreshold>-5.4176127910614014e-01</stageThreshold>
      <weakClassifiers>
        <_>
          <internalNodes>
            0 -1 52 6.1782352626323700e-02</internalNodes>
          <leafValues>
            -3.4036052227020264e-01 7.7040112018585205e-01</leafValues></_>
        <_>
          <internalNodes>
            0 -1 33 4.4793434441089630e-02</internalNodes>
          <leafValues>
            -3.2863879203796387e-01 5.8024245500564575e-01</leafValues></_>
        <_>
          <internalNodes>
            0 -1 12 9.3217492103576660e-03</internalNodes>
          <leafValues>
            -7.7133941650390625e-01 2.3409567773342133e-01</leafValues></_>
        <_>
          <internalNodes>
            0 -1 73 7.1744099259376526e-02</internalNodes>
          <leafValues>
            -2.2188413143157959e-01 7.8956013917922974e-01</leafValues></_>
        <_>
          <internalNodes>
            0 -1 1 6.3341557979583740e-02</internalNodes>
          <leafValues>
            -2.0357050001621246e-01 5.4522746801376343e-01</leafValues></_>
        <_>
          <internalNodes>
            0 -1 86 1.3108690269291401e-02</internalNodes>
          <leafValues>
            -6.2775778770446777e-01 1.9321991503238678e-01</leafValues></_>
        <_>
          <internalNodes>
            0 -1 89 2.7605842798948288e-02</internalNodes>
          <leafValues>
            1.2732054293155670e-01 -6.9964462518692017e-01</leafValues></_>
        <_>
          <internalNodes>
            0 -1 62 2.2935640066862106e-02</internalNodes>
          <leafValues>
            2.3681560158729553e-01 -4.5676440000534058e-01</leafValues></_>
        <_>
          <internalNodes>
            0 -1 27 2.4890493601560593e-02</internalNodes>
          <leafValues>
            1.5346783399581909e-01 -5.5647516250610352e-01</leafValues></_>
        <_>
          <internalNodes>
            0 -1 71 6.1635255813598633e-02</internalNodes>
          <leafValues>
            1.0241481661796570e-01 -7.1572184562683105e-01</leafValues></_></weakClassifiers></_>
    <!-- stage 8 -->
    <_>
      <maxWeakCount>17</maxWeakCount>
      <stageThreshold>-4.1366991400718689e-01</stageThreshold>
      <weakClassifiers>
        <_>
          <internalNodes>
            0 -1 77 3.7432439625263214e-02</internalNodes>
          <leafValues>
            -4.6931686997413635e-01 5.7767218351364136e-01</leafValues></_>
        <_>
          <internalNodes>
            0 -1 38 8.0280169844627380e-02</internalNodes>
          <leafValues>
            -1.6276402771472931e-01 7.4642550945281982e-01</leafValues></_>
        <_>
          <internalNodes>
            0 -1 80 5.2339598536491394e-02</internalNodes>
          <leafValues>
            -2.4307306110858917e-01 4.0624222159385681e-01</leafValues></_>
        <_>
          <internalNodes>
            0 -1 60 2.9083792120218277e-02</internalNodes>
          <leafValues>
            1.5976187586784363e-01 -4.8134696483612061e-01</leafValues></_>
        <_>
          <internalNodes>
            0 -1 35 1.7429832369089127e-02</internalNodes>
          <leafValues>
            -5.8887374401092529e-01 1.6430780291557312e-01</leafValues></_>
        <_>
          <internalNodes>
            0 -1 6 9.0742222964763641e-03</internalNodes>
          <leafValues>
            3.4128937125205994e-01 -3.0236607789993286e-01</leafValues></_>
        <_>
          <internalNodes>
            0 -1 72 1.2405482120811939e-02</internalNodes>
          <leafValues>
            -6.4979463815689087e-01 1.0549920797348022e-01</leafValues></_>
        <_>
          <internalNodes>
            0 -1 26 1.6789332032203674e-02</internalNodes>
          <leafValues>
            2.4387113749980927e-01 -2.9730626940727234e-01</leafValues></_>
        <_>
          <internalNodes>
            0 -1 49 1.4108043164014816e-02</internalNodes>
          <leafValues>
            2.7586594223976135e-01 -3.1039273738861084e-01</leafValues></_>
        <_>
          <internalNodes>
            0 -1 62 2.8942264616489410e-02</internalNodes>
          <leafValues>
            1.1167051643133163e-01 -5.7166367769241333e-01</leafValues></_>
        <_>
          <internalNodes>
            0 -1 55 7.1334885433316231e-03</internalNodes>
          <leafValues>
            -7.8079968690872192e-01 8.9491948485374451e-02</leafValues></_>
        <_>
          <internalNodes>
            0 -1 81 5.0790131092071533e-02</internalNodes>
          <leafValues>
            -2.1217262744903564e-01 3.3013087511062622e-01</leafValues></_>
        <_>
          <internalNodes>
            0 -1 24 5.3347401320934296e-02</internalNodes>
          <leafValues>
            -1.1351162195205688e-01 5.4918426275253296e-01</leafValues></_>
        <_>
          <internalNodes>
            0 -1 16 3.6526322364807129e-02</internalNodes>
          <leafValues>
            1.3346165418624878e-01 -5.5864018201828003e-01</leafValues></_>
        <_>
          <internalNodes>
            0 -1 69 1.1752966791391373e-02</internalNodes>
          <leafValues>
            -4.8819470405578613e-01 1.3359640538692474e-01</leafValues></_>
        <_>
          <internalNodes>
            0 -1 20 1.6528001055121422e-02</internalNodes>
          <leafValues>
            1.8212991952896118e-01 -3.4522643685340881e-01</leafValues></_>
        <_>
          <internalNodes>
            0 -1 56 2.1744076162576675e-02</internalNodes>
          <leafValues>
            1.2986069917678833e-01 -4.5667421817779541e-01</leafValues></_></weakClassifiers></_>
    <!-- stage 9 -->
    <_>
      <maxWeakCount>23</maxWeakCount>
      <stageThreshold>3.5367328673601151e-02</stageThreshold>
      <weakClassifiers>
        <_>
          <internalNodes>
            0 -1 67 4.1241560131311417e-02</internalNodes>
          <leafValues>
            -4.3847240507602692e-02 7.0597916841506958e-01</leafValues></_>
        <_>
          <internalNodes>
            0 -1 64 4.3075561523437500e-02</internalNodes>
          <leafValues>
            -2.1609342098236084e-01 4.7145453095436096e-01</leafValues></_>
        <_>
          <internalNodes>
            0 -1 37 1.6501206904649734e-02</internalNodes>
          <leafValues>
            -3.9798969030380249e-01 2.5063315033912659e-01</leafValues></_>
        <_>
          <internalNodes>
            0 -1 89 1.5344643965363503e-02</internalNodes>
          <leafValues>
            2.1858878433704376e-01 -3.5157790780067444e-01</leafValues></_>
        <_>
          <internalNodes>
            0 -1 73 8.4447100758552551e-02</internalNodes>
          <leafValues>
            -1.1104940623044968e-01 6.9529306888580322e-01</leafValues></_>
        <_>
          <internalNodes>
            0 -1 18 4.4541627168655396e-02</internalNodes>
          <leafValues>
            -3.3667138218879700e-01 2.4010442197322845e-01</leafValues></_>
        <_>
          <internalNodes>
            0 -1 75 3.0936557799577713e-02</internalNodes>
          <leafValues>
            -2.7981778979301453e-01 2.5379595160484314e-01</leafValues></_>
        <_>
          <internalNodes>
            0 -1 32 1.3354225084185600e-02</internalNodes>
          <leafValues>
            -3.5390064120292664e-01 1.8590399622917175e-01</leafValues></_>
        <_>
          <internalNodes>
            0 -1 21 1.3626528903841972e-02</internalNodes>
          <leafValues>
            1.9011217355728149e-01 -3.2935050129890442e-01</leafValues></_>
        <_>
          <internalNodes>
            0 -1 76 5.4714195430278778e-02</internalNodes>
          <leafValues>
            9.9207773804664612e-02 -6.6231793165206909e-01</leafValues></_>
        <_>
          <internalNodes>
            0 -1 47 3.9204575121402740e-02</internalNodes>
          <leafValues>
            -1.6398538649082184e-01 3.8568240404129028e-01</leafValues></_>
        <_>
          <internalNodes>
            0 -1 36 6.9840364158153534e-02</internalNodes>
          <leafValues>
            -8.8047645986080170e-02 7.2311568260192871e-01</leafValues></_>
        <_>
          <internalNodes>
            0 -1 63 5.2428893744945526e-02</internalNodes>
          <leafValues>
            -1.4557485282421112e-01 4.4816711544990540e-01</leafValues></_>
        <_>
          <internalNodes>
            0 -1 17 4.7713194042444229e-02</internalNodes>
          <leafValues>
            -1.8262617290019989e-01 3.2797351479530334e-01</leafValues></_>
        <_>
          <internalNodes>
            0 -1 5 1.7317753285169601e-02</internalNodes>
          <leafValues>
            2.3562832176685333e-01 -3.0485439300537109e-01</leafValues></_>
        <_>
          <internalNodes>
            0 -1 91 9.4136372208595276e-03</internalNodes>
          <leafValues>
            -4.3017256259918213e-01 1.3499417901039124e-01</leafValues></_>
        <_>
          <internalNodes>
            0 -1 13 1.7662648111581802e-02</internalNodes>
          <leafValues>
            -3.5962241888046265e-01 1.6175313293933868e-01</leafValues></_>
        <_>
          <internalNodes>
            0 -1 23 3.7952974438667297e-02</internalNodes>
          <leafValues>
            1.0210591554641724e-01 -5.6290346384048462e-01</leafValues></_>
        <_>
          <internalNodes>
            0 -1 19 2.1149136126041412e-02</internalNodes>
          <leafValues>
            9.1064997017383575e-02 -5.0873869657516479e-01</leafValues></_>
        <_>
          <internalNodes>
            0 -1 39 3.0504602938890457e-02</internalNodes>
          <leafValues>
            1.2120788544416428e-01 -4.3075406551361084e-01</leafValues></_>
        <_>
          <internalNodes>
            0 -1 6 2.2755093872547150e-02</internalNodes>
          <leafValues>
            9.4769313931465149e-02 -4.7773522138595581e-01</leafValues></_>
        <_>
          <internalNodes>
            0 -1 46 1.0204769670963287e-02</internalNodes>
          <leafValues>
            -3.0015963315963745e-01 1.8914830684661865e-01</leafValues></_>
        <_>
          <internalNodes>
            0 -1 35 3.1445182859897614e-02</internalNodes>
          <leafValues>
            -3.1941828131675720e-01 1.7601864039897919e-01</leafValues></_></weakClassifiers></_>
    <!-- stage 10 -->
    <_>
      <maxWeakCount>18</maxWeakCount>
      <stageThreshold>4.2331850528717041e-01</stageThreshold>
      <weakClassifiers>
        <_>
          <internalNodes>
            0 -1 58 3.5013698041439056e-02</internalNodes>
          <leafValues>
            4.1552510857582092e-01 8.7261939048767090e-01</leafValues></_>
        <_>
          <internalNodes>
            0 -1 94 5.3649455308914185e-02</internalNodes>
          <leafValues>
            -2.4333178997039795e-02 7.4362635612487793e-01</leafValues></_>
        <_>
          <internalNodes>
            0 -1 34 6.5570488572120667e-02</internalNodes>
          <leafValues>
            -1.5146960318088531e-01 5.6413340568542480e-01</leafValues></_>
        <_>
          <internalNodes>
            0 -1 4 7.0355802774429321e-02</internalNodes>
          <leafValues>
            -1.5592692792415619e-01 8.0251550674438477e-01</leafValues></_>
        <_>
          <internalNodes>
            0 -1 60 3.9734121412038803e-02</internalNodes>
          <leafValues>
            2.2260546684265137e-01 -6.0505801439285278e-01</leafValues></_>
        <_>
          <internalNodes>
            0 -1 53 7.9590119421482086e-03</internalNodes>
          <leafValues>
            3.4447509050369263e-01 -2.9782328009605408e-01</leafValues></_>
        <_>
          <internalNodes>
            0 -1 0 6.9644093513488770e-02</internalNodes>
          <leafValues>
            1.2494592368602753e-01 -7.3642027378082275e-01</leafValues></_>
        <_>
          <internalNodes>
            0 -1 11 1.5717502683401108e-02</internalNodes>
          <leafValues>
            -5.1501077413558960e-01 1.3447298109531403e-01</leafValues></_>
        <_>
          <internalNodes>
            0 -1 97 2.8342407196760178e-02</internalNodes>
          <leafValues>
            1.3153618574142456e-01 -6.7517745494842529e-01</leafValues></_>
        <_>
          <internalNodes>
            0 -1 82 3.8777515292167664e-02</internalNodes>
          <leafValues>
            1.2798386812210083e-01 -5.0165659189224243e-01</leafValues></_>
        <_>
          <internalNodes>
            0 -1 15 3.2419785857200623e-02</internalNodes>
          <leafValues>
            -1.6922597587108612e-01 5.8280748128890991e-01</leafValues></_>
        <_>
          <internalNodes>
            0 -1 45 4.8834551125764847e-03</internalNodes>
          <leafValues>
            -5.6897372007369995e-01 1.5473857522010803e-01</leafValues></_>
        <_>
          <internalNodes>
            0 -1 54 1.3834112323820591e-02</internalNodes>
          <leafValues>
            -4.5485320687294006e-01 1.4905859529972076e-01</leafValues></_>
        <_>
          <internalNodes>
            0 -1 2 5.4346550256013870e-02</internalNodes>
          <leafValues>
            -2.0848445594310760e-01 3.9464119076728821e-01</leafValues></_>
        <_>
          <internalNodes>
            0 -1 74 2.7260586619377136e-02</internalNodes>
          <leafValues>
            -3.1010973453521729e-01 2.4300253391265869e-01</leafValues></_>
        <_>
          <internalNodes>
            0 -1 28 2.9880799353122711e-02</internalNodes>
          <leafValues>
            1.2744455039501190e-01 -5.1985383033752441e-01</leafValues></_>
        <_>
          <internalNodes>
            0 -1 51 5.7761784642934799e-02</internalNodes>
          <leafValues>
            9.6816360950469971e-02 -7.1218496561050415e-01</leafValues></_>
        <_>
          <internalNodes>
            0 -1 8 1.4804875478148460e-02</internalNodes>
          <leafValues>
            -3.7939435243606567e-01 1.6199089586734772e-01</leafValues></_></weakClassifiers></_></stages>
  <features>
    <_>
      <rect>
        0 0 8 8 2</rect></_>
    <_>
      <rect>
        0 0 8 8 12</rect></_>
    <_>
      <rect>
        0 0 8 8 19</rect></_>
    <_>
      <rect>
        0 4 8 8 4</rect></_>
    <_>
      <rect>
        0 4 8 8 8</rect></_>
    <_>
      <rect>
        0 4 8 8 17</rect></_>
    <_>
      <rect>
        0 4 8 8 22</rect></_>
    <_>
      <rect>
        0 8 8 8 4</rect></_>
    <_>
      <rect>
        0 8 8 8 24</rect></_>
    <_>
      <rect>
        0 12 8 8 4</rect></_>
    <_>
      <rect>
        0 16 8 8 6</rect></_>
    <_>
      <rect>
        0 16 8 8 32</rect></_>
    <_>
      <rect>
        4 0 8 8 12</rect></_>
    <_>
      <rect>
        4 4 8 8 1</rect></_>
    <_>
      <rect>
        4 4 8 8 2</rect></_>
    <_>
      <rect>
        4 12 8 8 21</rect></_>
    <_>
      <rect>
        4 12 8 8 29</rect></_>
    <_>
      <rect>
        4 12 8 8 35</rect></_>
    <_>
      <rect>
        8 0 8 8 3</rect></_>
    <_>
      <rect>
        8 0 8 8 6</rect></_>
    <_>
      <rect>
        8 0 8 8 8</rect></_>
    <_>
      <rect>
        8 0 8 8 10</rect></_>
    <_>
      <rect>
        8 4 8 8 7</rect></_>
    <_>
      <rect>
        8 4 8 8 16</rect></_>
    <_>
      <rect>
        8 4 8 8 30</rect></_>
    <_>
      <rect>
        8 16 8 8 24</rect></_>
    <_>
      <rect>
        8 16 8 8 35</rect></_>
    <_>
      <rect>
        12 0 8 8 10</rect></_>
    <_>
      <rect>
        12 0 8 8 17</rect></_>
    <_>
      <rect>
        12 4 8 8 14</rect></_>
    <_>
      <rect>
        12 4 8 8 17</rect></_>
    <_>
      <rect>
        12 4 8 8 19</rect></_>
    <_>
      <rect>
        12 8 8 8 5</rect></_>
    <_>
      <rect>
        12 8 8 8 26</rect></_>
    <_>
      <rect>
        12 12 8 8 8</rect></_>
    <_>
      <rect>
        12 12 8 8 28</rect></_>
    <_>
      <rect>
        12 16 8 8 0</rect></_>
    <_>
      <rect>
        12 16 8 8 7</rect></_>
    <_>
      <rect>
        12 16 8 8 28</rect></_>
    <_>
      <rect>
        12 16 8 8 35</rect></_>
    <_>
      <rect>
        16 0 8 8 0</rect></_>
    <_>
      <rect>
        16 0 8 8 3</rect></_>
    <_>
      <rect>
        16 0 8 8 23</rect></_>
    <_>
      <rect>
        16 0 8 8 33</rect></_>
    <_>
      <rect>
        16 4 8 8 13</rect></_>
    <_>
      <rect>
        16 4 8 8 28</rect></_>
    <_>
      <rect>
        16 4 8 8 32</rect></_>
    <_>
      <rect>
        16 12 8 8 3</rect></_>
    <_>
      <rect>
        16 12 8 8 7</rect></_>
    <_>
      <rect>
        16 12 8 8 12</rect></_>
    <_>
      <rect>
        16 12 8 8 13</rect></_>
    <_>
      <rect>
        16 12 8 8 20</rect></_>
    <_>
      <rect>
        16 12 8 8 28</rect></_>
    <_>
      <rect>
        16 12 8 8 31</rect></_>
    <_>
      <rect>
        16 16 8 8 21</rect></_>
    <_>
      <rect>
        0 0 8 16 2</rect></_>
    <_>
      <rect>
        0 0 8 16 20</rect></_>
    <_>
      <rect>
        0 0 8 16 22</rect></_>
    <_>
      <rect>
        0 0 8 16 24</rect></_>
    <_>
      <rect>
        4 0 8 16 2</rect></_>
    <_>
      <rect>
        4 0 8 16 8</rect></_>
    <_>
      <rect>
        4 0 8 16 12</rect></_>
    <_>
      <rect>
        4 0 8 16 18</rect></_>
    <_>
      <rect>
        4 0 8 16 24</rect></_>
    <_>
      <rect>
        12 0 8 16 15</rect></_>
    <_>
      <rect>
        16 0 8 16 14</rect></_>
    <_>
      <rect>
        16 0 8 16 15</rect></_>
    <_>
      <rect>
        16 0 8 16 28</rect></_>
    <_>
      <rect>
        16 0 8 16 31</rect></_>
    <_>
      <rect>
        0 0 16 8 1</rect></_>
    <_>
      <rect>
        0 0 16 8 2</rect></_>
    <_>
      <rect>
        0 0 16 8 8</rect></_>
    <_>
      <rect>
        0 0 16 8 14</rect></_>
    <_>
      <rect>
        0 0 16 8 19</rect></_>
    <_>
      <rect>
        0 0 16 8 26</rect></_>
    <_>
      <rect>
        0 0 16 8 35</rect></_>
    <_>
      <rect>
        0 4 16 8 4</rect></_>
    <_>
      <rect>
        0 4 16 8 15</rect></_>
    <_>
      <rect>
        0 4 16 8 18</rect></_>
    <_>
      <rect>
        0 4 16 8 25</rect></_>
    <_>
      <rect>
        0 4 16 8 26</rect></_>
    <_>
      <rect>
        0 4 16 8 35</rect></_>
    <_>
      <rect>
        0 12 16 8 22</rect></_>
    <_>
      <rect>
        0 16 16 8 5</rect></_>
    <_>
      <rect>
        0 16 16 8 8</rect></_>
    <_>
      <rect>
        0 16 16 8 23</rect></_>
    <_>
      <rect>
        0 16 16 8 24</rect></_>
    <_>
      <rect>
        0 16 16 8 28</rect></_>
    <_>
      <rect>
        0 16 16 8 29</rect></_>
    <_>
      <rect>
        0 16 16 8 33</rect></_>
    <_>
      <rect>
        0 0 16 16 5</rect></_>
    <_>
      <rect>
        0 0 16 16 7</rect></_>
    <_>
      <rect>
        0 0 16 16 11</rect></_>
    <_>
      <rect>
        0 0 16 16 12</rect></_>
    <_>
      <rect>
        0 0 16 16 15</rect></_>
    <_>
      <rect>
        0 0 16 16 24</rect></_>
    <_>
      <rect>
        0 0 16 16 28</rect></_>
    <_>
      <rect>
        0 0 16 16 32</rect></_></features></cascade>
</opencv_storage>
