<?xml version="1.0"?>
<opencv_storage>
<!-- Created using Computer Vision System Toolbox(tm) for MATLAB(R) -->
<!-- Version 9.1.0.441655 (R2016b) -->
<!-- Compatible with OpenCV 2.4 -->
<cascade>
  <stageType>BOOST</stageType>
  <featureType>HOG</featureType>
  <height>33</height>
  <width>32</width>
  <stageParams>
    <boostType>GAB</boostType>
    <minHitRate>8.5000002384185791e-01</minHitRate>
    <maxFalseAlarm>4.0000000596046448e-01</maxFalseAlarm>
    <weightTrimRate>9.4999999999999996e-01</weightTrimRate>
    <maxDepth>1</maxDepth>
    <maxWeakCount>100</maxWeakCount></stageParams>
  <featureParams>
    <maxCatCount>0</maxCatCount>
    <featSize>36</featSize></featureParams>
  <stageNum>11</stageNum>
  <stages>
    <!-- stage 0 -->
    <_>
      <maxWeakCount>1</maxWeakCount>
      <stageThreshold>6.5653586387634277e-01</stageThreshold>
      <weakClassifiers>
        <_>
          <internalNodes>
            0 -1 20 1.4293706044554710e-02</internalNodes>
          <leafValues>
            -9.0117454528808594e-01 6.5653586387634277e-01</leafValues></_></weakClassifiers></_>
    <!-- stage 1 -->
    <_>
      <maxWeakCount>1</maxWeakCount>
      <stageThreshold>6.4440202713012695e-01</stageThreshold>
      <weakClassifiers>
        <_>
          <internalNodes>
            0 -1 19 1.8846951425075531e-02</internalNodes>
          <leafValues>
            -7.4649965763092041e-01 6.4440202713012695e-01</leafValues></_></weakClassifiers></_>
    <!-- stage 2 -->
    <_>
      <maxWeakCount>1</maxWeakCount>
      <stageThreshold>6.0778701305389404e-01</stageThreshold>
      <weakClassifiers>
        <_>
          <internalNodes>
            0 -1 1 3.9516352117061615e-02</internalNodes>
          <leafValues>
            6.0778701305389404e-01 -8.9767444133758545e-01</leafValues></_></weakClassifiers></_>
    <!-- stage 3 -->
    <_>
      <maxWeakCount>2</maxWeakCount>
      <stageThreshold>-2.9641591012477875e-02</stageThreshold>
      <weakClassifiers>
        <_>
          <internalNodes>
            0 -1 8 4.3942362070083618e-02</internalNodes>
          <leafValues>
            -5.4862487316131592e-01 8.3011585474014282e-01</leafValues></_>
        <_>
          <internalNodes>
            0 -1 15 3.7803828716278076e-02</internalNodes>
          <leafValues>
            5.1898330450057983e-01 -8.3897423744201660e-01</leafValues></_></weakClassifiers></_>
    <!-- stage 4 -->
    <_>
      <maxWeakCount>3</maxWeakCount>
      <stageThreshold>3.7585234642028809e-01</stageThreshold>
      <weakClassifiers>
        <_>
          <internalNodes>
            0 -1 13 1.8425792455673218e-02</internalNodes>
          <leafValues>
            -6.4150243997573853e-01 5.4433572292327881e-01</leafValues></_>
        <_>
          <internalNodes>
            0 -1 11 2.6481155306100845e-02</internalNodes>
          <leafValues>
            3.7135887145996094e-01 -7.8176891803741455e-01</leafValues></_>
        <_>
          <internalNodes>
            0 -1 7 2.0386269316077232e-02</internalNodes>
          <leafValues>
            6.4599591493606567e-01 -4.8195338249206543e-01</leafValues></_></weakClassifiers></_>
    <!-- stage 5 -->
    <_>
      <maxWeakCount>3</maxWeakCount>
      <stageThreshold>1.4649330079555511e-01</stageThreshold>
      <weakClassifiers>
        <_>
          <internalNodes>
            0 -1 17 3.1746387481689453e-02</internalNodes>
          <leafValues>
            -5.9068322181701660e-01 7.2100073099136353e-01</leafValues></_>
        <_>
          <internalNodes>
            0 -1 12 5.4287087172269821e-02</internalNodes>
          <leafValues>
            3.2331523299217224e-01 -9.2388671636581421e-01</leafValues></_>
        <_>
          <internalNodes>
            0 -1 18 1.2158339843153954e-02</internalNodes>
          <leafValues>
            -7.6265656948089600e-01 4.1386127471923828e-01</leafValues></_></weakClassifiers></_>
    <!-- stage 6 -->
    <_>
      <maxWeakCount>3</maxWeakCount>
      <stageThreshold>1.7130751907825470e-01</stageThreshold>
      <weakClassifiers>
        <_>
          <internalNodes>
            0 -1 10 3.1880520284175873e-02</internalNodes>
          <leafValues>
            -6.1188244819641113e-01 6.8634551763534546e-01</leafValues></_>
        <_>
          <internalNodes>
            0 -1 12 2.8271768242120743e-02</internalNodes>
          <leafValues>
            4.9974942207336426e-01 -5.7165610790252686e-01</leafValues></_>
        <_>
          <internalNodes>
            0 -1 6 3.8587860763072968e-02</internalNodes>
          <leafValues>
            2.8344056010246277e-01 -7.2790032625198364e-01</leafValues></_></weakClassifiers></_>
    <!-- stage 7 -->
    <_>
      <maxWeakCount>3</maxWeakCount>
      <stageThreshold>4.6761116385459900e-01</stageThreshold>
      <weakClassifiers>
        <_>
          <internalNodes>
            0 -1 0 4.4979318976402283e-02</internalNodes>
          <leafValues>
            -5.2156412601470947e-01 7.6218485832214355e-01</leafValues></_>
        <_>
          <internalNodes>
            0 -1 14 2.2142617031931877e-02</internalNodes>
          <leafValues>
            -6.6333222389221191e-01 4.4174444675445557e-01</leafValues></_>
        <_>
          <internalNodes>
            0 -1 3 4.1819885373115540e-02</internalNodes>
          <leafValues>
            -4.4345721602439880e-01 5.4743081331253052e-01</leafValues></_></weakClassifiers></_>
    <!-- stage 8 -->
    <_>
      <maxWeakCount>2</maxWeakCount>
      <stageThreshold>-5.0359681248664856e-02</stageThreshold>
      <weakClassifiers>
        <_>
          <internalNodes>
            0 -1 16 3.7477843463420868e-02</internalNodes>
          <leafValues>
            -6.5706890821456909e-01 7.3400795459747314e-01</leafValues></_>
        <_>
          <internalNodes>
            0 -1 19 3.4016557037830353e-02</internalNodes>
          <leafValues>
            -4.4429782032966614e-01 6.0670924186706543e-01</leafValues></_></weakClassifiers></_>
    <!-- stage 9 -->
    <_>
      <maxWeakCount>1</maxWeakCount>
      <stageThreshold>7.1868723630905151e-01</stageThreshold>
      <weakClassifiers>
        <_>
          <internalNodes>
            0 -1 5 3.2199226319789886e-02</internalNodes>
          <leafValues>
            -7.4721449613571167e-01 7.1868723630905151e-01</leafValues></_></weakClassifiers></_>
    <!-- stage 10 -->
    <_>
      <maxWeakCount>3</maxWeakCount>
      <stageThreshold>5.0742864608764648e-01</stageThreshold>
      <weakClassifiers>
        <_>
          <internalNodes>
            0 -1 9 5.0115056335926056e-02</internalNodes>
          <leafValues>
            -6.2536871433258057e-01 6.1007195711135864e-01</leafValues></_>
        <_>
          <internalNodes>
            0 -1 2 4.1864484548568726e-02</internalNodes>
          <leafValues>
            -6.7609018087387085e-01 4.5282468199729919e-01</leafValues></_>
        <_>
          <internalNodes>
            0 -1 4 6.8114481866359711e-02</internalNodes>
          <leafValues>
            -4.2491725087165833e-01 6.7997270822525024e-01</leafValues></_></weakClassifiers></_></stages>
  <features>
    <_>
      <rect>
        0 0 8 8 19</rect></_>
    <_>
      <rect>
        0 4 8 8 22</rect></_>
    <_>
      <rect>
        4 4 8 8 1</rect></_>
    <_>
      <rect>
        4 8 8 8 35</rect></_>
    <_>
      <rect>
        4 16 8 8 17</rect></_>
    <_>
      <rect>
        4 16 8 8 24</rect></_>
    <_>
      <rect>
        8 16 8 8 26</rect></_>
    <_>
      <rect>
        8 16 8 8 35</rect></_>
    <_>
      <rect>
        12 4 8 8 15</rect></_>
    <_>
      <rect>
        12 16 8 8 28</rect></_>
    <_>
      <rect>
        16 0 8 8 33</rect></_>
    <_>
      <rect>
        16 12 8 8 13</rect></_>
    <_>
      <rect>
        0 0 8 16 22</rect></_>
    <_>
      <rect>
        8 0 8 16 2</rect></_>
    <_>
      <rect>
        16 0 8 16 28</rect></_>
    <_>
      <rect>
        16 0 8 16 31</rect></_>
    <_>
      <rect>
        0 0 16 16 1</rect></_>
    <_>
      <rect>
        0 0 16 16 15</rect></_>
    <_>
      <rect>
        0 0 16 16 16</rect></_>
    <_>
      <rect>
        0 0 16 16 24</rect></_>
    <_>
      <rect>
        0 0 16 16 28</rect></_></features></cascade>
</opencv_storage>
