<?xml version="1.0"?>
<opencv_storage>
<!-- Created using Computer Vision System Toolbox(tm) for MATLAB(R) -->
<!-- Version 9.1.0.441655 (R2016b) -->
<!-- Compatible with OpenCV 2.4 -->
<cascade>
  <stageType>BOOST</stageType>
  <featureType>HOG</featureType>
  <height>33</height>
  <width>32</width>
  <stageParams>
    <boostType>GAB</boostType>
    <minHitRate>8.9999997615814209e-01</minHitRate>
    <maxFalseAlarm>4.0000000596046448e-01</maxFalseAlarm>
    <weightTrimRate>9.4999999999999996e-01</weightTrimRate>
    <maxDepth>1</maxDepth>
    <maxWeakCount>100</maxWeakCount></stageParams>
  <featureParams>
    <maxCatCount>0</maxCatCount>
    <featSize>36</featSize></featureParams>
  <stageNum>12</stageNum>
  <stages>
    <!-- stage 0 -->
    <_>
      <maxWeakCount>1</maxWeakCount>
      <stageThreshold>6.5210956335067749e-01</stageThreshold>
      <weakClassifiers>
        <_>
          <internalNodes>
            0 -1 28 1.4293706044554710e-02</internalNodes>
          <leafValues>
            -9.0482711791992188e-01 6.5210956335067749e-01</leafValues></_></weakClassifiers></_>
    <!-- stage 1 -->
    <_>
      <maxWeakCount>3</maxWeakCount>
      <stageThreshold>1.5224182605743408e-01</stageThreshold>
      <weakClassifiers>
        <_>
          <internalNodes>
            0 -1 27 1.8846951425075531e-02</internalNodes>
          <leafValues>
            -7.3357886075973511e-01 6.4316469430923462e-01</leafValues></_>
        <_>
          <internalNodes>
            0 -1 1 3.5493478178977966e-02</internalNodes>
          <leafValues>
            4.8871600627899170e-01 -8.7780213356018066e-01</leafValues></_>
        <_>
          <internalNodes>
            0 -1 19 9.6554737538099289e-03</internalNodes>
          <leafValues>
            -8.7881267070770264e-01 3.9710471034049988e-01</leafValues></_></weakClassifiers></_>
    <!-- stage 2 -->
    <_>
      <maxWeakCount>1</maxWeakCount>
      <stageThreshold>4.2664051055908203e-01</stageThreshold>
      <weakClassifiers>
        <_>
          <internalNodes>
            0 -1 11 4.1811302304267883e-02</internalNodes>
          <leafValues>
            4.2664051055908203e-01 -8.1985753774642944e-01</leafValues></_></weakClassifiers></_>
    <!-- stage 3 -->
    <_>
      <maxWeakCount>3</maxWeakCount>
      <stageThreshold>-6.1163097620010376e-01</stageThreshold>
      <weakClassifiers>
        <_>
          <internalNodes>
            0 -1 13 2.5109577924013138e-02</internalNodes>
          <leafValues>
            4.9194905161857605e-01 -7.2769284248352051e-01</leafValues></_>
        <_>
          <internalNodes>
            0 -1 10 1.4969665557146072e-02</internalNodes>
          <leafValues>
            -6.0585600137710571e-01 6.0923117399215698e-01</leafValues></_>
        <_>
          <internalNodes>
            0 -1 5 3.0970606952905655e-02</internalNodes>
          <leafValues>
            -4.9772402644157410e-01 6.6237938404083252e-01</leafValues></_></weakClassifiers></_>
    <!-- stage 4 -->
    <_>
      <maxWeakCount>3</maxWeakCount>
      <stageThreshold>3.7595552206039429e-01</stageThreshold>
      <weakClassifiers>
        <_>
          <internalNodes>
            0 -1 7 4.6921156346797943e-02</internalNodes>
          <leafValues>
            -4.5811885595321655e-01 7.2518515586853027e-01</leafValues></_>
        <_>
          <internalNodes>
            0 -1 22 1.0063180699944496e-02</internalNodes>
          <leafValues>
            -7.5323331356048584e-01 4.1759738326072693e-01</leafValues></_>
        <_>
          <internalNodes>
            0 -1 17 1.5240364708006382e-02</internalNodes>
          <leafValues>
            -6.6448593139648438e-01 4.1647699475288391e-01</leafValues></_></weakClassifiers></_>
    <!-- stage 5 -->
    <_>
      <maxWeakCount>1</maxWeakCount>
      <stageThreshold>5.6788897514343262e-01</stageThreshold>
      <weakClassifiers>
        <_>
          <internalNodes>
            0 -1 15 3.5043410956859589e-02</internalNodes>
          <leafValues>
            5.6788897514343262e-01 -7.8012251853942871e-01</leafValues></_></weakClassifiers></_>
    <!-- stage 6 -->
    <_>
      <maxWeakCount>2</maxWeakCount>
      <stageThreshold>1.8469486385583878e-02</stageThreshold>
      <weakClassifiers>
        <_>
          <internalNodes>
            0 -1 27 3.1950399279594421e-02</internalNodes>
          <leafValues>
            -4.7018620371818542e-01 7.3050165176391602e-01</leafValues></_>
        <_>
          <internalNodes>
            0 -1 20 2.6701584458351135e-02</internalNodes>
          <leafValues>
            -6.0071688890457153e-01 4.8865568637847900e-01</leafValues></_></weakClassifiers></_>
    <!-- stage 7 -->
    <_>
      <maxWeakCount>4</maxWeakCount>
      <stageThreshold>-1.0436534881591797e-01</stageThreshold>
      <weakClassifiers>
        <_>
          <internalNodes>
            0 -1 0 4.3716147541999817e-02</internalNodes>
          <leafValues>
            -4.2882642149925232e-01 7.7126806974411011e-01</leafValues></_>
        <_>
          <internalNodes>
            0 -1 8 3.0868774279952049e-02</internalNodes>
          <leafValues>
            -4.2708340287208557e-01 4.8384454846382141e-01</leafValues></_>
        <_>
          <internalNodes>
            0 -1 21 3.3199809491634369e-02</internalNodes>
          <leafValues>
            -4.7913187742233276e-01 3.8445883989334106e-01</leafValues></_>
        <_>
          <internalNodes>
            0 -1 3 1.1275246739387512e-02</internalNodes>
          <leafValues>
            3.6708563566207886e-01 -3.7224262952804565e-01</leafValues></_></weakClassifiers></_>
    <!-- stage 8 -->
    <_>
      <maxWeakCount>3</maxWeakCount>
      <stageThreshold>2.7251771092414856e-01</stageThreshold>
      <weakClassifiers>
        <_>
          <internalNodes>
            0 -1 12 4.2118556797504425e-02</internalNodes>
          <leafValues>
            -4.9930393695831299e-01 8.0780780315399170e-01</leafValues></_>
        <_>
          <internalNodes>
            0 -1 6 2.8453841805458069e-02</internalNodes>
          <leafValues>
            4.5866519212722778e-01 -6.3622099161148071e-01</leafValues></_>
        <_>
          <internalNodes>
            0 -1 4 1.4401040971279144e-02</internalNodes>
          <leafValues>
            -6.3006943464279175e-01 3.1315648555755615e-01</leafValues></_></weakClassifiers></_>
    <!-- stage 9 -->
    <_>
      <maxWeakCount>4</maxWeakCount>
      <stageThreshold>-6.7138932645320892e-02</stageThreshold>
      <weakClassifiers>
        <_>
          <internalNodes>
            0 -1 26 4.2278103530406952e-02</internalNodes>
          <leafValues>
            -4.8382279276847839e-01 6.9230771064758301e-01</leafValues></_>
        <_>
          <internalNodes>
            0 -1 25 1.9397450610995293e-02</internalNodes>
          <leafValues>
            3.8371211290359497e-01 -5.1692193746566772e-01</leafValues></_>
        <_>
          <internalNodes>
            0 -1 16 2.7284525334835052e-02</internalNodes>
          <leafValues>
            3.7742930650711060e-01 -4.7662779688835144e-01</leafValues></_>
        <_>
          <internalNodes>
            0 -1 28 4.0901951491832733e-02</internalNodes>
          <leafValues>
            -3.4445756673812866e-01 5.6493061780929565e-01</leafValues></_></weakClassifiers></_>
    <!-- stage 10 -->
    <_>
      <maxWeakCount>4</maxWeakCount>
      <stageThreshold>-1.4455582201480865e-01</stageThreshold>
      <weakClassifiers>
        <_>
          <internalNodes>
            0 -1 19 4.0207348763942719e-02</internalNodes>
          <leafValues>
            -5.4460638761520386e-01 6.5132498741149902e-01</leafValues></_>
        <_>
          <internalNodes>
            0 -1 24 2.3988910019397736e-02</internalNodes>
          <leafValues>
            3.0697715282440186e-01 -7.8991186618804932e-01</leafValues></_>
        <_>
          <internalNodes>
            0 -1 2 5.6308154016733170e-02</internalNodes>
          <leafValues>
            -3.3712774515151978e-01 6.6864591836929321e-01</leafValues></_>
        <_>
          <internalNodes>
            0 -1 14 1.9814208149909973e-02</internalNodes>
          <leafValues>
            4.3020120263099670e-01 -5.9562110900878906e-01</leafValues></_></weakClassifiers></_>
    <!-- stage 11 -->
    <_>
      <maxWeakCount>4</maxWeakCount>
      <stageThreshold>1.1328137479722500e-02</stageThreshold>
      <weakClassifiers>
        <_>
          <internalNodes>
            0 -1 23 4.6879686415195465e-02</internalNodes>
          <leafValues>
            -4.5339217782020569e-01 6.8844223022460938e-01</leafValues></_>
        <_>
          <internalNodes>
            0 -1 28 5.1441643387079239e-02</internalNodes>
          <leafValues>
            -2.5966826081275940e-01 7.1465635299682617e-01</leafValues></_>
        <_>
          <internalNodes>
            0 -1 9 2.7585580945014954e-02</internalNodes>
          <leafValues>
            2.3232296109199524e-01 -7.6238101720809937e-01</leafValues></_>
        <_>
          <internalNodes>
            0 -1 18 4.4256255030632019e-02</internalNodes>
          <leafValues>
            -2.9537972807884216e-01 4.9206560850143433e-01</leafValues></_></weakClassifiers></_></stages>
  <features>
    <_>
      <rect>
        0 0 8 8 19</rect></_>
    <_>
      <rect>
        0 4 8 8 22</rect></_>
    <_>
      <rect>
        0 8 8 8 1</rect></_>
    <_>
      <rect>
        0 12 8 8 4</rect></_>
    <_>
      <rect>
        4 4 8 8 2</rect></_>
    <_>
      <rect>
        4 12 8 8 24</rect></_>
    <_>
      <rect>
        8 0 8 8 17</rect></_>
    <_>
      <rect>
        12 4 8 8 15</rect></_>
    <_>
      <rect>
        12 12 8 8 28</rect></_>
    <_>
      <rect>
        12 16 8 8 33</rect></_>
    <_>
      <rect>
        16 0 8 8 23</rect></_>
    <_>
      <rect>
        16 0 8 8 31</rect></_>
    <_>
      <rect>
        16 8 8 8 15</rect></_>
    <_>
      <rect>
        16 12 8 8 31</rect></_>
    <_>
      <rect>
        0 0 8 16 20</rect></_>
    <_>
      <rect>
        0 0 8 16 22</rect></_>
    <_>
      <rect>
        4 0 8 16 8</rect></_>
    <_>
      <rect>
        4 0 8 16 12</rect></_>
    <_>
      <rect>
        12 0 8 16 3</rect></_>
    <_>
      <rect>
        16 0 8 16 15</rect></_>
    <_>
      <rect>
        0 4 16 8 26</rect></_>
    <_>
      <rect>
        0 4 16 8 35</rect></_>
    <_>
      <rect>
        0 16 16 8 5</rect></_>
    <_>
      <rect>
        0 0 16 16 1</rect></_>
    <_>
      <rect>
        0 0 16 16 6</rect></_>
    <_>
      <rect>
        0 0 16 16 10</rect></_>
    <_>
      <rect>
        0 0 16 16 15</rect></_>
    <_>
      <rect>
        0 0 16 16 24</rect></_>
    <_>
      <rect>
        0 0 16 16 28</rect></_></features></cascade>
</opencv_storage>
