<?xml version="1.0"?>
<opencv_storage>
<!-- Created using Computer Vision System Toolbox(tm) for MATLAB(R) -->
<!-- Version 9.1.0.441655 (R2016b) -->
<!-- Compatible with OpenCV 2.4 -->
<cascade>
  <stageType>BOOST</stageType>
  <featureType>HOG</featureType>
  <height>33</height>
  <width>32</width>
  <stageParams>
    <boostType>GAB</boostType>
    <minHitRate>8.0000001192092896e-01</minHitRate>
    <maxFalseAlarm>2.0000000298023224e-01</maxFalseAlarm>
    <weightTrimRate>9.4999999999999996e-01</weightTrimRate>
    <maxDepth>1</maxDepth>
    <maxWeakCount>100</maxWeakCount></stageParams>
  <featureParams>
    <maxCatCount>0</maxCatCount>
    <featSize>36</featSize></featureParams>
  <stageNum>9</stageNum>
  <stages>
    <!-- stage 0 -->
    <_>
      <maxWeakCount>2</maxWeakCount>
      <stageThreshold>1.1017668247222900e+00</stageThreshold>
      <weakClassifiers>
        <_>
          <internalNodes>
            0 -1 17 1.4293706044554710e-02</internalNodes>
          <leafValues>
            -8.9722079038619995e-01 6.4106404781341553e-01</leafValues></_>
        <_>
          <internalNodes>
            0 -1 1 3.0862899497151375e-02</internalNodes>
          <leafValues>
            4.6070274710655212e-01 -8.5506308078765869e-01</leafValues></_></weakClassifiers></_>
    <!-- stage 1 -->
    <_>
      <maxWeakCount>3</maxWeakCount>
      <stageThreshold>7.6233726739883423e-01</stageThreshold>
      <weakClassifiers>
        <_>
          <internalNodes>
            0 -1 16 1.5275085344910622e-02</internalNodes>
          <leafValues>
            -8.6153846979141235e-01 6.3975626230239868e-01</leafValues></_>
        <_>
          <internalNodes>
            0 -1 12 2.1097887307405472e-02</internalNodes>
          <leafValues>
            -5.7228487730026245e-01 7.7273827791213989e-01</leafValues></_>
        <_>
          <internalNodes>
            0 -1 2 3.0242342501878738e-02</internalNodes>
          <leafValues>
            -5.5949950218200684e-01 6.9486582279205322e-01</leafValues></_></weakClassifiers></_>
    <!-- stage 2 -->
    <_>
      <maxWeakCount>2</maxWeakCount>
      <stageThreshold>8.3143252134323120e-01</stageThreshold>
      <weakClassifiers>
        <_>
          <internalNodes>
            0 -1 9 3.8836028426885605e-02</internalNodes>
          <leafValues>
            4.3510466814041138e-01 -9.1842281818389893e-01</leafValues></_>
        <_>
          <internalNodes>
            0 -1 11 3.9742887020111084e-02</internalNodes>
          <leafValues>
            3.9632788300514221e-01 -8.6030876636505127e-01</leafValues></_></weakClassifiers></_>
    <!-- stage 3 -->
    <_>
      <maxWeakCount>3</maxWeakCount>
      <stageThreshold>3.7386834621429443e-01</stageThreshold>
      <weakClassifiers>
        <_>
          <internalNodes>
            0 -1 5 4.1842833161354065e-02</internalNodes>
          <leafValues>
            -5.6143665313720703e-01 7.6903158426284790e-01</leafValues></_>
        <_>
          <internalNodes>
            0 -1 8 5.2016474306583405e-02</internalNodes>
          <leafValues>
            4.8867368698120117e-01 -8.0583578348159790e-01</leafValues></_>
        <_>
          <internalNodes>
            0 -1 7 1.9197899848222733e-02</internalNodes>
          <leafValues>
            -6.3141739368438721e-01 4.4663134217262268e-01</leafValues></_></weakClassifiers></_>
    <!-- stage 4 -->
    <_>
      <maxWeakCount>3</maxWeakCount>
      <stageThreshold>2.7470788359642029e-01</stageThreshold>
      <weakClassifiers>
        <_>
          <internalNodes>
            0 -1 17 3.2144591212272644e-02</internalNodes>
          <leafValues>
            -5.5343037843704224e-01 6.1308151483535767e-01</leafValues></_>
        <_>
          <internalNodes>
            0 -1 6 4.2127508670091629e-02</internalNodes>
          <leafValues>
            -4.5514410734176636e-01 4.9897396564483643e-01</leafValues></_>
        <_>
          <internalNodes>
            0 -1 15 1.7376940697431564e-02</internalNodes>
          <leafValues>
            -5.8244705200195313e-01 3.2916426658630371e-01</leafValues></_></weakClassifiers></_>
    <!-- stage 5 -->
    <_>
      <maxWeakCount>3</maxWeakCount>
      <stageThreshold>-1.6563363373279572e-01</stageThreshold>
      <weakClassifiers>
        <_>
          <internalNodes>
            0 -1 10 4.5522578060626984e-02</internalNodes>
          <leafValues>
            -5.6045627593994141e-01 7.5745117664337158e-01</leafValues></_>
        <_>
          <internalNodes>
            0 -1 13 3.7509620189666748e-02</internalNodes>
          <leafValues>
            -3.0233192443847656e-01 7.0982855558395386e-01</leafValues></_>
        <_>
          <internalNodes>
            0 -1 4 2.1530142053961754e-02</internalNodes>
          <leafValues>
            3.2452741265296936e-01 -6.2075287103652954e-01</leafValues></_></weakClassifiers></_>
    <!-- stage 6 -->
    <_>
      <maxWeakCount>1</maxWeakCount>
      <stageThreshold>7.1819311380386353e-01</stageThreshold>
      <weakClassifiers>
        <_>
          <internalNodes>
            0 -1 0 3.8882598280906677e-02</internalNodes>
          <leafValues>
            -8.0120205879211426e-01 7.1819311380386353e-01</leafValues></_></weakClassifiers></_>
    <!-- stage 7 -->
    <_>
      <maxWeakCount>1</maxWeakCount>
      <stageThreshold>8.3961814641952515e-01</stageThreshold>
      <weakClassifiers>
        <_>
          <internalNodes>
            0 -1 3 4.8864286392927170e-02</internalNodes>
          <leafValues>
            -7.0898830890655518e-01 8.3961814641952515e-01</leafValues></_></weakClassifiers></_>
    <!-- stage 8 -->
    <_>
      <maxWeakCount>2</maxWeakCount>
      <stageThreshold>1.6300467252731323e+00</stageThreshold>
      <weakClassifiers>
        <_>
          <internalNodes>
            0 -1 14 2.6579350233078003e-02</internalNodes>
          <leafValues>
            -7.2093021869659424e-01 8.4462666511535645e-01</leafValues></_>
        <_>
          <internalNodes>
            0 -1 17 3.9458528161048889e-02</internalNodes>
          <leafValues>
            -5.6182920932769775e-01 7.8542000055313110e-01</leafValues></_></weakClassifiers></_></stages>
  <features>
    <_>
      <rect>
        0 0 8 8 19</rect></_>
    <_>
      <rect>
        0 4 8 8 22</rect></_>
    <_>
      <rect>
        4 0 8 8 12</rect></_>
    <_>
      <rect>
        4 12 8 8 24</rect></_>
    <_>
      <rect>
        8 0 8 8 7</rect></_>
    <_>
      <rect>
        12 4 8 8 15</rect></_>
    <_>
      <rect>
        12 8 8 8 26</rect></_>
    <_>
      <rect>
        12 16 8 8 29</rect></_>
    <_>
      <rect>
        16 4 8 8 13</rect></_>
    <_>
      <rect>
        16 4 8 8 31</rect></_>
    <_>
      <rect>
        16 8 8 8 15</rect></_>
    <_>
      <rect>
        0 0 8 16 22</rect></_>
    <_>
      <rect>
        12 0 8 16 15</rect></_>
    <_>
      <rect>
        0 8 16 8 1</rect></_>
    <_>
      <rect>
        0 0 16 16 15</rect></_>
    <_>
      <rect>
        0 0 16 16 23</rect></_>
    <_>
      <rect>
        0 0 16 16 24</rect></_>
    <_>
      <rect>
        0 0 16 16 28</rect></_></features></cascade>
</opencv_storage>
