<?xml version="1.0"?>
<opencv_storage>
<!-- Created using Computer Vision System Toolbox(tm) for MATLAB(R) -->
<!-- Version 9.1.0.441655 (R2016b) -->
<!-- Compatible with OpenCV 2.4 -->
<cascade>
  <stageType>BOOST</stageType>
  <featureType>HOG</featureType>
  <height>33</height>
  <width>32</width>
  <stageParams>
    <boostType>GAB</boostType>
    <minHitRate>8.0000001192092896e-01</minHitRate>
    <maxFalseAlarm>2.0000000298023224e-01</maxFalseAlarm>
    <weightTrimRate>9.4999999999999996e-01</weightTrimRate>
    <maxDepth>1</maxDepth>
    <maxWeakCount>100</maxWeakCount></stageParams>
  <featureParams>
    <maxCatCount>0</maxCatCount>
    <featSize>36</featSize></featureParams>
  <stageNum>8</stageNum>
  <stages>
    <!-- stage 0 -->
    <_>
      <maxWeakCount>2</maxWeakCount>
      <stageThreshold>1.1038933992385864e+00</stageThreshold>
      <weakClassifiers>
        <_>
          <internalNodes>
            0 -1 17 1.4293706044554710e-02</internalNodes>
          <leafValues>
            -8.9827162027359009e-01 6.3712781667709351e-01</leafValues></_>
        <_>
          <internalNodes>
            0 -1 1 3.0862899497151375e-02</internalNodes>
          <leafValues>
            4.6676552295684814e-01 -8.5213863849639893e-01</leafValues></_></weakClassifiers></_>
    <!-- stage 1 -->
    <_>
      <maxWeakCount>3</maxWeakCount>
      <stageThreshold>6.2640511989593506e-01</stageThreshold>
      <weakClassifiers>
        <_>
          <internalNodes>
            0 -1 16 1.5300381928682327e-02</internalNodes>
          <leafValues>
            -8.6091125011444092e-01 6.4221823215484619e-01</leafValues></_>
        <_>
          <internalNodes>
            0 -1 11 2.1097887307405472e-02</internalNodes>
          <leafValues>
            -5.5226784944534302e-01 7.5090116262435913e-01</leafValues></_>
        <_>
          <internalNodes>
            0 -1 3 1.6847288236021996e-02</internalNodes>
          <leafValues>
            -7.4085772037506104e-01 5.3645473718643188e-01</leafValues></_></weakClassifiers></_>
    <!-- stage 2 -->
    <_>
      <maxWeakCount>4</maxWeakCount>
      <stageThreshold>5.4288363456726074e-01</stageThreshold>
      <weakClassifiers>
        <_>
          <internalNodes>
            0 -1 8 3.8806997239589691e-02</internalNodes>
          <leafValues>
            4.0041309595108032e-01 -9.1012746095657349e-01</leafValues></_>
        <_>
          <internalNodes>
            0 -1 4 3.7006437778472900e-02</internalNodes>
          <leafValues>
            -5.4330891370773315e-01 5.6671112775802612e-01</leafValues></_>
        <_>
          <internalNodes>
            0 -1 7 7.3815612122416496e-03</internalNodes>
          <leafValues>
            -7.8232228755950928e-01 3.3221781253814697e-01</leafValues></_>
        <_>
          <internalNodes>
            0 -1 10 4.0752317756414413e-02</internalNodes>
          <leafValues>
            3.5356166958808899e-01 -8.1885612010955811e-01</leafValues></_></weakClassifiers></_>
    <!-- stage 3 -->
    <_>
      <maxWeakCount>3</maxWeakCount>
      <stageThreshold>4.0482440590858459e-01</stageThreshold>
      <weakClassifiers>
        <_>
          <internalNodes>
            0 -1 13 3.9881855249404907e-02</internalNodes>
          <leafValues>
            -4.9802890419960022e-01 8.2570803165435791e-01</leafValues></_>
        <_>
          <internalNodes>
            0 -1 14 1.4290522783994675e-02</internalNodes>
          <leafValues>
            -5.6754422187805176e-01 5.1386678218841553e-01</leafValues></_>
        <_>
          <internalNodes>
            0 -1 5 1.9903872162103653e-02</internalNodes>
          <leafValues>
            -6.5874141454696655e-01 3.8898652791976929e-01</leafValues></_></weakClassifiers></_>
    <!-- stage 4 -->
    <_>
      <maxWeakCount>2</maxWeakCount>
      <stageThreshold>2.1721641719341278e-01</stageThreshold>
      <weakClassifiers>
        <_>
          <internalNodes>
            0 -1 17 3.2008569687604904e-02</internalNodes>
          <leafValues>
            -5.5087208747863770e-01 7.1240603923797607e-01</leafValues></_>
        <_>
          <internalNodes>
            0 -1 0 4.6775601804256439e-02</internalNodes>
          <leafValues>
            -2.8453290462493896e-01 7.6808851957321167e-01</leafValues></_></weakClassifiers></_>
    <!-- stage 5 -->
    <_>
      <maxWeakCount>1</maxWeakCount>
      <stageThreshold>7.6702356338500977e-01</stageThreshold>
      <weakClassifiers>
        <_>
          <internalNodes>
            0 -1 6 4.3181076645851135e-02</internalNodes>
          <leafValues>
            -7.0373278856277466e-01 7.6702356338500977e-01</leafValues></_></weakClassifiers></_>
    <!-- stage 6 -->
    <_>
      <maxWeakCount>3</maxWeakCount>
      <stageThreshold>6.8423098325729370e-01</stageThreshold>
      <weakClassifiers>
        <_>
          <internalNodes>
            0 -1 15 4.7669932246208191e-02</internalNodes>
          <leafValues>
            -5.6715881824493408e-01 7.4893009662628174e-01</leafValues></_>
        <_>
          <internalNodes>
            0 -1 2 7.9943249002099037e-03</internalNodes>
          <leafValues>
            -8.2274591922760010e-01 5.0091391801834106e-01</leafValues></_>
        <_>
          <internalNodes>
            0 -1 9 6.8864934146404266e-02</internalNodes>
          <leafValues>
            -5.1089745759963989e-01 7.5047588348388672e-01</leafValues></_></weakClassifiers></_>
    <!-- stage 7 -->
    <_>
      <maxWeakCount>2</maxWeakCount>
      <stageThreshold>1.2147811651229858e+00</stageThreshold>
      <weakClassifiers>
        <_>
          <internalNodes>
            0 -1 16 3.2897539436817169e-02</internalNodes>
          <leafValues>
            -5.5555558204650879e-01 7.4339622259140015e-01</leafValues></_>
        <_>
          <internalNodes>
            0 -1 12 2.6733158156275749e-02</internalNodes>
          <leafValues>
            -8.8775604963302612e-01 4.7138497233390808e-01</leafValues></_></weakClassifiers></_></stages>
  <features>
    <_>
      <rect>
        0 0 8 8 19</rect></_>
    <_>
      <rect>
        0 4 8 8 22</rect></_>
    <_>
      <rect>
        4 0 8 8 12</rect></_>
    <_>
      <rect>
        12 0 8 8 3</rect></_>
    <_>
      <rect>
        12 12 8 8 28</rect></_>
    <_>
      <rect>
        12 16 8 8 8</rect></_>
    <_>
      <rect>
        16 0 8 8 33</rect></_>
    <_>
      <rect>
        16 0 8 8 34</rect></_>
    <_>
      <rect>
        16 4 8 8 31</rect></_>
    <_>
      <rect>
        16 12 8 8 28</rect></_>
    <_>
      <rect>
        0 0 8 16 22</rect></_>
    <_>
      <rect>
        12 0 8 16 15</rect></_>
    <_>
      <rect>
        0 4 16 8 1</rect></_>
    <_>
      <rect>
        0 4 16 8 15</rect></_>
    <_>
      <rect>
        0 12 16 8 23</rect></_>
    <_>
      <rect>
        0 0 16 16 1</rect></_>
    <_>
      <rect>
        0 0 16 16 24</rect></_>
    <_>
      <rect>
        0 0 16 16 28</rect></_></features></cascade>
</opencv_storage>
