<?xml version="1.0"?>
<opencv_storage>
<!-- Created using Computer Vision System Toolbox(tm) for MATLAB(R) -->
<!-- Version 9.2.0.556344 (R2017a) -->
<!-- Compatible with OpenCV 3.1 -->
<cascade>
  <stageType>BOOST</stageType>
  <featureType>LBP</featureType>
  <height>32</height>
  <width>35</width>
  <stageParams>
    <boostType>GAB</boostType>
    <minHitRate>9.4999998807907104e-01</minHitRate>
    <maxFalseAlarm>1.0000000149011612e-01</maxFalseAlarm>
    <weightTrimRate>9.4999999999999996e-01</weightTrimRate>
    <maxDepth>1</maxDepth>
    <maxWeakCount>100</maxWeakCount></stageParams>
  <featureParams>
    <maxCatCount>256</maxCatCount>
    <featSize>1</featSize></featureParams>
  <stageNum>18</stageNum>
  <stages>
    <!-- stage 0 -->
    <_>
      <maxWeakCount>1</maxWeakCount>
      <stageThreshold>1.</stageThreshold>
      <weakClassifiers>
        <_>
          <internalNodes>
            0 -1 5 -800738853 1342378241 16810003 1347780864 1074446470
            2162816 -1073739637 -242499446</internalNodes>
          <leafValues>
            -9.8437500000000000e-01 1.</leafValues></_></weakClassifiers></_>
    <!-- stage 1 -->
    <_>
      <maxWeakCount>1</maxWeakCount>
      <stageThreshold>1.</stageThreshold>
      <weakClassifiers>
        <_>
          <internalNodes>
            0 -1 15 1094964447 -788332543 1082130432 -1862171584 229512
            -1879031808 131211 -615529877</internalNodes>
          <leafValues>
            -9.6899223327636719e-01 1.</leafValues></_></weakClassifiers></_>
    <!-- stage 2 -->
    <_>
      <maxWeakCount>1</maxWeakCount>
      <stageThreshold>1.</stageThreshold>
      <weakClassifiers>
        <_>
          <internalNodes>
            0 -1 1 -903855712 1048577 256 16842752 32769 64 -2113929216
            -2013102077</internalNodes>
          <leafValues>
            -1. 1.</leafValues></_></weakClassifiers></_>
    <!-- stage 3 -->
    <_>
      <maxWeakCount>1</maxWeakCount>
      <stageThreshold>1.</stageThreshold>
      <weakClassifiers>
        <_>
          <internalNodes>
            0 -1 7 1074970625 -2147483632 16777472 32773 -2147482952
            -2147483648 16793736 1367343744</internalNodes>
          <leafValues>
            -1. 1.</leafValues></_></weakClassifiers></_>
    <!-- stage 4 -->
    <_>
      <maxWeakCount>1</maxWeakCount>
      <stageThreshold>1.</stageThreshold>
      <weakClassifiers>
        <_>
          <internalNodes>
            0 -1 8 -801062400 -2147483648 24576 4 32776 0 1073774592
            -1953790967</internalNodes>
          <leafValues>
            -1. 1.</leafValues></_></weakClassifiers></_>
    <!-- stage 5 -->
    <_>
      <maxWeakCount>1</maxWeakCount>
      <stageThreshold>1.</stageThreshold>
      <weakClassifiers>
        <_>
          <internalNodes>
            0 -1 4 524803 1493172224 0 83886080 256 1073741824 32963
            52628019</internalNodes>
          <leafValues>
            -1. 1.</leafValues></_></weakClassifiers></_>
    <!-- stage 6 -->
    <_>
      <maxWeakCount>1</maxWeakCount>
      <stageThreshold>1.</stageThreshold>
      <weakClassifiers>
        <_>
          <internalNodes>
            0 -1 10 1879097361 1073741824 67109121 1342177280 32897
            -2122317824 16777354 -1073676286</internalNodes>
          <leafValues>
            -1. 1.</leafValues></_></weakClassifiers></_>
    <!-- stage 7 -->
    <_>
      <maxWeakCount>1</maxWeakCount>
      <stageThreshold>1.</stageThreshold>
      <weakClassifiers>
        <_>
          <internalNodes>
            0 -1 14 1108537879 1048577 8388608 269484032 268451856 0
            163840 -1576927224</internalNodes>
          <leafValues>
            -1. 1.</leafValues></_></weakClassifiers></_>
    <!-- stage 8 -->
    <_>
      <maxWeakCount>1</maxWeakCount>
      <stageThreshold>1.</stageThreshold>
      <weakClassifiers>
        <_>
          <internalNodes>
            0 -1 11 115011 16842752 4096 16641 -2147475328 4 0
            -1962901496</internalNodes>
          <leafValues>
            -9.8437500000000000e-01 1.</leafValues></_></weakClassifiers></_>
    <!-- stage 9 -->
    <_>
      <maxWeakCount>1</maxWeakCount>
      <stageThreshold>1.</stageThreshold>
      <weakClassifiers>
        <_>
          <internalNodes>
            0 -1 12 1073774860 -805306368 16777217 1493188697 160
            -2147483648 2179 -939327312</internalNodes>
          <leafValues>
            -1. 1.</leafValues></_></weakClassifiers></_>
    <!-- stage 10 -->
    <_>
      <maxWeakCount>1</maxWeakCount>
      <stageThreshold>1.</stageThreshold>
      <weakClassifiers>
        <_>
          <internalNodes>
            0 -1 2 0 1245201 1 -2147287039 276824072 939524128
            -2147483576 -1358954494</internalNodes>
          <leafValues>
            -1. 1.</leafValues></_></weakClassifiers></_>
    <!-- stage 11 -->
    <_>
      <maxWeakCount>1</maxWeakCount>
      <stageThreshold>1.</stageThreshold>
      <weakClassifiers>
        <_>
          <internalNodes>
            0 -1 16 1141092578 1073741824 32768 32768 16384 1073741824
            67207440 -2113699712</internalNodes>
          <leafValues>
            -1. 1.</leafValues></_></weakClassifiers></_>
    <!-- stage 12 -->
    <_>
      <maxWeakCount>1</maxWeakCount>
      <stageThreshold>1.</stageThreshold>
      <weakClassifiers>
        <_>
          <internalNodes>
            0 -1 9 -1879011262 16842769 512 65536 0 134217728 1 8388609</internalNodes>
          <leafValues>
            -1. 1.</leafValues></_></weakClassifiers></_>
    <!-- stage 13 -->
    <_>
      <maxWeakCount>1</maxWeakCount>
      <stageThreshold>1.</stageThreshold>
      <weakClassifiers>
        <_>
          <internalNodes>
            0 -1 6 49284 128 131073 0 0 0 65538 -1610055672</internalNodes>
          <leafValues>
            -1. 1.</leafValues></_></weakClassifiers></_>
    <!-- stage 14 -->
    <_>
      <maxWeakCount>1</maxWeakCount>
      <stageThreshold>1.</stageThreshold>
      <weakClassifiers>
        <_>
          <internalNodes>
            0 -1 0 -1073721333 -788529151 5 0 2050 268435456 2 65536</internalNodes>
          <leafValues>
            -9.5384615659713745e-01 1.</leafValues></_></weakClassifiers></_>
    <!-- stage 15 -->
    <_>
      <maxWeakCount>1</maxWeakCount>
      <stageThreshold>9.3846154212951660e-01</stageThreshold>
      <weakClassifiers>
        <_>
          <internalNodes>
            0 -1 3 272630018 310378497 212993 0 134217984 12582980
            196633 1225818113</internalNodes>
          <leafValues>
            -9.8387098312377930e-01 9.3846154212951660e-01</leafValues></_></weakClassifiers></_>
    <!-- stage 16 -->
    <_>
      <maxWeakCount>1</maxWeakCount>
      <stageThreshold>1.</stageThreshold>
      <weakClassifiers>
        <_>
          <internalNodes>
            0 -1 13 -2145157119 -2147483648 2065 -2147418112 -2147483133
            0 134250513 -2138851257</internalNodes>
          <leafValues>
            -9.2424243688583374e-01 1.</leafValues></_></weakClassifiers></_>
    <!-- stage 17 -->
    <_>
      <maxWeakCount>2</maxWeakCount>
      <stageThreshold>5.3353719413280487e-02</stageThreshold>
      <weakClassifiers>
        <_>
          <internalNodes>
            0 -1 17 -269893457 -1360068610 -1073741825 -268439570 -2
            -268435458 1937733494 -528236371</internalNodes>
          <leafValues>
            -8.9393937587738037e-01 9.6721309423446655e-01</leafValues></_>
        <_>
          <internalNodes>
            0 -1 18 -2130394925 128 -2147483647 1090519040 536907915
            -2147483648 8388610 -750681850</internalNodes>
          <leafValues>
            -9.2002087831497192e-01 9.4729310274124146e-01</leafValues></_></weakClassifiers></_></stages>
  <features>
    <_>
      <rect>
        0 2 5 4</rect></_>
    <_>
      <rect>
        0 3 8 6</rect></_>
    <_>
      <rect>
        0 4 10 4</rect></_>
    <_>
      <rect>
        1 2 8 7</rect></_>
    <_>
      <rect>
        1 4 7 4</rect></_>
    <_>
      <rect>
        1 5 7 4</rect></_>
    <_>
      <rect>
        1 6 4 5</rect></_>
    <_>
      <rect>
        2 8 7 3</rect></_>
    <_>
      <rect>
        3 2 10 9</rect></_>
    <_>
      <rect>
        4 9 8 5</rect></_>
    <_>
      <rect>
        4 11 6 3</rect></_>
    <_>
      <rect>
        5 1 9 5</rect></_>
    <_>
      <rect>
        5 5 9 3</rect></_>
    <_>
      <rect>
        6 0 3 5</rect></_>
    <_>
      <rect>
        6 8 4 3</rect></_>
    <_>
      <rect>
        9 13 6 4</rect></_>
    <_>
      <rect>
        10 4 5 9</rect></_>
    <_>
      <rect>
        21 15 4 3</rect></_>
    <_>
      <rect>
        25 8 3 3</rect></_></features></cascade>
</opencv_storage>
