<?xml version="1.0"?>
<opencv_storage>
<!-- Created using Computer Vision System Toolbox(tm) for MATLAB(R) -->
<!-- Version 9.1.0.441655 (R2016b) -->
<!-- Compatible with OpenCV 2.4 -->
<cascade>
  <stageType>BOOST</stageType>
  <featureType>HOG</featureType>
  <height>33</height>
  <width>32</width>
  <stageParams>
    <boostType>GAB</boostType>
    <minHitRate>9.4999998807907104e-01</minHitRate>
    <maxFalseAlarm>3.0000001192092896e-01</maxFalseAlarm>
    <weightTrimRate>9.4999999999999996e-01</weightTrimRate>
    <maxDepth>1</maxDepth>
    <maxWeakCount>100</maxWeakCount></stageParams>
  <featureParams>
    <maxCatCount>0</maxCatCount>
    <featSize>36</featSize></featureParams>
  <stageNum>13</stageNum>
  <stages>
    <!-- stage 0 -->
    <_>
      <maxWeakCount>1</maxWeakCount>
      <stageThreshold>6.5362071990966797e-01</stageThreshold>
      <weakClassifiers>
        <_>
          <internalNodes>
            0 -1 66 1.4293706044554710e-02</internalNodes>
          <leafValues>
            -8.9490032196044922e-01 6.5362071990966797e-01</leafValues></_></weakClassifiers></_>
    <!-- stage 1 -->
    <_>
      <maxWeakCount>3</maxWeakCount>
      <stageThreshold>1.6552923619747162e-01</stageThreshold>
      <weakClassifiers>
        <_>
          <internalNodes>
            0 -1 65 1.8846951425075531e-02</internalNodes>
          <leafValues>
            -7.2376972436904907e-01 6.4368289709091187e-01</leafValues></_>
        <_>
          <internalNodes>
            0 -1 2 3.5493478178977966e-02</internalNodes>
          <leafValues>
            4.9101656675338745e-01 -8.6451882123947144e-01</leafValues></_>
        <_>
          <internalNodes>
            0 -1 46 9.6554737538099289e-03</internalNodes>
          <leafValues>
            -8.5861402750015259e-01 3.9828240871429443e-01</leafValues></_></weakClassifiers></_>
    <!-- stage 2 -->
    <_>
      <maxWeakCount>3</maxWeakCount>
      <stageThreshold>2.5151669979095459e-01</stageThreshold>
      <weakClassifiers>
        <_>
          <internalNodes>
            0 -1 48 3.6266110837459564e-02</internalNodes>
          <leafValues>
            4.3734273314476013e-01 -8.1698524951934814e-01</leafValues></_>
        <_>
          <internalNodes>
            0 -1 21 4.0703400969505310e-02</internalNodes>
          <leafValues>
            -5.2046734094619751e-01 6.7870914936065674e-01</leafValues></_>
        <_>
          <internalNodes>
            0 -1 49 1.1855887249112129e-02</internalNodes>
          <leafValues>
            -8.0848234891891479e-01 3.8979282975196838e-01</leafValues></_></weakClassifiers></_>
    <!-- stage 3 -->
    <_>
      <maxWeakCount>3</maxWeakCount>
      <stageThreshold>2.0788581669330597e-01</stageThreshold>
      <weakClassifiers>
        <_>
          <internalNodes>
            0 -1 64 3.6057747900485992e-02</internalNodes>
          <leafValues>
            -4.4225865602493286e-01 6.6302567720413208e-01</leafValues></_>
        <_>
          <internalNodes>
            0 -1 42 1.1722346767783165e-02</internalNodes>
          <leafValues>
            -7.6824337244033813e-01 3.9853051304817200e-01</leafValues></_>
        <_>
          <internalNodes>
            0 -1 35 4.6924747526645660e-02</internalNodes>
          <leafValues>
            3.5574659705162048e-01 -8.5367035865783691e-01</leafValues></_></weakClassifiers></_>
    <!-- stage 4 -->
    <_>
      <maxWeakCount>3</maxWeakCount>
      <stageThreshold>-1.9486484816297889e-03</stageThreshold>
      <weakClassifiers>
        <_>
          <internalNodes>
            0 -1 33 4.0834389626979828e-02</internalNodes>
          <leafValues>
            4.2313522100448608e-01 -7.8213506937026978e-01</leafValues></_>
        <_>
          <internalNodes>
            0 -1 25 2.1516043692827225e-02</internalNodes>
          <leafValues>
            -7.3146367073059082e-01 3.3388215303421021e-01</leafValues></_>
        <_>
          <internalNodes>
            0 -1 43 1.8460294231772423e-02</internalNodes>
          <leafValues>
            -5.5680787563323975e-01 4.4630426168441772e-01</leafValues></_></weakClassifiers></_>
    <!-- stage 5 -->
    <_>
      <maxWeakCount>4</maxWeakCount>
      <stageThreshold>-1.7619621753692627e-01</stageThreshold>
      <weakClassifiers>
        <_>
          <internalNodes>
            0 -1 65 3.1983435153961182e-02</internalNodes>
          <leafValues>
            -4.4539877772331238e-01 7.3716276884078979e-01</leafValues></_>
        <_>
          <internalNodes>
            0 -1 30 3.3016420900821686e-02</internalNodes>
          <leafValues>
            4.2064890265464783e-01 -7.2721993923187256e-01</leafValues></_>
        <_>
          <internalNodes>
            0 -1 20 9.5323361456394196e-03</internalNodes>
          <leafValues>
            -6.6703939437866211e-01 3.9630055427551270e-01</leafValues></_>
        <_>
          <internalNodes>
            0 -1 23 1.4980368316173553e-02</internalNodes>
          <leafValues>
            -4.5354008674621582e-01 5.1559305191040039e-01</leafValues></_></weakClassifiers></_>
    <!-- stage 6 -->
    <_>
      <maxWeakCount>9</maxWeakCount>
      <stageThreshold>-5.2091240882873535e-01</stageThreshold>
      <weakClassifiers>
        <_>
          <internalNodes>
            0 -1 1 4.1978929191827774e-02</internalNodes>
          <leafValues>
            -3.7783515453338623e-01 5.4947710037231445e-01</leafValues></_>
        <_>
          <internalNodes>
            0 -1 31 1.9866544753313065e-02</internalNodes>
          <leafValues>
            3.3726671338081360e-01 -5.5451947450637817e-01</leafValues></_>
        <_>
          <internalNodes>
            0 -1 63 1.2186957523226738e-02</internalNodes>
          <leafValues>
            -7.5937402248382568e-01 1.6655309498310089e-01</leafValues></_>
        <_>
          <internalNodes>
            0 -1 53 2.8248678892850876e-02</internalNodes>
          <leafValues>
            -5.1811027526855469e-01 2.4339523911476135e-01</leafValues></_>
        <_>
          <internalNodes>
            0 -1 3 4.2875047773122787e-02</internalNodes>
          <leafValues>
            -2.3614820837974548e-01 5.3964060544967651e-01</leafValues></_>
        <_>
          <internalNodes>
            0 -1 59 1.5612728893756866e-02</internalNodes>
          <leafValues>
            -5.7417917251586914e-01 2.1711798012256622e-01</leafValues></_>
        <_>
          <internalNodes>
            0 -1 54 3.5629168152809143e-02</internalNodes>
          <leafValues>
            -3.1538903713226318e-01 3.5227793455123901e-01</leafValues></_>
        <_>
          <internalNodes>
            0 -1 22 3.1420275568962097e-02</internalNodes>
          <leafValues>
            2.3286366462707520e-01 -5.6446343660354614e-01</leafValues></_>
        <_>
          <internalNodes>
            0 -1 4 8.2834996283054352e-03</internalNodes>
          <leafValues>
            -7.2056764364242554e-01 1.0304945707321167e-01</leafValues></_></weakClassifiers></_>
    <!-- stage 7 -->
    <_>
      <maxWeakCount>8</maxWeakCount>
      <stageThreshold>-7.7986681461334229e-01</stageThreshold>
      <weakClassifiers>
        <_>
          <internalNodes>
            0 -1 39 4.1993446648120880e-02</internalNodes>
          <leafValues>
            -4.2083331942558289e-01 7.1462261676788330e-01</leafValues></_>
        <_>
          <internalNodes>
            0 -1 24 4.9973528832197189e-02</internalNodes>
          <leafValues>
            -2.6966324448585510e-01 5.8001261949539185e-01</leafValues></_>
        <_>
          <internalNodes>
            0 -1 62 2.3113727569580078e-02</internalNodes>
          <leafValues>
            2.8503251075744629e-01 -5.8278399705886841e-01</leafValues></_>
        <_>
          <internalNodes>
            0 -1 2 1.8568243831396103e-02</internalNodes>
          <leafValues>
            2.6625627279281616e-01 -4.9713066220283508e-01</leafValues></_>
        <_>
          <internalNodes>
            0 -1 12 6.0517713427543640e-02</internalNodes>
          <leafValues>
            -2.8036281466484070e-01 5.9033328294754028e-01</leafValues></_>
        <_>
          <internalNodes>
            0 -1 29 8.7022766470909119e-02</internalNodes>
          <leafValues>
            -9.6076592803001404e-02 8.7204033136367798e-01</leafValues></_>
        <_>
          <internalNodes>
            0 -1 54 3.9818316698074341e-02</internalNodes>
          <leafValues>
            -2.3618806898593903e-01 3.6266189813613892e-01</leafValues></_>
        <_>
          <internalNodes>
            0 -1 16 6.6418856382369995e-02</internalNodes>
          <leafValues>
            -1.3534069061279297e-01 7.3920232057571411e-01</leafValues></_></weakClassifiers></_>
    <!-- stage 8 -->
    <_>
      <maxWeakCount>4</maxWeakCount>
      <stageThreshold>-7.0391911268234253e-01</stageThreshold>
      <weakClassifiers>
        <_>
          <internalNodes>
            0 -1 29 5.4985478520393372e-02</internalNodes>
          <leafValues>
            -3.9893531799316406e-01 8.3745342493057251e-01</leafValues></_>
        <_>
          <internalNodes>
            0 -1 13 2.6427689939737320e-02</internalNodes>
          <leafValues>
            4.7546720504760742e-01 -6.3820648193359375e-01</leafValues></_>
        <_>
          <internalNodes>
            0 -1 5 5.1961511373519897e-02</internalNodes>
          <leafValues>
            -3.1520354747772217e-01 7.1156167984008789e-01</leafValues></_>
        <_>
          <internalNodes>
            0 -1 19 2.9593825340270996e-02</internalNodes>
          <leafValues>
            2.5938206911087036e-01 -5.8796250820159912e-01</leafValues></_></weakClassifiers></_>
    <!-- stage 9 -->
    <_>
      <maxWeakCount>7</maxWeakCount>
      <stageThreshold>-4.4506898522377014e-01</stageThreshold>
      <weakClassifiers>
        <_>
          <internalNodes>
            0 -1 58 1.9116729497909546e-02</internalNodes>
          <leafValues>
            -6.8268960714340210e-01 4.4925945997238159e-01</leafValues></_>
        <_>
          <internalNodes>
            0 -1 47 5.9124678373336792e-02</internalNodes>
          <leafValues>
            -2.7230444550514221e-01 7.4170207977294922e-01</leafValues></_>
        <_>
          <internalNodes>
            0 -1 45 2.2063411772251129e-02</internalNodes>
          <leafValues>
            2.8524568676948547e-01 -6.3242393732070923e-01</leafValues></_>
        <_>
          <internalNodes>
            0 -1 6 1.9419753924012184e-02</internalNodes>
          <leafValues>
            2.0461070537567139e-01 -6.3994771242141724e-01</leafValues></_>
        <_>
          <internalNodes>
            0 -1 17 1.0777042247354984e-02</internalNodes>
          <leafValues>
            -7.0438998937606812e-01 1.7227260768413544e-01</leafValues></_>
        <_>
          <internalNodes>
            0 -1 8 4.3998580425977707e-02</internalNodes>
          <leafValues>
            -3.1678602099418640e-01 3.8462820649147034e-01</leafValues></_>
        <_>
          <internalNodes>
            0 -1 60 2.4433024227619171e-02</internalNodes>
          <leafValues>
            1.6458211839199066e-01 -6.2328636646270752e-01</leafValues></_></weakClassifiers></_>
    <!-- stage 10 -->
    <_>
      <maxWeakCount>10</maxWeakCount>
      <stageThreshold>-5.2297812700271606e-01</stageThreshold>
      <weakClassifiers>
        <_>
          <internalNodes>
            0 -1 26 5.2793633192777634e-02</internalNodes>
          <leafValues>
            -4.0906608104705811e-01 7.0682603120803833e-01</leafValues></_>
        <_>
          <internalNodes>
            0 -1 50 2.8880218043923378e-02</internalNodes>
          <leafValues>
            -3.3271852135658264e-01 4.8748621344566345e-01</leafValues></_>
        <_>
          <internalNodes>
            0 -1 2 1.3066756539046764e-02</internalNodes>
          <leafValues>
            3.5478135943412781e-01 -3.9659407734870911e-01</leafValues></_>
        <_>
          <internalNodes>
            0 -1 34 2.1656606346368790e-02</internalNodes>
          <leafValues>
            2.0912665128707886e-01 -5.4246819019317627e-01</leafValues></_>
        <_>
          <internalNodes>
            0 -1 7 2.0614601671695709e-02</internalNodes>
          <leafValues>
            1.7640289664268494e-01 -4.3766483664512634e-01</leafValues></_>
        <_>
          <internalNodes>
            0 -1 14 1.7443902790546417e-02</internalNodes>
          <leafValues>
            2.2177547216415405e-01 -4.1818293929100037e-01</leafValues></_>
        <_>
          <internalNodes>
            0 -1 27 1.7682012170553207e-02</internalNodes>
          <leafValues>
            2.2286558151245117e-01 -4.0627491474151611e-01</leafValues></_>
        <_>
          <internalNodes>
            0 -1 18 1.4219555072486401e-02</internalNodes>
          <leafValues>
            -4.5839571952819824e-01 1.8379381299018860e-01</leafValues></_>
        <_>
          <internalNodes>
            0 -1 30 2.5221992284059525e-02</internalNodes>
          <leafValues>
            1.9074377417564392e-01 -5.0825607776641846e-01</leafValues></_>
        <_>
          <internalNodes>
            0 -1 41 1.1917477473616600e-02</internalNodes>
          <leafValues>
            -7.0467877388000488e-01 1.0969223082065582e-01</leafValues></_></weakClassifiers></_>
    <!-- stage 11 -->
    <_>
      <maxWeakCount>11</maxWeakCount>
      <stageThreshold>-5.6976389884948730e-01</stageThreshold>
      <weakClassifiers>
        <_>
          <internalNodes>
            0 -1 66 3.7377737462520599e-02</internalNodes>
          <leafValues>
            -4.5783972740173340e-01 4.9785298109054565e-01</leafValues></_>
        <_>
          <internalNodes>
            0 -1 1 7.0524372160434723e-02</internalNodes>
          <leafValues>
            -2.3581129312515259e-01 6.1052411794662476e-01</leafValues></_>
        <_>
          <internalNodes>
            0 -1 56 4.1748397052288055e-02</internalNodes>
          <leafValues>
            -3.6283838748931885e-01 3.3543720841407776e-01</leafValues></_>
        <_>
          <internalNodes>
            0 -1 40 2.7674453333020210e-02</internalNodes>
          <leafValues>
            1.3041593134403229e-01 -5.7266157865524292e-01</leafValues></_>
        <_>
          <internalNodes>
            0 -1 10 2.6678431779146194e-02</internalNodes>
          <leafValues>
            -2.3755598068237305e-01 3.6838185787200928e-01</leafValues></_>
        <_>
          <internalNodes>
            0 -1 44 2.9233733192086220e-02</internalNodes>
          <leafValues>
            -3.3947369456291199e-01 2.8591385483741760e-01</leafValues></_>
        <_>
          <internalNodes>
            0 -1 51 5.2185714244842529e-02</internalNodes>
          <leafValues>
            1.8877805769443512e-01 -5.1506382226943970e-01</leafValues></_>
        <_>
          <internalNodes>
            0 -1 36 1.1656265705823898e-02</internalNodes>
          <leafValues>
            -6.7400771379470825e-01 1.0979074984788895e-01</leafValues></_>
        <_>
          <internalNodes>
            0 -1 37 5.3014334291219711e-02</internalNodes>
          <leafValues>
            8.4657244384288788e-02 -7.4383336305618286e-01</leafValues></_>
        <_>
          <internalNodes>
            0 -1 32 1.2723346240818501e-02</internalNodes>
          <leafValues>
            -5.5063939094543457e-01 1.3158322870731354e-01</leafValues></_>
        <_>
          <internalNodes>
            0 -1 22 2.2260732948780060e-02</internalNodes>
          <leafValues>
            1.6667912900447845e-01 -4.4022855162620544e-01</leafValues></_></weakClassifiers></_>
    <!-- stage 12 -->
    <_>
      <maxWeakCount>13</maxWeakCount>
      <stageThreshold>-1.8562316894531250e-01</stageThreshold>
      <weakClassifiers>
        <_>
          <internalNodes>
            0 -1 21 5.5128686130046844e-02</internalNodes>
          <leafValues>
            -7.8936256468296051e-02 7.6375502347946167e-01</leafValues></_>
        <_>
          <internalNodes>
            0 -1 61 4.3734945356845856e-02</internalNodes>
          <leafValues>
            -1.9637127220630646e-01 4.9818438291549683e-01</leafValues></_>
        <_>
          <internalNodes>
            0 -1 31 8.1754671409726143e-03</internalNodes>
          <leafValues>
            4.1985103487968445e-01 -2.4482186138629913e-01</leafValues></_>
        <_>
          <internalNodes>
            0 -1 38 4.3042711913585663e-02</internalNodes>
          <leafValues>
            1.5783756971359253e-01 -6.4510089159011841e-01</leafValues></_>
        <_>
          <internalNodes>
            0 -1 15 1.1589538305997849e-01</internalNodes>
          <leafValues>
            -1.2787754833698273e-01 8.4077358245849609e-01</leafValues></_>
        <_>
          <internalNodes>
            0 -1 28 3.7384591996669769e-02</internalNodes>
          <leafValues>
            1.3091664016246796e-01 -6.3642990589141846e-01</leafValues></_>
        <_>
          <internalNodes>
            0 -1 9 2.1523665636777878e-02</internalNodes>
          <leafValues>
            -3.7243190407752991e-01 2.1522879600524902e-01</leafValues></_>
        <_>
          <internalNodes>
            0 -1 57 2.9689569026231766e-02</internalNodes>
          <leafValues>
            -4.3221241235733032e-01 2.1197846531867981e-01</leafValues></_>
        <_>
          <internalNodes>
            0 -1 52 5.2385125309228897e-03</internalNodes>
          <leafValues>
            -7.5825619697570801e-01 1.0961443930864334e-01</leafValues></_>
        <_>
          <internalNodes>
            0 -1 11 8.3325989544391632e-02</internalNodes>
          <leafValues>
            -1.5090876817703247e-01 5.8884882926940918e-01</leafValues></_>
        <_>
          <internalNodes>
            0 -1 20 1.1782628484070301e-02</internalNodes>
          <leafValues>
            -4.3341800570487976e-01 1.7247614264488220e-01</leafValues></_>
        <_>
          <internalNodes>
            0 -1 55 5.2810885012149811e-02</internalNodes>
          <leafValues>
            9.4838313758373260e-02 -7.2879874706268311e-01</leafValues></_>
        <_>
          <internalNodes>
            0 -1 0 1.1908717453479767e-02</internalNodes>
          <leafValues>
            -5.9128028154373169e-01 1.0806285589933395e-01</leafValues></_></weakClassifiers></_></stages>
  <features>
    <_>
      <rect>
        0 0 8 8 12</rect></_>
    <_>
      <rect>
        0 0 8 8 19</rect></_>
    <_>
      <rect>
        0 4 8 8 22</rect></_>
    <_>
      <rect>
        0 16 8 8 6</rect></_>
    <_>
      <rect>
        0 16 8 8 7</rect></_>
    <_>
      <rect>
        4 4 8 8 1</rect></_>
    <_>
      <rect>
        4 4 8 8 6</rect></_>
    <_>
      <rect>
        4 4 8 8 8</rect></_>
    <_>
      <rect>
        4 8 8 8 35</rect></_>
    <_>
      <rect>
        4 12 8 8 23</rect></_>
    <_>
      <rect>
        4 16 8 8 16</rect></_>
    <_>
      <rect>
        4 16 8 8 24</rect></_>
    <_>
      <rect>
        8 0 8 8 3</rect></_>
    <_>
      <rect>
        8 0 8 8 8</rect></_>
    <_>
      <rect>
        8 0 8 8 10</rect></_>
    <_>
      <rect>
        8 16 8 8 8</rect></_>
    <_>
      <rect>
        8 16 8 8 24</rect></_>
    <_>
      <rect>
        12 0 8 8 3</rect></_>
    <_>
      <rect>
        12 0 8 8 14</rect></_>
    <_>
      <rect>
        12 0 8 8 17</rect></_>
    <_>
      <rect>
        12 0 8 8 23</rect></_>
    <_>
      <rect>
        12 4 8 8 15</rect></_>
    <_>
      <rect>
        12 4 8 8 17</rect></_>
    <_>
      <rect>
        12 4 8 8 18</rect></_>
    <_>
      <rect>
        12 8 8 8 26</rect></_>
    <_>
      <rect>
        12 12 8 8 28</rect></_>
    <_>
      <rect>
        12 16 8 8 28</rect></_>
    <_>
      <rect>
        12 16 8 8 34</rect></_>
    <_>
      <rect>
        12 16 8 8 35</rect></_>
    <_>
      <rect>
        16 0 8 8 33</rect></_>
    <_>
      <rect>
        16 12 8 8 13</rect></_>
    <_>
      <rect>
        16 12 8 8 31</rect></_>
    <_>
      <rect>
        16 16 8 8 28</rect></_>
    <_>
      <rect>
        0 0 8 16 4</rect></_>
    <_>
      <rect>
        0 0 8 16 20</rect></_>
    <_>
      <rect>
        0 0 8 16 22</rect></_>
    <_>
      <rect>
        0 0 8 16 24</rect></_>
    <_>
      <rect>
        0 0 8 16 34</rect></_>
    <_>
      <rect>
        4 0 8 16 0</rect></_>
    <_>
      <rect>
        4 0 8 16 1</rect></_>
    <_>
      <rect>
        4 0 8 16 18</rect></_>
    <_>
      <rect>
        4 0 8 16 23</rect></_>
    <_>
      <rect>
        8 0 8 16 23</rect></_>
    <_>
      <rect>
        12 0 8 16 3</rect></_>
    <_>
      <rect>
        16 0 8 16 3</rect></_>
    <_>
      <rect>
        16 0 8 16 10</rect></_>
    <_>
      <rect>
        16 0 8 16 15</rect></_>
    <_>
      <rect>
        16 0 8 16 28</rect></_>
    <_>
      <rect>
        16 0 8 16 31</rect></_>
    <_>
      <rect>
        0 0 16 8 2</rect></_>
    <_>
      <rect>
        0 0 16 8 15</rect></_>
    <_>
      <rect>
        0 4 16 8 13</rect></_>
    <_>
      <rect>
        0 4 16 8 20</rect></_>
    <_>
      <rect>
        0 4 16 8 26</rect></_>
    <_>
      <rect>
        0 4 16 8 35</rect></_>
    <_>
      <rect>
        0 12 16 8 22</rect></_>
    <_>
      <rect>
        0 16 16 8 8</rect></_>
    <_>
      <rect>
        0 16 16 8 17</rect></_>
    <_>
      <rect>
        0 16 16 8 24</rect></_>
    <_>
      <rect>
        0 16 16 8 30</rect></_>
    <_>
      <rect>
        0 16 16 8 33</rect></_>
    <_>
      <rect>
        0 0 16 16 1</rect></_>
    <_>
      <rect>
        0 0 16 16 5</rect></_>
    <_>
      <rect>
        0 0 16 16 14</rect></_>
    <_>
      <rect>
        0 0 16 16 15</rect></_>
    <_>
      <rect>
        0 0 16 16 24</rect></_>
    <_>
      <rect>
        0 0 16 16 28</rect></_></features></cascade>
</opencv_storage>
