<?xml version="1.0"?>
<opencv_storage>
<!-- Created using Computer Vision System Toolbox(tm) for MATLAB(R) -->
<!-- Version 9.1.0.441655 (R2016b) -->
<!-- Compatible with OpenCV 2.4 -->
<cascade>
  <stageType>BOOST</stageType>
  <featureType>HOG</featureType>
  <height>33</height>
  <width>32</width>
  <stageParams>
    <boostType>GAB</boostType>
    <minHitRate>8.9999997615814209e-01</minHitRate>
    <maxFalseAlarm>3.0000001192092896e-01</maxFalseAlarm>
    <weightTrimRate>9.4999999999999996e-01</weightTrimRate>
    <maxDepth>1</maxDepth>
    <maxWeakCount>100</maxWeakCount></stageParams>
  <featureParams>
    <maxCatCount>0</maxCatCount>
    <featSize>36</featSize></featureParams>
  <stageNum>11</stageNum>
  <stages>
    <!-- stage 0 -->
    <_>
      <maxWeakCount>1</maxWeakCount>
      <stageThreshold>6.4722484350204468e-01</stageThreshold>
      <weakClassifiers>
        <_>
          <internalNodes>
            0 -1 35 1.4293706044554710e-02</internalNodes>
          <leafValues>
            -8.9641696214675903e-01 6.4722484350204468e-01</leafValues></_></weakClassifiers></_>
    <!-- stage 1 -->
    <_>
      <maxWeakCount>3</maxWeakCount>
      <stageThreshold>2.8721648454666138e-01</stageThreshold>
      <weakClassifiers>
        <_>
          <internalNodes>
            0 -1 34 1.8846951425075531e-02</internalNodes>
          <leafValues>
            -7.3356705904006958e-01 6.4401125907897949e-01</leafValues></_>
        <_>
          <internalNodes>
            0 -1 3 2.5417316704988480e-02</internalNodes>
          <leafValues>
            5.6473702192306519e-01 -7.7814930677413940e-01</leafValues></_>
        <_>
          <internalNodes>
            0 -1 24 9.6554737538099289e-03</internalNodes>
          <leafValues>
            -8.6837112903594971e-01 4.5604652166366577e-01</leafValues></_></weakClassifiers></_>
    <!-- stage 2 -->
    <_>
      <maxWeakCount>4</maxWeakCount>
      <stageThreshold>5.5532747507095337e-01</stageThreshold>
      <weakClassifiers>
        <_>
          <internalNodes>
            0 -1 17 3.4360125660896301e-02</internalNodes>
          <leafValues>
            5.0114941596984863e-01 -7.3351275920867920e-01</leafValues></_>
        <_>
          <internalNodes>
            0 -1 23 1.5090378932654858e-02</internalNodes>
          <leafValues>
            -7.2512269020080566e-01 4.5731875300407410e-01</leafValues></_>
        <_>
          <internalNodes>
            0 -1 21 5.6914858520030975e-02</internalNodes>
          <leafValues>
            2.9735451936721802e-01 -9.4045352935791016e-01</leafValues></_>
        <_>
          <internalNodes>
            0 -1 28 4.1264005005359650e-02</internalNodes>
          <leafValues>
            -4.9628090858459473e-01 5.3416699171066284e-01</leafValues></_></weakClassifiers></_>
    <!-- stage 3 -->
    <_>
      <maxWeakCount>4</maxWeakCount>
      <stageThreshold>-1.2950593233108521e-01</stageThreshold>
      <weakClassifiers>
        <_>
          <internalNodes>
            0 -1 19 2.9048604890704155e-02</internalNodes>
          <leafValues>
            4.5766392350196838e-01 -7.7614140510559082e-01</leafValues></_>
        <_>
          <internalNodes>
            0 -1 7 1.6579879447817802e-02</internalNodes>
          <leafValues>
            -6.3889896869659424e-01 5.0808441638946533e-01</leafValues></_>
        <_>
          <internalNodes>
            0 -1 12 5.8177810162305832e-02</internalNodes>
          <leafValues>
            -3.3779090642929077e-01 7.9475855827331543e-01</leafValues></_>
        <_>
          <internalNodes>
            0 -1 10 1.0447498410940170e-02</internalNodes>
          <leafValues>
            -7.1594214439392090e-01 3.8952004909515381e-01</leafValues></_></weakClassifiers></_>
    <!-- stage 4 -->
    <_>
      <maxWeakCount>3</maxWeakCount>
      <stageThreshold>2.2715981304645538e-01</stageThreshold>
      <weakClassifiers>
        <_>
          <internalNodes>
            0 -1 22 3.4177150577306747e-02</internalNodes>
          <leafValues>
            -5.1153934001922607e-01 7.9853093624114990e-01</leafValues></_>
        <_>
          <internalNodes>
            0 -1 14 1.9634598866105080e-02</internalNodes>
          <leafValues>
            -6.6514164209365845e-01 4.0353387594223022e-01</leafValues></_>
        <_>
          <internalNodes>
            0 -1 29 1.2519570067524910e-02</internalNodes>
          <leafValues>
            -7.9135495424270630e-01 3.3516526222229004e-01</leafValues></_></weakClassifiers></_>
    <!-- stage 5 -->
    <_>
      <maxWeakCount>4</maxWeakCount>
      <stageThreshold>-2.0301660895347595e-01</stageThreshold>
      <weakClassifiers>
        <_>
          <internalNodes>
            0 -1 26 3.3099938184022903e-02</internalNodes>
          <leafValues>
            -5.4890221357345581e-01 6.6385030746459961e-01</leafValues></_>
        <_>
          <internalNodes>
            0 -1 33 1.7544597387313843e-02</internalNodes>
          <leafValues>
            -6.4476889371871948e-01 3.6632648110389709e-01</leafValues></_>
        <_>
          <internalNodes>
            0 -1 35 3.8832619786262512e-02</internalNodes>
          <leafValues>
            -3.2126295566558838e-01 5.5831283330917358e-01</leafValues></_>
        <_>
          <internalNodes>
            0 -1 16 3.2921269536018372e-02</internalNodes>
          <leafValues>
            3.0082204937934875e-01 -6.1385250091552734e-01</leafValues></_></weakClassifiers></_>
    <!-- stage 6 -->
    <_>
      <maxWeakCount>6</maxWeakCount>
      <stageThreshold>-2.1426279842853546e-01</stageThreshold>
      <weakClassifiers>
        <_>
          <internalNodes>
            0 -1 2 4.4165171682834625e-02</internalNodes>
          <leafValues>
            -5.0057220458984375e-01 7.4060279130935669e-01</leafValues></_>
        <_>
          <internalNodes>
            0 -1 9 4.7760572284460068e-02</internalNodes>
          <leafValues>
            -3.4564611315727234e-01 6.5083146095275879e-01</leafValues></_>
        <_>
          <internalNodes>
            0 -1 20 1.6080461442470551e-02</internalNodes>
          <leafValues>
            3.6520230770111084e-01 -4.5133101940155029e-01</leafValues></_>
        <_>
          <internalNodes>
            0 -1 31 2.5058668106794357e-02</internalNodes>
          <leafValues>
            2.2028481960296631e-01 -6.5718460083007813e-01</leafValues></_>
        <_>
          <internalNodes>
            0 -1 8 7.0036761462688446e-02</internalNodes>
          <leafValues>
            -2.5039827823638916e-01 6.6129076480865479e-01</leafValues></_>
        <_>
          <internalNodes>
            0 -1 27 2.4531912058591843e-02</internalNodes>
          <leafValues>
            -5.0785648822784424e-01 2.9686665534973145e-01</leafValues></_></weakClassifiers></_>
    <!-- stage 7 -->
    <_>
      <maxWeakCount>4</maxWeakCount>
      <stageThreshold>-1.4625918120145798e-03</stageThreshold>
      <weakClassifiers>
        <_>
          <internalNodes>
            0 -1 30 3.2071173191070557e-02</internalNodes>
          <leafValues>
            -6.3483840227127075e-01 7.8709083795547485e-01</leafValues></_>
        <_>
          <internalNodes>
            0 -1 11 2.9700616374611855e-02</internalNodes>
          <leafValues>
            5.3230911493301392e-01 -6.7118448019027710e-01</leafValues></_>
        <_>
          <internalNodes>
            0 -1 18 6.8124912679195404e-02</internalNodes>
          <leafValues>
            -2.8442409634590149e-01 8.6452162265777588e-01</leafValues></_>
        <_>
          <internalNodes>
            0 -1 1 2.8712362051010132e-02</internalNodes>
          <leafValues>
            3.8549077510833740e-01 -5.6221210956573486e-01</leafValues></_></weakClassifiers></_>
    <!-- stage 8 -->
    <_>
      <maxWeakCount>4</maxWeakCount>
      <stageThreshold>-3.7351142615079880e-02</stageThreshold>
      <weakClassifiers>
        <_>
          <internalNodes>
            0 -1 24 3.6592651158571243e-02</internalNodes>
          <leafValues>
            -5.7032459974288940e-01 6.4360463619232178e-01</leafValues></_>
        <_>
          <internalNodes>
            0 -1 0 2.5170775130391121e-02</internalNodes>
          <leafValues>
            -4.7674089670181274e-01 5.2319806814193726e-01</leafValues></_>
        <_>
          <internalNodes>
            0 -1 25 4.8203378915786743e-02</internalNodes>
          <leafValues>
            -2.8309625387191772e-01 6.6893368959426880e-01</leafValues></_>
        <_>
          <internalNodes>
            0 -1 6 1.0422637686133385e-02</internalNodes>
          <leafValues>
            -6.9522631168365479e-01 2.9287165403366089e-01</leafValues></_></weakClassifiers></_>
    <!-- stage 9 -->
    <_>
      <maxWeakCount>5</maxWeakCount>
      <stageThreshold>-3.4345772862434387e-01</stageThreshold>
      <weakClassifiers>
        <_>
          <internalNodes>
            0 -1 25 4.2896740138530731e-02</internalNodes>
          <leafValues>
            -5.7375353574752808e-01 6.6477102041244507e-01</leafValues></_>
        <_>
          <internalNodes>
            0 -1 32 3.8101106882095337e-02</internalNodes>
          <leafValues>
            -4.4307839870452881e-01 4.6347481012344360e-01</leafValues></_>
        <_>
          <internalNodes>
            0 -1 13 6.9741338491439819e-02</internalNodes>
          <leafValues>
            -2.3660027980804443e-01 6.1781752109527588e-01</leafValues></_>
        <_>
          <internalNodes>
            0 -1 5 1.4196373522281647e-02</internalNodes>
          <leafValues>
            3.5415250062942505e-01 -3.9433383941650391e-01</leafValues></_>
        <_>
          <internalNodes>
            0 -1 15 2.6846945285797119e-02</internalNodes>
          <leafValues>
            -3.5073119401931763e-01 3.0390945076942444e-01</leafValues></_></weakClassifiers></_>
    <!-- stage 10 -->
    <_>
      <maxWeakCount>3</maxWeakCount>
      <stageThreshold>-1.0990390926599503e-01</stageThreshold>
      <weakClassifiers>
        <_>
          <internalNodes>
            0 -1 34 3.5073377192020416e-02</internalNodes>
          <leafValues>
            -4.1434043645858765e-01 7.0479476451873779e-01</leafValues></_>
        <_>
          <internalNodes>
            0 -1 4 3.9059229195117950e-02</internalNodes>
          <leafValues>
            -5.2371335029602051e-01 5.0725275278091431e-01</leafValues></_>
        <_>
          <internalNodes>
            0 -1 9 8.2483634352684021e-02</internalNodes>
          <leafValues>
            -2.9098531603813171e-01 7.0141977071762085e-01</leafValues></_></weakClassifiers></_></stages>
  <features>
    <_>
      <rect>
        0 0 8 8 11</rect></_>
    <_>
      <rect>
        0 0 8 8 17</rect></_>
    <_>
      <rect>
        0 0 8 8 19</rect></_>
    <_>
      <rect>
        0 4 8 8 22</rect></_>
    <_>
      <rect>
        0 8 8 8 1</rect></_>
    <_>
      <rect>
        0 12 8 8 4</rect></_>
    <_>
      <rect>
        4 0 8 8 12</rect></_>
    <_>
      <rect>
        4 12 8 8 23</rect></_>
    <_>
      <rect>
        4 12 8 8 24</rect></_>
    <_>
      <rect>
        4 16 8 8 17</rect></_>
    <_>
      <rect>
        8 0 8 8 3</rect></_>
    <_>
      <rect>
        8 0 8 8 17</rect></_>
    <_>
      <rect>
        12 4 8 8 15</rect></_>
    <_>
      <rect>
        12 12 8 8 8</rect></_>
    <_>
      <rect>
        12 12 8 8 28</rect></_>
    <_>
      <rect>
        12 16 8 8 29</rect></_>
    <_>
      <rect>
        12 16 8 8 35</rect></_>
    <_>
      <rect>
        16 0 8 8 31</rect></_>
    <_>
      <rect>
        16 0 8 8 33</rect></_>
    <_>
      <rect>
        16 8 8 8 31</rect></_>
    <_>
      <rect>
        16 12 8 8 31</rect></_>
    <_>
      <rect>
        0 0 8 16 22</rect></_>
    <_>
      <rect>
        4 0 8 16 1</rect></_>
    <_>
      <rect>
        8 0 8 16 14</rect></_>
    <_>
      <rect>
        16 0 8 16 15</rect></_>
    <_>
      <rect>
        16 0 8 16 28</rect></_>
    <_>
      <rect>
        0 0 16 8 33</rect></_>
    <_>
      <rect>
        0 4 16 8 26</rect></_>
    <_>
      <rect>
        0 8 16 8 26</rect></_>
    <_>
      <rect>
        0 16 16 8 23</rect></_>
    <_>
      <rect>
        0 0 16 16 1</rect></_>
    <_>
      <rect>
        0 0 16 16 6</rect></_>
    <_>
      <rect>
        0 0 16 16 15</rect></_>
    <_>
      <rect>
        0 0 16 16 23</rect></_>
    <_>
      <rect>
        0 0 16 16 24</rect></_>
    <_>
      <rect>
        0 0 16 16 28</rect></_></features></cascade>
</opencv_storage>
