<?xml version="1.0"?>
<opencv_storage>
<!-- Created using Computer Vision System Toolbox(tm) for MATLAB(R) -->
<!-- Version 9.1.0.441655 (R2016b) -->
<!-- Compatible with OpenCV 2.4 -->
<cascade>
  <stageType>BOOST</stageType>
  <featureType>HOG</featureType>
  <height>33</height>
  <width>32</width>
  <stageParams>
    <boostType>GAB</boostType>
    <minHitRate>8.5000002384185791e-01</minHitRate>
    <maxFalseAlarm>4.0000000596046448e-01</maxFalseAlarm>
    <weightTrimRate>9.4999999999999996e-01</weightTrimRate>
    <maxDepth>1</maxDepth>
    <maxWeakCount>100</maxWeakCount></stageParams>
  <featureParams>
    <maxCatCount>0</maxCatCount>
    <featSize>36</featSize></featureParams>
  <stageNum>12</stageNum>
  <stages>
    <!-- stage 0 -->
    <_>
      <maxWeakCount>1</maxWeakCount>
      <stageThreshold>6.5435189008712769e-01</stageThreshold>
      <weakClassifiers>
        <_>
          <internalNodes>
            0 -1 21 1.4293706044554710e-02</internalNodes>
          <leafValues>
            -8.9622640609741211e-01 6.5435189008712769e-01</leafValues></_></weakClassifiers></_>
    <!-- stage 1 -->
    <_>
      <maxWeakCount>1</maxWeakCount>
      <stageThreshold>6.4515036344528198e-01</stageThreshold>
      <weakClassifiers>
        <_>
          <internalNodes>
            0 -1 20 1.8859725445508957e-02</internalNodes>
          <leafValues>
            -7.4366962909698486e-01 6.4515036344528198e-01</leafValues></_></weakClassifiers></_>
    <!-- stage 2 -->
    <_>
      <maxWeakCount>2</maxWeakCount>
      <stageThreshold>7.2173954686149955e-04</stageThreshold>
      <weakClassifiers>
        <_>
          <internalNodes>
            0 -1 19 2.7003251016139984e-02</internalNodes>
          <leafValues>
            -6.6135847568511963e-01 8.3095139265060425e-01</leafValues></_>
        <_>
          <internalNodes>
            0 -1 1 3.2228372991085052e-02</internalNodes>
          <leafValues>
            6.6208022832870483e-01 -8.1419479846954346e-01</leafValues></_></weakClassifiers></_>
    <!-- stage 3 -->
    <_>
      <maxWeakCount>1</maxWeakCount>
      <stageThreshold>6.5240639448165894e-01</stageThreshold>
      <weakClassifiers>
        <_>
          <internalNodes>
            0 -1 8 3.4806620329618454e-02</internalNodes>
          <leafValues>
            6.5240639448165894e-01 -7.7032357454299927e-01</leafValues></_></weakClassifiers></_>
    <!-- stage 4 -->
    <_>
      <maxWeakCount>1</maxWeakCount>
      <stageThreshold>5.0129872560501099e-01</stageThreshold>
      <weakClassifiers>
        <_>
          <internalNodes>
            0 -1 13 3.9743006229400635e-02</internalNodes>
          <leafValues>
            5.0129872560501099e-01 -8.4279477596282959e-01</leafValues></_></weakClassifiers></_>
    <!-- stage 5 -->
    <_>
      <maxWeakCount>2</maxWeakCount>
      <stageThreshold>-3.1422045081853867e-02</stageThreshold>
      <weakClassifiers>
        <_>
          <internalNodes>
            0 -1 19 3.1535625457763672e-02</internalNodes>
          <leafValues>
            -6.3097810745239258e-01 8.9496719837188721e-01</leafValues></_>
        <_>
          <internalNodes>
            0 -1 10 8.3739906549453735e-03</internalNodes>
          <leafValues>
            -7.4585640430450439e-01 5.9955602884292603e-01</leafValues></_></weakClassifiers></_>
    <!-- stage 6 -->
    <_>
      <maxWeakCount>2</maxWeakCount>
      <stageThreshold>6.2107920646667480e-02</stageThreshold>
      <weakClassifiers>
        <_>
          <internalNodes>
            0 -1 17 4.1631687432527542e-02</internalNodes>
          <leafValues>
            -5.3061223030090332e-01 7.4869108200073242e-01</leafValues></_>
        <_>
          <internalNodes>
            0 -1 2 1.1275123804807663e-02</internalNodes>
          <leafValues>
            5.9272015094757080e-01 -4.4324311614036560e-01</leafValues></_></weakClassifiers></_>
    <!-- stage 7 -->
    <_>
      <maxWeakCount>4</maxWeakCount>
      <stageThreshold>-2.1548174321651459e-01</stageThreshold>
      <weakClassifiers>
        <_>
          <internalNodes>
            0 -1 21 3.2979618757963181e-02</internalNodes>
          <leafValues>
            -5.8771061897277832e-01 7.1188473701477051e-01</leafValues></_>
        <_>
          <internalNodes>
            0 -1 0 4.4557623565196991e-02</internalNodes>
          <leafValues>
            -3.1967777013778687e-01 7.6543325185775757e-01</leafValues></_>
        <_>
          <internalNodes>
            0 -1 16 1.6234273090958595e-02</internalNodes>
          <leafValues>
            -6.4759802818298340e-01 3.6620378494262695e-01</leafValues></_>
        <_>
          <internalNodes>
            0 -1 12 2.5022707879543304e-02</internalNodes>
          <leafValues>
            3.2570284605026245e-01 -6.5796929597854614e-01</leafValues></_></weakClassifiers></_>
    <!-- stage 8 -->
    <_>
      <maxWeakCount>4</maxWeakCount>
      <stageThreshold>6.8619661033153534e-02</stageThreshold>
      <weakClassifiers>
        <_>
          <internalNodes>
            0 -1 9 5.8299761265516281e-02</internalNodes>
          <leafValues>
            -5.1116335391998291e-01 8.1998115777969360e-01</leafValues></_>
        <_>
          <internalNodes>
            0 -1 6 2.8979673981666565e-02</internalNodes>
          <leafValues>
            3.9864438772201538e-01 -6.2449878454208374e-01</leafValues></_>
        <_>
          <internalNodes>
            0 -1 18 3.7330701947212219e-02</internalNodes>
          <leafValues>
            -3.7648630142211914e-01 6.8985730409622192e-01</leafValues></_>
        <_>
          <internalNodes>
            0 -1 4 3.9766363799571991e-02</internalNodes>
          <leafValues>
            -3.2891285419464111e-01 5.5762493610382080e-01</leafValues></_></weakClassifiers></_>
    <!-- stage 9 -->
    <_>
      <maxWeakCount>4</maxWeakCount>
      <stageThreshold>-5.6395627558231354e-02</stageThreshold>
      <weakClassifiers>
        <_>
          <internalNodes>
            0 -1 11 5.6357033550739288e-02</internalNodes>
          <leafValues>
            -5.2979487180709839e-01 6.6272914409637451e-01</leafValues></_>
        <_>
          <internalNodes>
            0 -1 21 4.2428277432918549e-02</internalNodes>
          <leafValues>
            -3.1500157713890076e-01 6.0776877403259277e-01</leafValues></_>
        <_>
          <internalNodes>
            0 -1 3 3.2577149569988251e-02</internalNodes>
          <leafValues>
            -4.6760600805282593e-01 4.5347863435745239e-01</leafValues></_>
        <_>
          <internalNodes>
            0 -1 5 2.4015940725803375e-02</internalNodes>
          <leafValues>
            3.3492219448089600e-01 -6.1631274223327637e-01</leafValues></_></weakClassifiers></_>
    <!-- stage 10 -->
    <_>
      <maxWeakCount>1</maxWeakCount>
      <stageThreshold>7.1300446987152100e-01</stageThreshold>
      <weakClassifiers>
        <_>
          <internalNodes>
            0 -1 7 3.1263690441846848e-02</internalNodes>
          <leafValues>
            -7.8682905435562134e-01 7.1300446987152100e-01</leafValues></_></weakClassifiers></_>
    <!-- stage 11 -->
    <_>
      <maxWeakCount>3</maxWeakCount>
      <stageThreshold>-4.7814127057790756e-02</stageThreshold>
      <weakClassifiers>
        <_>
          <internalNodes>
            0 -1 0 4.8544809222221375e-02</internalNodes>
          <leafValues>
            -6.2500000000000000e-01 7.2671818733215332e-01</leafValues></_>
        <_>
          <internalNodes>
            0 -1 15 1.9658502191305161e-02</internalNodes>
          <leafValues>
            3.3282232284545898e-01 -6.5716320276260376e-01</leafValues></_>
        <_>
          <internalNodes>
            0 -1 14 2.4003617465496063e-02</internalNodes>
          <leafValues>
            2.4436353147029877e-01 -7.4611103534698486e-01</leafValues></_></weakClassifiers></_></stages>
  <features>
    <_>
      <rect>
        0 0 8 8 19</rect></_>
    <_>
      <rect>
        0 4 8 8 22</rect></_>
    <_>
      <rect>
        0 12 8 8 4</rect></_>
    <_>
      <rect>
        4 16 8 8 17</rect></_>
    <_>
      <rect>
        8 0 8 8 3</rect></_>
    <_>
      <rect>
        8 0 8 8 8</rect></_>
    <_>
      <rect>
        12 0 8 8 17</rect></_>
    <_>
      <rect>
        12 12 8 8 28</rect></_>
    <_>
      <rect>
        16 0 8 8 31</rect></_>
    <_>
      <rect>
        16 0 8 8 33</rect></_>
    <_>
      <rect>
        16 4 8 8 34</rect></_>
    <_>
      <rect>
        16 8 8 8 15</rect></_>
    <_>
      <rect>
        16 12 8 8 31</rect></_>
    <_>
      <rect>
        0 0 8 16 22</rect></_>
    <_>
      <rect>
        4 0 8 16 6</rect></_>
    <_>
      <rect>
        4 0 8 16 19</rect></_>
    <_>
      <rect>
        0 0 16 8 2</rect></_>
    <_>
      <rect>
        0 4 16 8 15</rect></_>
    <_>
      <rect>
        0 0 16 16 1</rect></_>
    <_>
      <rect>
        0 0 16 16 15</rect></_>
    <_>
      <rect>
        0 0 16 16 24</rect></_>
    <_>
      <rect>
        0 0 16 16 28</rect></_></features></cascade>
</opencv_storage>
